
\data\
ngram 1=424
ngram 2=943
ngram 3=35

\1-grams:
-2.883167	"A	-0.05369673
-2.883167	,	-0.05369673
-2.883167	,it	-0.05369672
-2.883167	,this	-0.05369672
-1.397204	</s>
-99	<s>	-0.1800185
-2.883167	A	-0.05369673
-2.883167	And	-0.05369672
-2.883167	As	-0.05369673
-2.883167	Because	-0.05369673
-2.883167	Borrowing	-0.05369673
-2.883167	But	-0.05369673
-2.883167	Difficulties	-0.05369673
-2.883167	Engels	-0.05369672
-2.883167	Friedrich	-0.05369673
-2.883167	From	-0.05369673
-2.883167	Helping	-0.05369673
-2.883167	However,	-0.05369672
-2.883167	However,It	-0.05369673
-2.143028	I	-0.05369673
-2.883167	I.	-0.05369673
-2.883167	If	-0.05369673
-2.883167	In	-0.05369673
-2.883167	It	-0.05369672
-2.883167	Karl	-0.05369673
-2.883167	Less	-0.05369673
-2.883167	Li	-0.05369673
-2.883167	Marx	-0.05369673
-2.883167	Meanwhile,trust	-0.05369673
-2.883167	Mike	-0.05369672
-2.883167	Misfortune	-0.05369673
-2.883167	My	-0.05369673
-2.883167	Nourished	-0.05369672
-2.883167	On	-0.05369672
-2.883167	Only	-0.05369673
-2.883167	Owing	-0.05369672
-2.883167	So	-0.05369672
-2.883167	That	-0.05369672
-2.883167	The	-0.05369673
-2.883167	Then	-0.05369673
-2.883167	They	-0.05369673
-2.883167	This	-0.05369673
-2.883167	True	-0.05369673
-2.883167	We	-0.05369673
-2.883167	What's	-0.05369673
-2.883167	When	-0.05369672
-2.883167	You	-0.05369673
-1.941734	a	-0.09023397
-2.883167	ability	-0.05369673
-2.883167	about	-0.05369673
-2.883167	accompanied	-0.05369672
-2.883167	accompany	-0.05369673
-2.883167	action	-0.05369673
-2.883167	affect	-0.05369673
-2.883167	afraid	-0.05369673
-2.883167	after	-0.05369672
-2.883167	again	-0.05369673
-2.883167	again,	-0.05369673
-2.883167	again.	-0.05369673
-2.578584	all	-0.05369674
-2.883167	all.	-0.05369673
-2.883167	along	-0.05369673
-2.723127	also	-0.05369672
-2.529849	always	-0.05369673
-2.883167	am	-0.05369672
-1.563162	and	-0.09699191
-2.723127	are	-0.1442867
-2.396565	as	-0.05369673
-2.883167	asked	-0.05369672
-2.883167	assistance	-0.05369672
-2.883167	at	-0.05369673
-2.578584	attention	-0.4150265
-2.578584	back	-0.05369673
-2.883167	back,	-0.05369672
-2.883167	bad	-0.05369672
-2.883167	bases	-0.05369673
-2.883167	basing	-0.05369673
-1.983997	be	-0.05369671
-2.083311	because	-0.125084
-2.883167	become	-0.05369673
-2.883167	been	-0.05369673
-2.883167	before,	-0.05369672
-2.883167	behavior	-0.05369673
-2.723127	belief	-0.05369673
-2.723127	believe	-0.05369672
-2.883167	better	-0.05369672
-2.212287	between	-0.119807
-2.723127	borrow	-0.2588922
-2.578584	borrowed	-0.05369673
-2.396565	borrowing	-0.1061073
-2.883167	borrows	-0.05369672
-2.883167	briefly	-0.05369673
-2.883167	build	-0.05369673
-2.883167	built	-0.05369672
-2.578584	but	-0.05369673
-2.396565	by	-0.1173935
-2.396565	can	-0.1649151
-2.578584	care	-0.4150265
-2.883167	care,	-0.05369672
-2.883167	case,	-0.05369672
-2.883167	challenge	-0.05369673
-2.578584	cherish	-0.05369672
-2.883167	cherishes	-0.05369673
-2.883167	close	-0.05369673
-2.578584	closer	-0.05369672
-2.883167	come	-0.05369672
-2.883167	common	-0.05369673
-2.883167	communication	-0.05369673
-2.883167	companionship	-0.05369672
-2.883167	companionship.	-0.05369673
-2.883167	concerning	-0.05369673
-2.883167	condition	-0.05369672
-2.883167	conflict	-0.05369673
-2.883167	consequently	-0.05369673
-2.883167	contrary	-0.05369673
-2.883167	contribute	-0.05369672
-2.883167	contributed	-0.05369672
-2.883167	convenient.	-0.05369673
-2.723127	could	-0.2588922
-2.883167	create	-0.05369673
-2.883167	deal	-0.05369673
-2.883167	decay	-0.05369673
-2.883167	deep	-0.05369672
-2.883167	deepened	-0.05369673
-2.883167	deeper	-0.05369673
-2.578584	deeper.	-0.4150265
-2.883167	defeat	-0.05369672
-2.883167	delivered	-0.05369672
-2.883167	destroyed	-0.05369672
-2.578584	develop	-0.05369674
-2.578584	did	-0.05369673
-2.723127	didn't	-0.05369672
-2.883167	difficulties,	-0.05369673
-2.883167	disappear	-0.05369673
-2.883167	disgruntlement	-0.05369673
-2.578584	do	-0.05369673
-2.578584	does	-0.05369674
-2.883167	drug	-0.05369673
-2.143028	each	-0.1946134
-2.883167	early	-0.05369672
-2.883167	easy	-0.05369672
-2.883167	enhance	-0.05369673
-2.883167	even	-0.05369673
-2.883167	example	-0.05369672
-2.578584	exist	-0.05369673
-2.883167	existed	-0.05369672
-2.883167	expense,	-0.05369672
-2.883167	face	-0.05369672
-2.883167	fact,	-0.05369673
-2.883167	fairly	-0.05369673
-2.883167	family	-0.05369673
-2.883167	father	-0.05369673
-2.723127	feel	-0.05369672
-2.883167	fell	-0.05369673
-2.883167	fellowship	-0.05369672
-2.883167	fellowship.	-0.05369673
-2.883167	finally	-0.05369673
-2.883167	follow	-0.05369673
-2.723127	for	-0.05369673
-2.883167	foundation	-0.05369673
-2.883167	founded	-0.05369673
-2.083311	friend	-0.1442867
-2.883167	friend's	-0.05369673
-2.883167	friend,	-0.05369672
-1.867846	friends	-0.1405046
-2.723127	friends,	-0.05369672
-2.883167	friends,including	-0.05369672
-2.529849	friends.	-0.2906608
-2.396565	friendship	-0.0879252
-2.883167	friendship,	-0.05369673
-2.883167	friendship,I	-0.05369673
-2.083311	friendship.	-0.6428433
-2.883167	friendships.	-0.05369673
-2.396565	from	-0.1119445
-2.883167	future	-0.05369673
-2.883167	gap.	-0.05369673
-2.883167	gapped.	-0.05369673
-2.883167	gave	-0.05369673
-2.883167	generosity	-0.05369673
-2.578584	get	-0.05369672
-2.883167	goes,	-0.05369673
-2.723127	good	-0.05369673
-2.883167	got	-0.05369673
-2.883167	graceful	-0.05369673
-2.723127	great	-0.05369672
-2.883167	had	-0.05369673
-2.883167	hands	-0.05369673
-2.883167	hard	-0.05369673
-2.883167	harmed	-0.05369672
-2.883167	has	-0.05369672
-2.723127	he	-0.05369673
-2.578584	heart	-0.05369673
-2.883167	heart.	-0.05369673
-2.212287	help	-0.09239985
-2.578584	help.	-0.4150265
-2.723127	helping	-0.1657221
-2.883167	helping.	-0.05369673
-2.883167	helps	-0.05369673
-2.723127	her	-0.05369673
-2.883167	him	-0.05369673
-2.883167	him,	-0.05369672
-2.883167	him.	-0.05369673
-2.723127	his	-0.05369672
-2.883167	hurt	-0.05369672
-2.883167	hurt,	-0.05369673
-2.529849	if	-0.05369673
-2.883167	illustrates	-0.05369673
-2.883167	impacted	-0.05369673
-2.883167	impaired	-0.05369673
-2.883167	improve	-0.05369673
-2.883167	improved	-0.05369673
-1.804721	in	-0.1026374
-2.883167	increase	-0.05369673
-2.883167	indeed.	-0.05369673
-2.883167	indeed."	-0.05369673
-2.883167	indeed.The	-0.05369672
-2.883167	indicates	-0.05369673
-2.883167	inferior	-0.05369672
-2.883167	influence	-0.05369673
-2.883167	influenced	-0.05369673
-2.883167	injured.	-0.05369673
-2.883167	injury	-0.05369672
-2.883167	interest.	-0.05369673
-2.883167	interests	-0.05369673
-2.883167	into	-0.05369673
-2.883167	involved	-0.05369672
-1.867846	is	-0.1362026
-2.212287	it	-0.1301298
-2.578584	it's	-0.05369673
-2.883167	it.	-0.05369673
-2.883167	just	-0.05369673
-2.883167	keep	-0.05369673
-2.883167	kind	-0.05369673
-2.883167	late	-0.05369673
-2.883167	lend	-0.05369673
-2.578584	lending	-0.4150265
-2.883167	long	-0.05369672
-2.883167	loss	-0.05369673
-2.883167	love	-0.05369673
-2.883167	maintain	-0.05369673
-2.723127	make	-0.05369673
-2.883167	makes	-0.05369672
-2.396565	may	-0.05369673
-2.396565	me	-0.05369672
-2.578584	me,	-0.05369673
-2.883167	me.	-0.05369673
-2.883167	meet	-0.05369673
-2.883167	might	-0.05369672
-2.578584	mom	-0.05369672
-1.941734	money	-0.1502528
-2.883167	money,	-0.05369672
-2.883167	money,it	-0.05369673
-2.723127	money.	-0.1657221
-2.723127	more	-0.05369672
-2.883167	more,when	-0.05369673
-2.723127	much	-0.05369672
-2.578584	must	-0.4150265
-2.529849	mutual	-0.1649151
-2.083311	my	-0.1007563
-2.723127	need	-0.05369672
-2.883167	need.	-0.05369673
-2.883167	needed,	-0.05369673
-2.883167	needn't	-0.05369673
-2.883167	needs	-0.05369673
-2.578584	never	-0.4150265
-2.529849	no	-0.05369673
-2.030822	not	-0.05369672
-2.883167	now.	-0.05369673
-2.883167	nut	-0.05369673
-1.804721	of	-0.08355879
-2.883167	old	-0.05369673
-2.143028	on	-0.119807
-2.883167	on.	-0.05369673
-2.723127	one	-0.05369672
-2.883167	only	-0.05369673
-2.883167	opinion,	-0.05369673
-2.578584	or	-0.05369672
-2.883167	ordinary	-0.05369673
-2.883167	other	-0.05369673
-2.883167	other's	-0.05369673
-2.883167	other,	-0.05369672
-2.883167	other.	-0.05369673
-2.883167	others	-0.05369673
-2.883167	others'	-0.05369673
-1.749617	our	-0.21637
-2.578584	out	-0.05369674
-2.883167	overcome	-0.05369673
-2.883167	owing	-0.05369672
-2.883167	pact	-0.05369673
-2.883167	pact,it	-0.05369673
-2.578584	pay	-0.05369672
-2.883167	pays	-0.05369672
-2.578584	people	-0.05369673
-2.883167	perfectly	-0.05369672
-2.578584	person	-0.4150265
-2.883167	poorer	-0.05369673
-2.883167	possibility	-0.05369672
-2.883167	possible	-0.05369673
-2.883167	predicament	-0.05369673
-2.883167	problem	-0.05369673
-2.883167	problems,	-0.05369673
-2.883167	promotes	-0.05369673
-2.883167	prospect,the	-0.05369673
-2.883167	protect	-0.05369672
-2.883167	proved	-0.05369672
-2.883167	purpose.	-0.05369673
-2.883167	put	-0.05369673
-2.883167	puts	-0.05369672
-2.578584	real	-0.05369672
-2.883167	realistic	-0.05369673
-2.883167	really	-0.05369672
-2.578584	reason	-0.05369674
-2.883167	reason,	-0.05369673
-2.883167	reduce	-0.05369673
-2.883167	reflects	-0.05369673
-2.883167	refuse	-0.05369672
-2.883167	relation	-0.05369673
-2.212287	relationship	-0.1198071
-2.883167	relationship,for	-0.05369672
-2.883167	relying	-0.05369673
-2.883167	repay	-0.05369672
-2.883167	repays	-0.05369672
-2.883167	reputed	-0.05369673
-2.883167	respect	-0.05369673
-2.883167	result,	-0.05369673
-2.883167	resulted	-0.05369673
-2.883167	return	-0.05369672
-2.578584	return.	-0.4150265
-2.883167	returned	-0.05369673
-2.883167	right	-0.05369673
-2.883167	roots	-0.05369673
-2.883167	said	-0.05369673
-2.883167	same	-0.05369673
-2.883167	saying	-0.05369673
-2.883167	see	-0.05369673
-2.883167	see,	-0.05369673
-2.883167	send	-0.05369673
-2.883167	shame.	-0.05369673
-2.883167	shell,	-0.05369673
-2.883167	shoes.	-0.05369673
-2.883167	short-term	-0.05369673
-2.723127	shows	-0.2588921
-2.578584	sign	-0.05369673
-2.883167	sincerity	-0.05369673
-2.723127	so	-0.05369672
-2.883167	solid.	-0.05369673
-2.883167	someone	-0.05369673
-2.883167	something,he	-0.05369673
-2.883167	soon	-0.05369672
-2.883167	stable.	-0.05369673
-2.723127	still	-0.2588922
-2.883167	streching	-0.05369673
-2.578584	strong	-0.05369673
-2.883167	stronger	-0.05369673
-2.883167	such	-0.05369672
-2.883167	suggests	-0.05369673
-2.883167	support	-0.05369673
-2.883167	support.	-0.05369673
-2.578584	supposed	-0.4150265
-2.578584	take	-0.05369672
-2.883167	tell	-0.05369672
-2.883167	temptation	-0.05369673
-2.883167	test	-0.05369672
-2.883167	tests	-0.05369672
-2.883167	than	-0.05369673
-2.883167	thankful	-0.05369673
-1.941734	that	-0.1301298
-2.883167	that's	-0.05369672
-1.472304	the	-0.1383119
-2.529849	their	-0.05369673
-2.578584	them	-0.05369673
-2.883167	them.	-0.05369673
-2.883167	themselves	-0.05369673
-2.578584	then	-0.05369672
-2.578584	there	-0.05369672
-2.883167	there's	-0.05369673
-2.883167	these	-0.05369673
-2.396565	they	-0.1649151
-2.883167	thing	-0.05369673
-2.883167	thing,it	-0.05369672
-2.883167	think	-0.05369673
-2.578584	this	-0.05369672
-2.883167	those	-0.05369673
-2.883167	thoughtful,	-0.05369673
-2.883167	thus	-0.05369673
-2.723127	time	-0.05369673
-2.883167	time,	-0.05369673
-2.883167	time.	-0.05369673
-2.883167	timely	-0.05369673
-1.636375	to	-0.08386217
-2.883167	treat	-0.05369673
-2.578584	true	-0.2588922
-2.212287	trust	-0.1119445
-2.883167	trust.	-0.05369673
-2.883167	trusted,	-0.05369673
-2.883167	trustworthy.	-0.05369673
-2.578584	two	-0.05369673
-2.883167	uncle	-0.05369673
-2.883167	uncomfortable	-0.05369673
-2.723127	us	-0.05369674
-2.883167	us.	-0.05369673
-2.883167	usual	-0.05369672
-2.883167	validity	-0.05369673
-2.883167	valuable,	-0.05369673
-2.578584	very	-0.05369672
-2.883167	vitalize	-0.05369672
-2.578584	was	-0.05369673
-2.883167	wasn't	-0.05369673
-2.883167	way	-0.05369673
-2.883167	ways	-0.05369672
-2.083311	we	-0.09663395
-2.883167	well	-0.05369673
-2.529849	when	-0.19782
-2.396565	which	-0.05369673
-2.294724	who	-0.1837723
-1.941734	will	-0.1394556
-2.883167	willing	-0.05369672
-2.294724	with	-0.05369673
-2.578584	won't	-0.05369672
-2.883167	word,	-0.05369673
-2.883167	worry	-0.05369673
-2.396565	would	-0.05369673
-2.883167	you,and	-0.05369673
-2.723127	your	-0.05369673

\2-grams:
-0.9079897	"A friend
-0.9112951	, I
-0.9213648	,it may
-0.9282101	,this didn't
-1.709653	<s> A	-0.3338924
-1.516621	<s> And	-0.1350119
-1.216536	<s> As	-0.08514914
-1.709653	<s> Because
-1.815766	<s> Borrowing	-0.1914475
-2.580578	<s> But
-2.580578	<s> Difficulties
-2.580578	<s> From
-2.580578	<s> Helping
-2.580578	<s> However,
-2.580578	<s> However,It
-1.71733	<s> I	-0.1920626
-1.815766	<s> If	-0.1915478
-1.516621	<s> In
-1.709653	<s> It
-2.580578	<s> Less
-2.580578	<s> Meanwhile,trust
-2.580578	<s> Mike
-2.580578	<s> Misfortune
-2.580578	<s> My
-2.580578	<s> Nourished
-2.580578	<s> On
-2.580578	<s> Only
-2.580578	<s> Owing
-2.580578	<s> So
-1.709653	<s> That
-1.815766	<s> The
-2.580578	<s> Then
-2.580578	<s> They
-1.516621	<s> This	-0.1910893
-2.580578	<s> True
-2.580578	<s> We
-2.580578	<s> What's
-1.815766	<s> When
-2.580578	<s> You
-2.580578	<s> that's
-1.619246	<s> the
-2.355246	<s> which
-0.9079897	A friend	-0.3338924
-1.373519	And as
-1.294583	And friends
-1.354696	And it
-1.528445	As I
-1.612306	As long	-0.3338923
-1.514917	As my
-1.275349	As the
-1.514917	As we
-1.142632	Because of
-1.218363	Because real
-1.209732	Borrowing from
-1.16585	Borrowing money
-0.9079897	But we
-0.898222	Difficulties will
-0.9213648	Engels would
-0.9301111	Friedrich Engels
-0.9257866	From this
-0.9257866	Helping people
-0.9282101	However, his
-0.9257866	However,It was
-1.851426	I am
-1.851426	I asked
-1.835815	I believe
-1.835815	I borrow
-1.851426	I needn't
-1.851426	I said
-1.637737	I that
-1.851426	I think
-1.736534	I trust
-0.8189828	I. </s>
-1.223129	If he	-0.3338924
-1.223129	If one
-1.406918	In a
-1.519529	In fact,
-1.439254	In my
-1.512189	In one
-1.218363	It does
-1.154086	It is
-0.9301111	Karl Marx
-0.9301111	Less communication
-0.8524297	Li and
-0.8524297	Marx and
-0.8918301	Meanwhile,trust is
-0.9213648	Mike may
-0.9301111	Misfortune tests
-0.9257866	My mom
-0.9213648	Nourished by
-0.8353844	On the
-0.9247739	Only when
-0.8641768	Owing to
-0.9146258	So it
-1.154086	That is
-1.226886	That thing
-1.393194	The belief
-1.398764	The pact
-1.354696	The relationship
-0.9257866	Then it's
-0.9301111	They got
-0.9301111	This example	-0.1350476
-0.8918301	True friends
-0.9257866	We develop
-0.9301111	What's more,when
-1.310926	When a
-1.294583	When friends
-1.386161	When people
-0.9301111	You see,
-2.028236	a better
-2.028236	a close
-2.028236	a common
-1.023996	a friend
-2.006817	a good
-2.006817	a great
-2.028236	a kind
-2.028236	a loss
-2.028236	a nut
-2.028236	a realistic
-2.028236	a reason,
-2.028236	a result,
-2.006817	a time
-0.8524297	ability and
-1.216379	about if
-1.05583	about the
-0.9282101	accompanied her
-0.9179822	accompany with
-0.885531	action of
-0.8793219	affect our
-0.9301111	afraid relying
-0.9213648	after borrowing
-0.8524297	again and
-0.8524297	again, and
-0.8189828	again. </s>
-1.142632	all of
-1.223129	all so
-0.8189828	all. </s>
-0.9257866	along very
-1.310926	also a
-1.319335	also be
-1.386161	also develop
-1.502963	always pay
-1.519529	always put
-1.519529	always repays
-1.305484	always to
-0.9282101	am much
-2.318898	and Friedrich
-2.318898	and again,
-2.278613	and believe
-2.318898	and care,
-2.231924	and cherish
-2.231924	and closer
-2.318898	and concerning
-2.318898	and consequently
-2.231924	and deeper.
-2.231924	and did
-2.318898	and finally
-2.318898	and follow
-2.318898	and graceful
-2.278613	and he
-1.350556	and help
-2.213742	and if
-1.334348	and my
-2.318898	and pays
-2.318898	and reputed
-2.278613	and so
-2.278613	and still
-1.239139	and the
-2.157312	and they
-2.318898	and timely
-2.318898	and usual
-1.98489	and we
-2.231924	and won't
-1.672094	are all
-1.69202	are such
-1.672094	are supposed
-1.69202	are trustworthy.
-0.6859586	are willing	-0.3338924
-1.573155	as a
-1.737869	as for
-1.716165	as mutual
-1.750283	as possible
-1.750283	as soon
-1.333483	as the
-1.431461	as to
-0.9146258	asked help
-0.9282101	assistance could
-0.9301111	at all.
-0.2045959	attention to
-1.19038	back on
-1.104767	back to
-0.9213648	back, borrowing
-0.9282101	bad time
-0.9112951	bases on
-0.9112951	basing on
-2.097027	be afraid
-2.097027	be briefly
-2.097027	be deeper
-2.097027	be destroyed
-2.069911	be for
-2.097027	be founded
-2.097027	be hurt
-2.097027	be impaired
-2.097027	be injured.
-2.069911	be more
-2.097027	be needed,
-2.024557	be no
-2.097027	be proved
-2.097027	be returned
-2.037474	be strong
-2.097027	be thankful
-2.097027	be trusted,
-1.737162	because I
-0.9299778	because of	-0.1918371
-1.58059	because our
-1.826783	because there
-0.9510524	because we
-0.898222	become a
-0.9257866	been borrowed
-0.8353844	before, the
-0.9301111	behavior had
-1.201141	belief and
-1.278833	belief in
-1.227812	belief to
-1.278833	believe in
-1.310926	believe that
-1.373519	believe they
-0.9146258	better trust
-1.808798	between Karl
-0.7847689	between friends
-1.808798	between friends,including
-1.77525	between friends.
-1.754902	between may
-1.754902	between me
-1.808798	between uncle
-1.34613	borrow a
-0.380293	borrow money	-0.06615052
-1.209732	borrowed may
-1.209732	borrowed me
-0.7758059	borrowing money	-0.06615052
-1.680569	borrowing money.
-1.668558	borrowing must
-1.668558	borrowing or
-1.16585	borrows money
-1.05583	borrows the
-0.9301111	briefly delivered
-0.9257866	build strong
-1.19038	built on
-1.226886	built stronger
-1.223129	but also
-1.154086	but is
-0.7172003	by money.	-0.06615052
-1.615121	by streching
-1.309959	by the
-0.5964164	can be
-1.616978	can build
-1.334264	can the
-1.616978	can vitalize
-0.2104651	care about
-0.8353844	care, the
-0.9146258	case, it
-0.885531	challenge in
-1.19038	cherish each
-1.05583	cherish the
-0.9301111	cherishes something,he
-0.9301111	close relation
-1.226886	closer relationship,for
-1.203185	closer with
-0.8641768	come to
-0.8524297	common and
-0.9301111	communication just
-1.226886	companionship at
-1.16585	companionship will
-0.8189828	companionship. </s>
-0.898222	concerning will
-0.9213648	condition can
-0.885531	conflict of
-0.9301111	consequently promotes
-0.9301111	contrary ,it
-0.8641768	contribute to
-0.8641768	contributed to
-0.8189828	convenient. </s>
-0.3861489	could enhance
-1.400008	could feel
-0.9301111	create gap.
-0.885531	deal of
-0.8793219	decay our
-0.9146258	deep relationship
-0.8793219	deepened our
-0.8524297	deeper and
-0.2000804	deeper. </s>
-0.8353844	defeat the
-0.8641768	delivered to
-0.9213648	destroyed by
-1.131473	develop our
-1.223129	develop your
-1.218363	did exist
-1.177942	did not
-1.393194	didn't borrow	-0.3338924
-1.386161	didn't care
-1.393194	didn't make
-0.898222	difficulties, that
-0.9301111	disappear after
-0.8524297	disgruntlement and
-1.226886	do I.
-1.177942	do not
-1.216379	does always
-1.177942	does not
-0.885531	drug in
-0.9723344	each other
-1.861426	each other's
-0.8613859	each other,
-0.9723344	each other.	-0.06615052
-0.9282101	early so
-0.8641768	easy to
-1.184117	enhance friendship.
-1.131473	enhance our
-0.9257866	even do
-1.398764	example illustrates	-0.3338924
-1.393194	example shows
-1.398764	example suggests
-1.184117	exist because
-1.196735	exist between
-0.9146258	existed between
-0.9213648	expense, which
-0.8353844	face the
-0.9079897	fact, we
-0.9301111	fairly convenient.
-0.9301111	family again.
-0.9301111	father wasn't
-1.398764	feel inferior
-1.398764	feel shame.
-1.398764	feel uncomfortable
-0.9014536	fell be
-1.218363	fellowship deeper.
-1.203185	fellowship with
-0.8189828	fellowship. </s>
-0.9301111	finally reduce
-0.8793219	follow our
-1.310926	for a
-1.373519	for me
-1.386161	for me,
-0.885531	foundation of
-0.9112951	founded on
-1.93611	friend cherish
-1.900654	friend from
-0.9437898	friend in	-0.06615052
-1.973439	friend indeed.
-1.973439	friend indeed."
-1.973439	friend indeed.The
-1.973439	friend needs
-1.93611	friend or
-1.580663	friend to
-0.9555579	friend will
-0.9301111	friend's ability
-0.9213648	friend, they
-2.099557	friends always
-1.171543	friends and
-1.310225	friends are
-2.143631	friends could
-2.112123	friends exist
-2.169918	friends fell
-1.137348	friends in
-1.806188	friends is
-2.059547	friends may
-2.169918	friends really
-2.169918	friends respect
-2.022915	friends who
-1.156032	friends will
-2.059547	friends would
-1.345582	friends, I
-1.393194	friends, he
-1.163974	friends, the
-0.9282101	friends,including helping
-0.2937634	friends. </s>
-1.854139	friendship bases
-1.854139	friendship basing
-1.66966	friendship be
-1.746371	friendship between
-1.79049	friendship which
-0.9389949	friendship will
-1.79049	friendship would
-0.9079897	friendship, because
-0.898222	friendship,I will
-0.1070559	friendship. </s>
-0.8189828	friendships. </s>
-1.795243	from borrowing
-0.8319774	from friends
-1.842105	from friends,
-1.842105	from his
-1.825015	from me,
-1.855927	from me.
-1.71441	from my
-1.825015	from then
-0.9079897	future we
-0.8189828	gap. </s>
-0.8189828	gapped. </s>
-0.898222	gave money
-0.8524297	generosity and
-1.226886	get along
-1.226886	get hurt,
-0.9301111	goes, "A
-1.383245	good friends.
-1.336655	good friendship.
-1.354696	good relationship
-0.9257866	got out
-0.8524297	graceful and
-1.386161	great attention
-1.398764	great challenge
-1.398764	great deal
-0.9301111	had influenced
-0.9247739	hands when
-0.9301111	hard condition
-0.8353844	harmed the
-0.9282101	has much
-1.393194	he didn't	-0.3338924
-1.386161	he does
-1.373519	he would
-1.142632	heart in
-1.16585	heart that
-0.8189828	heart. </s>
-1.710055	help between
-1.691367	help each
-1.673451	help friend
-1.75003	help from
-1.778038	help them
-0.9190547	help us
-0.2000804	help. </s>
-0.4919602	helping each	-0.06615051
-0.8189828	helping. </s>
-0.9079897	helps friend
-1.398764	her bad
-1.336655	her friend
-1.278833	her in
-0.8524297	him and
-0.9213648	him, which
-0.8189828	him. </s>
-1.398764	his behavior
-1.398764	his friend,
-1.386161	his heart
-0.9213648	hurt by
-0.9079897	hurt, because
-1.45059	if I
-1.348681	if our
-1.230173	if the
-1.439254	if we
-0.898222	illustrates that
-0.9257866	impacted but
-0.9079897	impaired because
-0.8793219	improve our
-0.8793219	improved our
-1.799419	in a
-1.546242	in and
-2.079096	in her
-1.932411	in it
-1.102809	in my
-2.079096	in need	-0.06615052
-2.103772	in need.
-2.103772	in others'
-2.103772	in problems,
-2.049402	in return.
-2.103772	in right
-1.083064	in the
-2.079096	in time
-2.103772	in time,
-0.9247739	increase their
-0.8189828	indeed. </s>
-0.8189828	indeed." </s>
-0.9146258	indeed.The relationship
-0.898222	indicates that
-0.8641768	inferior to
-0.885531	influence of
-0.9079897	influenced my
-0.8189828	injured. </s>
-0.8641768	injury to
-0.8189828	interest. </s>
-0.9301111	interests involved
-0.8793219	into our
-0.9282101	involved money.
-1.092798	is a	-0.04805689
-2.084923	is also
-2.045813	is always
-1.890296	is because
-2.108031	is been
-1.13454	is built
-2.057008	is closer
-2.108031	is easy
-2.084923	is more
-1.864909	is not
-2.057008	is supposed
-1.093598	is the
-2.057008	is very
-1.433233	it and
-1.54924	it in
-0.7307572	it is
-1.754868	it late
-1.754868	it might
-1.731179	it take
-1.226886	it's fairly
-1.177942	it's not
-0.8189828	it. </s>
-0.9301111	just decay
-0.898222	keep a
-0.885531	kind of
-0.9112951	late on
-0.898222	lend money
-0.2077277	lending money	-0.191196
-0.9213648	long as
-0.885531	loss of
-0.8524297	love and
-0.9257866	maintain but
-1.47669	make a
-1.514917	make friend
-1.452956	make friends
-1.275349	make the
-1.514917	make we
-0.9213648	makes me
-1.612306	may contribute
-1.591886	may get
-1.542408	may help
-1.612306	may increase
-1.501797	may not
-1.32401	me and
-1.603236	me are
-1.603236	me feel
-1.47669	me money
-1.501797	me not
-1.084526	me, and
-1.209732	me, friendship
-0.8189828	me. </s>
-0.9112951	meet each
-0.9282101	might shows
-1.226886	mom accompanied
-1.154086	mom is
-2.10973	money ,this
-2.04914	money always
-1.037397	money and
-2.060059	money back
-2.10973	money back,
-2.014103	money can
-2.060059	money did
-2.10973	money early
-1.123535	money from	-0.08274641
-1.784278	money is
-1.825865	money that
-2.10973	money thing,it
-1.05184	money to
-1.825865	money will
-0.9146258	money, it
-0.8918301	money,it is
-0.4627076	money. </s>
-1.386161	more attention
-1.398764	more solid.
-1.398764	more stable.
-0.9301111	more,when someone
-1.398764	much improved
-1.398764	much poorer
-1.398764	much predicament
-0.2080136	must be
-1.609865	mutual belief
-1.616978	mutual support.
-1.561358	mutual trust
-0.6071838	mutual trust.	-0.3338924
-1.93514	my disgruntlement
-1.93514	my father
-0.9113452	my friends
-1.918181	my friends,
-1.88894	my friends.
-1.918181	my great
-1.897378	my heart
-1.93514	my opinion,
-1.93514	my ordinary
-1.811448	my trust
-1.373519	need can
-1.345582	need each
-1.294583	need is	-0.06615052
-0.8189828	need. </s>
-0.9014536	needed, be
-0.9301111	needn't worry
-0.9301111	needs money,it
-0.2080136	never be
-1.439254	no friendship.
-1.519529	no injury
-1.519529	no possibility
-1.502963	no sign
-1.964634	not affect
-1.724445	not be
-1.919955	not care
-1.964634	not family
-1.94448	not feel
-1.87818	not from
-1.964634	not influence
-1.703385	not money
-1.964634	not only
-1.964634	not refuse
-1.964634	not repay
-1.521348	not to
-0.8189828	now. </s>
-0.9301111	nut shell,
-2.032598	of friends.
-1.101201	of friendship.	-0.3338924
-2.044872	of help.
-2.075615	of helping
-2.10122	of interests
-1.788462	of money
-2.10122	of money,
-2.075615	of much
-2.032598	of mutual
-1.864833	of my
-1.924402	of relationship
-2.10122	of short-term
-1.460331	of the
-2.032598	of their
-2.10122	of these
-2.075615	of us
-0.9301111	old saying
-1.796597	on helping
-1.808798	on him.
-0.8066015	on mutual
-1.552138	on our
-1.808798	on purpose.
-1.396669	on the
-1.808798	on time.
-0.8189828	on. </s>
-1.398764	one helps
-1.364005	one who
-1.398764	one word,
-0.9301111	only maintain
-0.8918301	opinion, friends
-1.218363	or lending
-1.203185	or who
-0.9301111	ordinary expense,
-1.612306	other again
-1.542408	other between
-1.571758	other by
-1.612306	other deepened
-1.430452	other in
-0.9257866	other's help.
-1.084526	other, and
-1.218363	other, then
-0.8189828	other. </s>
-0.8524297	others and
-0.9301111	others' shoes.
-1.160042	our companionship
-2.139275	our fellowship.
-1.213902	our friends
-2.118571	our friends,
-2.050636	our friendship
-0.7721199	our friendship.	-0.2879993
-2.118571	our good
-2.139275	our heart.
-2.139275	our pact,it
-1.142016	our relationship
-1.142632	out of
-1.223129	out your
-0.9301111	overcome difficulties,
-0.8641768	owing to
-0.8918301	pact is
-0.9301111	pact,it perfectly
-1.218363	pay back
-1.05583	pay the
-0.9282101	pays more
-1.226886	people drug
-1.142632	people in
-0.9282101	perfectly shows
-0.2094456	person who
-0.9301111	poorer than
-0.9282101	possibility for
-0.9247739	possible if
-0.9301111	predicament owing
-0.9301111	problem thus
-0.9301111	problems, send
-0.9301111	promotes friendships.
-0.9257866	prospect,the person
-0.8353844	protect the
-0.8641768	proved to
-0.8189828	purpose. </s>
-0.9301111	put themselves
-0.9282101	puts his
-1.154086	real friends
-1.218363	real reason
-0.9301111	realistic prospect,the
-0.9146258	really trust
-1.223129	reason make
-1.142632	reason of
-0.8524297	reason, and
-0.9079897	reduce my
-0.9247739	reflects their
-0.8641768	refuse to
-0.9179822	relation with
-1.681888	relationship because
-0.7999357	relationship between
-1.754902	relationship can
-1.808798	relationship gapped.
-1.605088	relationship is
-1.808798	relationship now.
-1.735466	relationship with
-0.8353844	relationship,for the
-0.9112951	relying on
-0.9146258	repay it
-0.9146258	repays it
-0.9257866	reputed return.
-0.8524297	respect and
-0.8793219	result, our
-0.885531	resulted in
-0.8353844	return the
-0.2000804	return. </s>
-0.9079897	returned because
-0.9301111	right ways
-0.885531	roots in
-0.9301111	said before,
-0.9301111	same way
-0.9301111	saying goes,
-0.9112951	see each
-0.9257866	see, it's
-0.898222	send money
-0.8189828	shame. </s>
-0.9257866	shell, true
-0.8189828	shoes. </s>
-0.9301111	short-term interest.
-1.313599	shows our
-0.380293	shows that
-1.084526	sign and
-1.142632	sign of
-0.885531	sincerity of
-1.373519	so as
-1.386161	so do
-1.398764	so thoughtful,
-0.8189828	solid. </s>
-0.9301111	someone cherishes
-0.9301111	something,he puts
-0.9213648	soon as
-0.8189828	stable. </s>
-1.395541	still get
-0.3861489	still keep	-0.3338924
-0.9257866	streching out
-1.209732	strong by
-1.184117	strong friendship.
-0.9079897	stronger because
-0.9282101	such good
-0.898222	suggests that
-0.9301111	support reflects
-0.8189828	support. </s>
-0.2045959	supposed to	-0.3338924
-1.226886	take roots
-1.226886	take those
-1.16585	tell that
-1.203185	tell who
-0.885531	temptation of
-0.8353844	test the
-0.8353844	tests the
-0.9301111	than him,
-0.8524297	thankful and
-1.865225	that I
-2.01281	that borrow
-1.041472	that borrowing
-2.01281	that didn't
-1.840894	that friend
-1.736267	that friends
-2.032582	that hard
-2.032582	that harmed
-1.979008	that if
-1.046364	that lending	-0.3338924
-1.47774	that the
-1.947648	that they
-0.8353844	that's the
-2.382482	the belief
-2.429355	the conflict
-2.429355	the contrary
-1.51916	the fellowship
-2.429355	the foundation
-2.429355	the friend's
-1.30639	the friendship
-2.429355	the friendship,
-2.429355	the friendship,I
-1.45211	the friendship.	-0.3338924
-2.429355	the future
-2.429355	the generosity
-2.382482	the great
-2.429355	the love
-1.261337	the money
-2.429355	the old
-2.382482	the one
-2.328989	the person
-2.429355	the problem
-2.328989	the real
-2.328989	the reason
-2.140873	the relationship
-2.429355	the same
-2.328989	the sign
-2.429355	the sincerity
-2.429355	the support
-2.429355	the temptation
-1.505492	the true
-1.566717	the trust
-2.328989	the two
-2.429355	the validity
-1.519529	their companionship.
-1.519529	their deep
-1.486492	their friendship
-1.439254	their friendship.
-1.142632	them in
-1.216379	them when
-0.8189828	them. </s>
-0.885531	themselves in
-1.226886	then on.
-1.05583	then the
-1.218363	there was
-1.16585	there will
-0.9247739	there's no
-0.9301111	these helping.
-1.600919	they borrowed
-1.609865	they need
-0.5951744	they will
-1.584935	they would
-0.9301111	thing has
-0.9146258	thing,it help
-1.131473	think our
-1.16585	think that
-1.226886	this action
-1.226886	this case,
-0.9179822	those who
-0.9301111	thoughtful, there's
-0.8793219	thus our
-1.294583	time is
-1.227812	time to
-1.373519	time which
-0.9257866	time, there
-0.8189828	time. </s>
-0.9301111	timely assistance
-1.862165	to a
-2.188224	to all
-1.890726	to be
-2.118297	to borrowing
-1.810126	to friends
-2.028537	to help	-0.3338924
-2.268701	to improve
-2.268701	to it.
-2.268701	to lend
-2.171253	to mutual
-1.954188	to my
-2.268701	to others
-1.721691	to our
-2.268701	to overcome
-2.188224	to pay
-2.268701	to protect
-1.330996	to tell
-2.268701	to test
-1.200427	to the
-2.171253	to their
-2.268701	to them.
-2.268701	to treat
-2.231575	to us
-2.231575	to your
-0.9257866	treat them
-1.363357	true friend
-0.3845776	true friendship
-1.855927	trust ,
-0.801639	trust and
-1.752948	trust between
-1.733252	trust each
-1.855927	trust existed
-1.855927	trust him
-1.795243	trust me
-1.733252	trust on
-0.8189828	trust. </s>
-0.8524297	trusted, and
-0.8189828	trustworthy. </s>
-1.223129	two believe
-1.177942	two not
-0.9301111	uncle Li
-0.9247739	uncomfortable when
-1.571758	us as
-1.612306	us into
-1.612306	us see
-1.359771	us to
-1.556835	us with
-0.8189828	us. </s>
-0.9146258	usual help
-0.885531	validity of
-0.9257866	valuable, mom
-1.226886	very valuable,
-1.226886	very well
-0.8353844	vitalize the
-1.19038	was I
-1.216379	was no
-0.9301111	wasn't impacted
-0.885531	way in
-0.9213648	ways can
-1.969014	we accompany
-0.9826062	we are
-1.950537	we could
-1.969014	we even
-1.969014	we face
-1.969014	we meet
-1.950537	we need
-1.950537	we still
-1.927957	we two
-1.724772	we will
-1.927957	we won't
-0.9079897	well because
-1.423975	when friends
-1.500033	when they
-0.5045246	when we
-1.612306	which contributed
-1.612306	which indicates
-1.612306	which makes
-1.591886	which must
-1.612306	which resulted
-0.7527763	who borrows
-1.685456	who help
-0.8391334	who is
-1.685456	who trust
-2.085468	will also
-0.9124669	will be
-2.108428	will become
-2.108428	will come
-2.108428	will disappear
-1.241444	will make
-2.057722	will never
-1.202474	will not
-2.108428	will return
-2.057722	will take
-0.8641768	willing to
-1.589371	with each
-1.676632	with her
-1.65772	with no
-1.45454	with our
-1.687392	with us.
-1.687392	with you,and
-1.171854	won't be
-1.226886	won't create
-0.9257866	word, this
-0.898222	worry that
-1.612306	would defeat
-1.612306	would gave
-1.591886	would never
-1.501797	would not
-1.603236	would still
-0.898222	you,and will
-1.294583	your friends
-1.336655	your friendship.
-1.398764	your hands

\3-grams:
-0.2264085	<s> A friend
-0.5254876	<s> And as
-0.7030945	<s> As long
-0.3974863	<s> Borrowing money
-0.4359828	<s> I think
-0.4032593	<s> If he
-0.364907	<s> This example
-0.722471	is a friend
-0.1369434	didn't borrow money
-0.2555627	he didn't borrow
-0.6330097	helping each other
-0.5279607	This example illustrates
-0.2297374	A friend in
-0.04637347	of friendship. </s>
-0.05186276	our friendship. </s>
-0.04637347	the friendship. </s>
-0.5299196	money from friends
-0.2555627	If he didn't
-0.2629083	to help each
-0.2254563	example illustrates that
-0.8284447	friend in need
-0.6764697	need is a
-0.2254563	still keep a
-0.08419535	that lending money
-0.2276814	As long as
-0.6863513	borrow money from
-0.6863513	borrowing money from
-0.3837719	lending money to
-0.3593377	by money. </s>
-0.7331523	in need is
-0.4209634	because of the
-0.5661329	each other. </s>
-0.2669801	supposed to help
-0.216979	mutual trust. </s>
-0.2219826	are willing to

\end\
