
\data\
ngram 1=991
ngram 2=2666
ngram 3=132

\1-grams:
-3.385202	"friends"	-0.07257947
-3.385202	,instead	-0.07257947
-3.385202	,we	-0.07257947
-3.385202	--	-0.07257947
-3.26124	.	-0.1629014
-3.26124	1	-0.07257947
-2.818344	100	-0.1153966
-3.385202	1000	-0.07257947
-3.26124	2	-0.07257947
-3.26124	20,000	-0.07257947
-3.385202	300	-0.07257947
-3.385202	500	-0.07257947
-3.385202	5yuan	-0.07257946
-1.301843	</s>
-99	<s>	-0.4948616
-3.385202	A	-0.07257947
-3.385202	About	-0.07257947
-3.385202	After	-0.07257947
-3.385202	Again	-0.07257946
-3.385202	Although	-0.07257946
-3.385202	And	-0.07257947
-2.94148	Anna	-0.07257946
-3.385202	Anna.	-0.07257947
-3.385202	As	-0.07257947
-3.385202	At	-0.07257946
-3.385202	Aunt	-0.07257947
-3.385202	Bao	-0.07257947
-3.385202	Because	-0.07257947
-3.385202	Before	-0.07257947
-3.385202	Beijing	-0.07257946
-3.385202	Beijing,	-0.07257947
-3.385202	Beijing.	-0.07257947
-3.385202	But	-0.07257947
-3.385202	Chan,	-0.07257947
-3.385202	Cheng.	-0.07257947
-3.385202	Das	-0.07257947
-3.385202	Due	-0.07257947
-3.385202	During	-0.07257947
-3.385202	Each	-0.07257947
-3.385202	Elsa	-0.07257946
-2.94148	Engels	-0.07257946
-3.385202	English	-0.07257947
-3.385202	Even	-0.07257947
-3.385202	Five	-0.07257947
-3.385202	For	-0.07257947
-3.385202	Friedrich	-0.07257947
-3.385202	From	-0.07257946
-3.26124	Guan	-0.07257947
-3.385202	He	-0.07257947
-3.385202	Her	-0.07257947
-3.385202	However,	-0.07257947
-1.735216	I	-0.2480454
-3.26124	I'm	-0.07257947
-3.385202	If	-0.07257946
-3.385202	In	-0.07257947
-3.385202	Instead	-0.07257947
-3.385202	Internet	-0.07257946
-2.94148	It	-0.1006501
-3.385202	It's	-0.07257947
-3.385202	Jack	-0.07257947
-3.385202	Japan	-0.07257947
-3.385202	Japan.	-0.07257947
-3.385202	Jim,	-0.07257947
-3.385202	Kapital,	-0.07257947
-3.385202	Karl	-0.07257947
-3.385202	Last	-0.07257947
-3.385202	Later,	-0.07257947
-3.385202	Li	-0.07257947
-3.385202	Li,	-0.07257947
-3.385202	Linda	-0.07257947
-3.385202	Liu	-0.07257946
-3.385202	Liu,	-0.07257947
-3.385202	MaYun	-0.07257947
-2.94148	Marx	-0.07257947
-3.385202	Marxism,he	-0.07257946
-3.385202	Mary,my	-0.07257947
-3.385202	Mayun	-0.07257947
-3.385202	Meanwhile,	-0.07257947
-3.385202	Mike,	-0.07257947
-3.385202	Mom	-0.07257947
-3.385202	Mr.	-0.07257947
-3.385202	Mr.Wang	-0.07257947
-3.385202	Mr.Wang's	-0.07257947
-3.385202	My	-0.07257947
-3.385202	Not	-0.07257947
-3.385202	Now	-0.07257947
-3.385202	Once	-0.07257946
-3.385202	Once,	-0.07257947
-3.385202	One	-0.07257947
-3.26124	RMB	-0.07257947
-3.385202	Shanghai	-0.07257947
-3.385202	She	-0.07257947
-3.385202	Since	-0.07257947
-3.385202	So	-0.07257947
-3.385202	Sometime	-0.07257946
-3.385202	T-shirt	-0.07257947
-3.385202	Take	-0.07257947
-3.385202	Taking	-0.07257947
-3.385202	Ten	-0.07257947
-3.385202	That	-0.07257947
-3.385202	The	-0.07257947
-3.385202	Then	-0.07257947
-3.385202	Therefore,	-0.07257946
-3.385202	They	-0.07257947
-3.385202	Though	-0.07257947
-3.385202	Thus,	-0.07257947
-3.385202	Till	-0.07257947
-3.385202	Tom,	-0.07257946
-3.385202	Two	-0.07257947
-3.385202	Vivian,	-0.07257946
-3.26124	Wang	-0.07257947
-3.385202	Wang,	-0.07257947
-3.385202	We	-0.07257947
-3.385202	When	-0.07257947
-3.385202	While	-0.07257947
-3.385202	Without	-0.07257947
-3.26124	Xiao	-0.1629013
-3.385202	Xiaoli	-0.07257946
-3.26124	Xiaoming	-0.07257947
-3.385202	Zhang.	-0.07257947
-1.753295	a	-0.1466969
-3.385202	able	-0.07257947
-2.818344	about	-0.07257948
-3.385202	about.	-0.07257947
-3.385202	above	-0.07257947
-3.385202	absence,which	-0.07257947
-3.385202	acted	-0.07257946
-3.385202	advance.	-0.07257947
-3.385202	affected	-0.07257947
-2.94148	afford	-0.07257947
-3.385202	afriad	-0.07257946
-2.278166	after	-0.2385714
-3.385202	after,	-0.07257947
-3.385202	again,	-0.07257946
-3.385202	again.	-0.07257947
-3.26124	ago,	-0.07257947
-3.385202	agreed	-0.07257946
-3.385202	aid	-0.07257947
-3.385202	aids	-0.07257947
-2.818344	all	-0.07257947
-3.385202	all,because	-0.07257947
-3.385202	all.	-0.07257947
-3.385202	allowence	-0.07257946
-3.385202	almost	-0.07257947
-3.385202	along	-0.07257946
-2.818344	also	-0.07257947
-3.385202	although	-0.07257947
-2.469184	always	-0.07257947
-3.385202	am	-0.07257947
-3.385202	amount	-0.07257947
-3.385202	amount.	-0.07257947
-2.818344	an	-0.07257947
-1.599458	and	-0.1742962
-3.385202	animation,	-0.07257947
-3.26124	another	-0.07257947
-3.26124	answered	-0.07257947
-2.818344	any	-0.07257947
-3.385202	any.	-0.07257947
-3.385202	anymore.	-0.07257947
-3.385202	anything	-0.07257947
-3.385202	anything.	-0.07257947
-3.26124	appreciate	-0.1306613
-3.385202	appreciates	-0.07257946
-3.385202	appreciation.	-0.07257947
-2.94148	are	-0.07257946
-2.22037	as	-0.149329
-3.385202	ashamed	-0.07257947
-3.385202	ashamed.	-0.07257947
-2.818344	ask	-0.1153965
-2.72252	asked	-0.3321264
-3.385202	asking	-0.07257947
-2.42367	at	-0.2446867
-3.385202	attitude	-0.07257946
-3.385202	attitude.	-0.07257947
-3.385202	aunt	-0.07257947
-3.385202	avoid	-0.07257947
-3.385202	avoided	-0.07257947
-3.26124	away	-0.07257947
-3.26124	away,	-0.07257947
-3.385202	away.	-0.07257947
-2.344853	back	-0.2095746
-3.385202	back,	-0.07257946
-3.385202	back,I	-0.07257947
-3.26124	back.	-0.1629014
-3.385202	badly	-0.07257947
-3.385202	balance	-0.07257947
-3.385202	bank	-0.07257946
-2.577636	be	-0.07257946
-3.385202	be.	-0.07257947
-3.385202	beakfast	-0.07257947
-2.72252	became	-0.07257947
-2.42367	because	-0.7069353
-3.385202	become	-0.07257947
-3.385202	becomes	-0.07257947
-2.94148	been	-0.07257947
-3.385202	before	-0.07257947
-3.26124	before.	-0.1629014
-3.385202	behvior	-0.07257946
-3.385202	being	-0.07257946
-3.385202	believe	-0.07257947
-3.385202	believed	-0.07257947
-3.385202	believes	-0.07257946
-2.94148	best	-0.1153966
-3.385202	better.	-0.07257947
-3.26124	between	-0.07257947
-3.385202	big	-0.07257947
-3.385202	bill	-0.07257947
-3.385202	bill.	-0.07257947
-3.385202	birthday,	-0.07257946
-3.385202	bit	-0.07257947
-3.26124	book	-0.07257947
-3.385202	bookstore,	-0.07257947
-2.42367	borrow	-0.2859568
-2.344853	borrowed	-0.3228924
-2.94148	borrowing	-0.4250843
-3.385202	borrowing,	-0.07257947
-3.385202	borrows	-0.07257947
-3.385202	both	-0.07257947
-3.385202	bothered	-0.07257947
-3.385202	bottom	-0.07257947
-3.26124	bought	-0.1306613
-3.385202	boyfriend	-0.07257947
-3.385202	break	-0.07257947
-2.94148	bring	-0.1153965
-3.385202	broke	-0.07257947
-3.385202	brothers.	-0.07257947
-3.26124	brought	-0.07257947
-3.385202	builds	-0.07257947
-2.94148	bus	-0.07257947
-3.385202	business	-0.07257947
-3.385202	business,	-0.07257946
-2.278166	but	-0.255989
-3.26124	buy	-0.07257946
-2.818344	by	-0.07257947
-3.385202	cafeteria	-0.07257947
-2.94148	called	-0.1306613
-3.26124	came	-0.1306613
-2.644064	can	-0.1064888
-3.385202	can't	-0.07257947
-3.385202	card.	-0.07257947
-3.385202	career.	-0.07257947
-3.26124	case	-0.07257946
-3.385202	case,except	-0.07257947
-3.385202	cases,	-0.07257947
-3.26124	cash	-0.07257947
-3.385202	celebrate	-0.07257946
-3.385202	charge	-0.07257947
-3.385202	choice	-0.07257947
-3.385202	choice,it	-0.07257947
-3.385202	chose	-0.07257947
-3.26124	city,	-0.07257947
-3.26124	classmate	-0.07257947
-3.385202	classmate,	-0.07257947
-2.644064	close	-0.121873
-2.94148	closer	-0.1306613
-3.385202	clothes.	-0.07257947
-3.385202	coffee,	-0.07257947
-3.26124	colleague	-0.07257947
-3.385202	colleagues	-0.07257947
-3.385202	collect	-0.07257947
-3.385202	college	-0.07257947
-3.385202	college,	-0.07257947
-3.385202	comfortable	-0.07257947
-3.385202	communicate,	-0.07257946
-3.385202	communicated	-0.07257946
-3.385202	company	-0.07257947
-3.385202	concerned	-0.07257947
-3.385202	concerning	-0.07257947
-3.385202	condition,	-0.07257946
-3.385202	condition.	-0.07257947
-3.385202	confidence	-0.07257947
-3.385202	conflicts.	-0.07257947
-3.385202	confused	-0.07257947
-3.385202	confusion	-0.07257947
-3.385202	consequence,I	-0.07257947
-3.385202	consider	-0.07257946
-3.385202	considered	-0.07257946
-3.385202	constantly	-0.07257947
-3.385202	contact	-0.07257947
-3.385202	cooperated	-0.07257946
-3.385202	cost	-0.07257947
-2.72252	could	-0.1064888
-3.26124	couldn't	-0.07257947
-3.385202	count	-0.07257947
-3.385202	course	-0.07257946
-3.26124	create	-0.07257947
-3.26124	credit	-0.07257947
-3.385202	credit.	-0.07257947
-3.385202	cured	-0.07257946
-3.385202	dad	-0.07257947
-3.385202	daily	-0.07257947
-3.385202	damage	-0.07257946
-3.385202	damaged.	-0.07257947
-3.385202	date	-0.07257947
-3.385202	daughter	-0.07257946
-3.385202	day.	-0.07257947
-3.26124	days	-0.07257947
-3.385202	days,	-0.07257947
-3.385202	days.	-0.07257947
-3.385202	deadline	-0.07257947
-3.385202	decades	-0.07257946
-3.26124	decided	-0.1629013
-3.385202	deed,that	-0.07257947
-3.385202	deeply.	-0.07257947
-3.385202	deleted	-0.07257946
-3.385202	depend	-0.07257947
-3.385202	desease	-0.07257946
-3.385202	despite	-0.07257947
-2.644064	did	-0.3985847
-3.385202	did.	-0.07257947
-2.520034	didn't	-0.1119488
-3.385202	difficulties	-0.07257946
-3.385202	dilemma.	-0.07257947
-3.385202	dinner	-0.07257947
-3.385202	directly	-0.07257946
-3.385202	directly.	-0.07257947
-3.385202	disappointed	-0.07257947
-3.26124	dishonored	-0.07257947
-3.385202	dispute	-0.07257947
-3.385202	distance	-0.07257947
-3.385202	divorced	-0.07257947
-2.94148	do	-0.07257947
-3.385202	doesn't	-0.07257947
-3.26124	don't	-0.1306613
-3.385202	dormitory	-0.07257946
-3.385202	dormitory,	-0.07257947
-3.385202	dormitory.	-0.07257947
-2.818344	due	-0.784521
-3.26124	during	-0.07257947
-2.818344	each	-0.1064887
-3.385202	early.	-0.07257947
-3.385202	earn	-0.07257946
-3.385202	easy	-0.07257947
-2.818344	economic	-0.07257947
-3.385202	eligible	-0.07257946
-3.26124	embarrassed	-0.07257947
-3.385202	embrasessed	-0.07257947
-3.26124	emergency	-0.07257946
-3.26124	emergency,	-0.07257946
-3.385202	emergency.	-0.07257947
-3.385202	empire,the	-0.07257947
-3.385202	enjoyed	-0.07257947
-2.72252	enough	-0.1306613
-3.385202	essential.	-0.07257947
-3.26124	even	-0.07257947
-3.385202	eventually,i	-0.07257947
-3.385202	ever	-0.07257947
-3.26124	every	-0.07257947
-3.26124	example	-0.07257946
-3.385202	example,	-0.07257947
-3.385202	example,one	-0.07257947
-3.385202	exceeded	-0.07257947
-3.385202	except	-0.07257947
-3.385202	excuse	-0.07257946
-3.26124	expenses	-0.07257947
-3.385202	experience	-0.07257947
-3.385202	experienxe,i	-0.07257947
-3.385202	explain	-0.07257947
-3.385202	express	-0.07257947
-3.385202	faces	-0.07257947
-3.385202	fact,	-0.07257947
-3.385202	fade	-0.07257947
-3.385202	failed	-0.07257947
-3.385202	failure	-0.07257947
-3.385202	faith	-0.07257947
-3.26124	family	-0.07257945
-3.385202	family's	-0.07257947
-3.26124	family.	-0.1629014
-3.385202	fancy	-0.07257947
-2.94148	father	-0.07257946
-3.385202	father's	-0.07257947
-3.385202	father,	-0.07257947
-3.385202	feel	-0.07257947
-3.26124	fellowship	-0.1629013
-3.385202	fellowship.	-0.07257947
-2.818344	felt	-0.07257947
-3.385202	fetching	-0.07257946
-3.26124	few	-0.07257947
-3.385202	figure	-0.07257947
-2.94148	financial	-0.07257947
-3.385202	finanical	-0.07257947
-3.385202	find	-0.07257946
-3.385202	finds	-0.07257947
-3.385202	finished	-0.07257947
-3.385202	finishing	-0.07257947
-3.385202	firend	-0.07257947
-3.385202	first	-0.07257947
-3.385202	flow	-0.07257947
-3.385202	food	-0.07257946
-1.993684	for	-0.1779507
-3.26124	forget	-0.07257947
-3.385202	forgetful	-0.07257946
-3.26124	forgot	-0.07257947
-2.818344	found	-0.07257947
-2.310231	friend	-0.1542267
-3.26124	friend's	-0.07257947
-2.818344	friend,	-0.07257947
-3.385202	friend,had	-0.07257947
-3.26124	friend.	-0.1629014
-2.469184	friends	-0.07257947
-3.385202	friends'	-0.07257947
-2.72252	friends,	-0.07257946
-3.385202	friends,he	-0.07257947
-2.72252	friends.	-0.881431
-2.72252	friendship	-0.2084414
-3.385202	friendship,	-0.07257947
-3.385202	friendship.	-0.07257947
-2.248307	from	-0.2211541
-3.385202	fun	-0.07257946
-3.385202	fun,	-0.07257946
-3.26124	gave	-0.07257946
-3.385202	generosity	-0.07257946
-3.385202	generosity.	-0.07257947
-3.385202	generous.	-0.07257947
-2.94148	get	-0.07257947
-2.94148	getting	-0.07257946
-3.385202	girl	-0.07257947
-3.385202	girlfriend	-0.07257947
-2.72252	give	-0.07257947
-3.385202	given	-0.07257947
-3.385202	glad	-0.07257947
-2.818344	go	-0.1153965
-3.385202	goes,friends	-0.07257947
-2.94148	going	-0.1306613
-2.644064	good	-0.09346055
-2.577636	got	-0.09346055
-3.385202	gradually	-0.07257947
-3.385202	gradually.	-0.07257947
-3.385202	graduated	-0.07257947
-3.385202	graduating	-0.07257947
-3.385202	granted	-0.07257947
-3.26124	grateful	-0.07257947
-3.385202	grateful.	-0.07257947
-3.26124	great	-0.07257947
-3.385202	greedy,	-0.07257946
-3.385202	grew	-0.07257947
-2.520034	had	-0.1785906
-3.385202	hand,	-0.07257947
-3.26124	hand.	-0.1629014
-3.385202	hanging	-0.07257947
-3.385202	happened	-0.07257947
-3.385202	happened,	-0.07257946
-3.385202	happened.	-0.07257947
-3.385202	hard	-0.07257947
-3.385202	harm	-0.07257947
-3.385202	harm,	-0.07257947
-3.385202	harmed	-0.07257947
-3.385202	harmful	-0.07257947
-2.520034	has	-0.07257947
-3.385202	haste.	-0.07257947
-2.469184	have	-0.273646
-2.72252	having	-0.1064888
-1.845499	he	-0.1494545
-2.469184	help	-0.1854223
-2.818344	help.	-0.784521
-2.94148	helped	-0.07257946
-3.385202	helping	-0.07257947
-1.993684	her	-0.1082067
-3.385202	her,	-0.07257947
-2.818344	her.	-0.784521
-3.385202	here,	-0.07257947
-3.385202	hesitate	-0.07257947
-3.385202	hesitating.	-0.07257947
-3.385202	hesitation,	-0.07257946
-3.385202	hesitation.	-0.07257947
-3.26124	high	-0.07257946
-2.310231	him	-0.09488899
-3.385202	him,	-0.07257947
-2.72252	him.	-0.881431
-1.977919	his	-0.1931286
-3.385202	history	-0.07257947
-3.385202	hitherto.	-0.07257947
-3.26124	home	-0.07257947
-3.385202	home,	-0.07257947
-3.26124	home.	-0.1629014
-3.385202	honesty	-0.07257947
-3.385202	honesty,	-0.07257947
-3.385202	hope	-0.07257946
-3.385202	house	-0.07257947
-3.385202	house's	-0.07257947
-3.385202	house,	-0.07257946
-3.26124	however,	-0.07257947
-3.385202	huge	-0.07257947
-3.26124	hundreds	-0.07257947
-2.577636	i	-0.08638804
-2.818344	if	-0.07257947
-3.385202	ignore	-0.07257947
-3.26124	ill,	-0.07257947
-2.94148	immediately	-0.07257947
-3.385202	immediately.	-0.07257947
-1.948007	in	-0.15507
-3.385202	influenced	-0.07257947
-3.385202	influent	-0.07257947
-3.385202	initatively	-0.07257947
-3.26124	instance,	-0.07257947
-3.385202	intended	-0.07257947
-3.385202	interested	-0.07257946
-3.385202	international	-0.07257947
-3.385202	intimate,	-0.07257947
-3.385202	into	-0.07257947
-3.385202	investment,	-0.07257947
-3.385202	invite	-0.07257946
-3.385202	involved	-0.07257947
-2.123734	is	-0.1512101
-3.385202	issue.	-0.07257947
-2.123734	it	-0.1755999
-3.385202	it's	-0.07257947
-3.26124	it,	-0.07257947
-2.94148	it.	-0.6595823
-3.385202	job,	-0.07257946
-2.818344	just	-0.07257947
-3.26124	keep	-0.07257946
-3.385202	key	-0.07257947
-3.26124	kind	-0.07257947
-3.385202	kindness.	-0.07257947
-3.26124	knew	-0.07257947
-2.94148	know	-0.07257946
-3.385202	knowing	-0.07257947
-3.385202	lack	-0.07257947
-3.385202	lacking	-0.07257947
-3.385202	large	-0.07257947
-3.385202	last	-0.07257947
-3.385202	last,	-0.07257947
-3.26124	lasted	-0.07257947
-3.26124	late,	-0.07257946
-3.385202	later	-0.07257947
-3.385202	later,	-0.07257946
-3.385202	lead	-0.07257946
-3.385202	least,	-0.07257946
-3.385202	led	-0.07257946
-3.26124	left	-0.07257946
-2.818344	lend	-0.07257947
-3.385202	lended	-0.07257947
-2.644064	lent	-0.1384997
-3.26124	less	-0.07257947
-3.385202	life	-0.07257947
-3.385202	life.	-0.07257947
-3.385202	lighter	-0.07257946
-3.385202	lighter.	-0.07257947
-3.385202	like	-0.07257947
-3.385202	limited-edition	-0.07257947
-3.385202	literally	-0.07257947
-3.26124	live	-0.07257947
-3.385202	living	-0.07257947
-3.385202	loans	-0.07257947
-3.385202	loans,	-0.07257947
-2.72252	long	-0.1064888
-3.385202	long.	-0.07257947
-3.385202	looked.	-0.07257947
-3.26124	lost	-0.07257947
-3.385202	lot	-0.07257947
-3.385202	lot's	-0.07257947
-3.385202	love,	-0.07257946
-2.577636	made	-0.09652725
-3.385202	main	-0.07257947
-2.94148	make	-0.07257947
-3.26124	makes	-0.07257947
-3.385202	masterpiece	-0.07257947
-3.385202	match.	-0.07257947
-3.385202	mate,it	-0.07257947
-3.385202	math	-0.07257947
-3.385202	matter,our	-0.07257947
-3.26124	may	-0.07257947
-1.993684	me	-0.194593
-2.577636	me,	-0.09109023
-3.385202	me,as	-0.07257947
-3.385202	me,but	-0.07257946
-3.385202	me,which	-0.07257947
-2.818344	me.	-0.784521
-3.385202	meal	-0.07257946
-3.26124	meal,	-0.07257947
-3.385202	meal.	-0.07257947
-3.385202	means	-0.07257946
-3.385202	meet	-0.07257947
-2.72252	mentioned	-0.07257947
-3.385202	mentioned.	-0.07257947
-3.385202	met	-0.07257947
-3.385202	middle	-0.07257947
-3.385202	middle-age,	-0.07257947
-3.385202	mine	-0.07257947
-3.385202	mine,	-0.07257946
-3.26124	mine.	-0.1629014
-3.385202	minimum	-0.07257947
-3.385202	misunderstanding.	-0.07257947
-3.385202	mobile	-0.07257947
-3.385202	mom	-0.07257947
-3.26124	mom's	-0.07257947
-3.385202	moment	-0.07257946
-2.102596	money	-0.4052173
-2.577636	money,	-0.2205799
-3.385202	money,and	-0.07257947
-2.42367	money.	-1.182461
-3.385202	money;	-0.07257947
-3.385202	month	-0.07257947
-3.385202	month.	-0.07257947
-3.26124	months	-0.07257947
-2.94148	more	-0.6595823
-3.385202	more.	-0.07257947
-3.385202	most	-0.07257947
-2.94148	mother	-0.07257946
-3.26124	mother's	-0.07257947
-3.385202	moved	-0.07257946
-3.26124	much	-0.07257947
-3.385202	muddled.	-0.07257947
-3.385202	mun	-0.07257946
-2.72252	must	-0.1064888
-1.71786	my	-0.2888005
-3.385202	myself	-0.07257946
-3.385202	name	-0.07257946
-3.385202	near	-0.07257947
-2.94148	need	-0.07257947
-3.385202	need,and	-0.07257946
-2.818344	needed	-0.07257947
-3.385202	needs	-0.07257947
-2.520034	never	-0.07257946
-3.26124	new	-0.07257947
-3.385202	night	-0.07257947
-2.94148	no	-0.1306613
-3.385202	nobody	-0.07257947
-3.385202	none	-0.07257947
-2.344853	not	-0.1531618
-3.26124	nothing	-0.07257947
-3.385202	noticed	-0.07257946
-3.26124	now	-0.07257947
-3.385202	now,	-0.07257947
-3.385202	now.	-0.07257947
-3.385202	number	-0.07257946
-3.385202	occurred.	-0.07257947
-3.385202	occurs	-0.07257947
-1.823251	of	-0.2859554
-3.385202	offer	-0.07257947
-2.94148	often	-0.07257946
-3.385202	old	-0.07257947
-2.644064	on	-0.2943546
-3.26124	on,	-0.07257946
-3.385202	on.	-0.07257947
-2.520034	once	-0.2432021
-2.278166	one	-0.4424286
-3.385202	only	-0.07257947
-3.385202	operation,	-0.07257947
-3.385202	operation.	-0.07257947
-3.26124	or	-0.07257947
-2.94148	other	-0.07257946
-3.385202	other,	-0.07257947
-3.385202	other.	-0.07257947
-3.385202	others	-0.07257946
-3.385202	others.	-0.07257947
-3.26124	ought	-0.1629013
-2.310231	our	-0.2685347
-2.520034	out	-0.07257946
-3.385202	outside.	-0.07257947
-3.385202	owes	-0.07257946
-2.818344	own	-0.07257947
-3.385202	pact	-0.07257946
-2.577636	paid	-0.1153965
-3.385202	parents	-0.07257947
-3.26124	part	-0.07257946
-3.385202	part-time	-0.07257947
-3.385202	parties,	-0.07257947
-3.385202	party,	-0.07257947
-3.385202	pass	-0.07257947
-3.26124	passed	-0.1629013
-2.577636	pay	-0.2651603
-3.385202	payed	-0.07257947
-3.385202	paying	-0.07257947
-3.385202	payment.	-0.07257947
-3.385202	pays	-0.07257946
-3.385202	people	-0.07257946
-3.385202	perfunctory	-0.07257947
-3.385202	period	-0.07257947
-3.385202	period,	-0.07257947
-3.385202	person	-0.07257947
-3.385202	philosophy.	-0.07257947
-3.385202	phone	-0.07257947
-3.385202	phone,	-0.07257947
-3.385202	phrased	-0.07257947
-3.385202	piggy	-0.07257947
-3.385202	place	-0.07257946
-3.385202	plea,	-0.07257947
-3.385202	pleasure	-0.07257947
-3.385202	pleasure.	-0.07257947
-3.385202	plight	-0.07257946
-3.385202	point,	-0.07257947
-3.385202	point.	-0.07257947
-3.385202	possible.	-0.07257947
-3.385202	poverty.	-0.07257947
-3.385202	predicted	-0.07257947
-3.385202	preliminary	-0.07257947
-3.385202	premise	-0.07257946
-3.385202	pretended	-0.07257947
-3.385202	problem	-0.07257947
-3.26124	problem.	-0.1629014
-3.385202	problems	-0.07257947
-3.385202	project	-0.07257946
-3.385202	project,	-0.07257946
-3.385202	promise	-0.07257946
-2.818344	promised	-0.1153965
-3.385202	promising	-0.07257947
-3.385202	protect	-0.07257946
-3.385202	provided	-0.07257947
-3.385202	psychology	-0.07257946
-3.385202	purchasing	-0.07257946
-3.385202	purpose,	-0.07257946
-3.385202	purpose.	-0.07257947
-3.385202	purse	-0.07257947
-3.385202	purse.	-0.07257947
-3.385202	quick	-0.07257947
-3.26124	quite	-0.07257946
-3.385202	reach	-0.07257947
-3.385202	ready	-0.07257947
-3.26124	real	-0.1629013
-3.26124	realized	-0.07257947
-2.644064	really	-0.07257947
-3.26124	reason	-0.07257947
-3.385202	reasonable	-0.07257947
-3.385202	reasons	-0.07257946
-3.385202	recall	-0.07257946
-3.385202	recharge	-0.07257947
-3.385202	recharged	-0.07257947
-3.385202	reduced	-0.07257947
-3.385202	refused.	-0.07257947
-3.385202	regularly.	-0.07257947
-3.385202	relations	-0.07257946
-3.385202	relationship	-0.07257947
-3.385202	relationship.	-0.07257947
-3.26124	relatives	-0.07257947
-2.94148	remember	-0.07257947
-3.385202	reminded	-0.07257947
-3.385202	repaied	-0.07257947
-2.94148	repay	-0.07257947
-3.385202	repay.	-0.07257947
-3.385202	repayed	-0.07257946
-3.385202	repaying	-0.07257947
-3.385202	repaying,	-0.07257946
-3.26124	requirement	-0.07257947
-3.385202	responsible	-0.07257946
-3.385202	rest	-0.07257947
-3.385202	restaurant	-0.07257946
-3.385202	restaurant,	-0.07257947
-3.26124	result,	-0.1306613
-3.385202	results	-0.07257947
-2.818344	return	-0.1153966
-2.94148	returned	-0.1306613
-3.385202	richer	-0.07257947
-3.385202	rmb.	-0.07257947
-3.385202	roaming	-0.07257947
-3.26124	room	-0.07257947
-3.385202	roomate,who	-0.07257947
-3.26124	roommate	-0.07257946
-3.385202	roommate,	-0.07257947
-3.385202	running	-0.07257947
-2.94148	said	-0.1306613
-3.385202	salary	-0.07257946
-3.385202	salary.	-0.07257947
-3.385202	sales	-0.07257947
-3.385202	savings.	-0.07257947
-2.94148	saw	-0.07257947
-3.26124	say	-0.07257947
-3.385202	saying	-0.07257947
-2.94148	school	-0.07257947
-3.26124	school,	-0.07257947
-3.26124	school.	-0.1629014
-3.385202	secrets	-0.07257946
-3.385202	see	-0.07257946
-3.385202	seem	-0.07257947
-3.385202	seems	-0.07257946
-3.26124	seldom	-0.07257947
-3.385202	self-study,	-0.07257947
-3.385202	send	-0.07257947
-3.26124	sent	-0.07257947
-3.385202	separately	-0.07257947
-3.385202	separately.	-0.07257947
-3.385202	serious	-0.07257947
-3.385202	seriously	-0.07257947
-3.26124	service	-0.07257947
-2.818344	several	-0.07257947
-3.385202	shade	-0.07257947
-3.385202	shamely.	-0.07257947
-3.385202	share	-0.07257947
-2.08244	she	-0.1510267
-3.385202	she's	-0.07257947
-3.385202	shirk	-0.07257947
-3.26124	short	-0.07257947
-3.385202	show	-0.07257946
-3.385202	showed	-0.07257946
-3.385202	sick	-0.07257946
-3.385202	sickness	-0.07257947
-3.385202	signing	-0.07257947
-3.385202	silence	-0.07257947
-3.385202	sill	-0.07257947
-3.26124	since	-0.07257947
-3.385202	sincerely.	-0.07257947
-3.385202	sister.	-0.07257947
-3.385202	situation.	-0.07257947
-3.385202	slowly	-0.07257947
-3.385202	small	-0.07257947
-2.469184	so	-0.09109023
-3.385202	society.	-0.07257947
-3.385202	software.	-0.07257947
-3.385202	sold	-0.07257947
-2.278166	some	-0.2442234
-3.385202	something	-0.07257947
-3.385202	sometimes	-0.07257947
-3.26124	soon	-0.07257946
-3.385202	sour.	-0.07257947
-3.385202	souvenir	-0.07257946
-3.385202	spending	-0.07257947
-3.385202	spent	-0.07257947
-3.385202	stable	-0.07257946
-3.385202	started-up,	-0.07257947
-3.385202	station,	-0.07257947
-3.385202	stayed	-0.07257946
-2.42367	still	-0.08920325
-3.385202	stock	-0.07257947
-3.385202	story	-0.07257946
-3.385202	story.	-0.07257947
-3.385202	students,	-0.07257946
-3.385202	study	-0.07257947
-3.385202	stuff	-0.07257947
-3.385202	succeed	-0.07257947
-3.26124	such	-0.07257946
-3.385202	suddenly	-0.07257947
-3.385202	sum	-0.07257947
-3.385202	sum,	-0.07257946
-3.385202	summer,	-0.07257946
-3.385202	support	-0.07257946
-3.385202	sure	-0.07257947
-3.385202	take	-0.07257947
-3.385202	taking	-0.07257946
-3.385202	talk	-0.07257947
-3.385202	teacher	-0.07257947
-3.385202	teacher.	-0.07257947
-3.385202	tears.	-0.07257947
-3.385202	temporarily	-0.07257947
-3.385202	term	-0.07257947
-3.385202	terrible	-0.07257947
-3.385202	textbooks,	-0.07257947
-3.26124	than	-0.07257947
-3.26124	thankful	-0.1629013
-1.812541	that	-0.30658
-3.26124	that,	-0.07257947
-3.385202	that,he	-0.07257947
-3.385202	that.	-0.07257947
-1.709435	the	-0.1767916
-2.72252	their	-0.1064888
-3.26124	them	-0.07257947
-3.385202	them.	-0.07257947
-2.94148	then	-0.07257947
-2.94148	then,	-0.07257947
-3.385202	then,I	-0.07257947
-3.26124	then.	-0.1629014
-2.818344	there	-0.1153966
-3.385202	these	-0.07257947
-2.72252	they	-0.07257947
-3.26124	thing	-0.07257947
-3.26124	think	-0.07257947
-3.385202	thinking	-0.07257947
-2.344853	this	-0.07257947
-3.385202	this,	-0.07257947
-3.385202	this.	-0.07257947
-3.385202	those	-0.07257947
-3.385202	though	-0.07257946
-2.72252	thought	-0.07257947
-3.385202	thousand	-0.07257947
-2.94148	three	-0.07257947
-3.385202	through	-0.07257947
-3.385202	ticket.	-0.07257947
-3.385202	tickets,	-0.07257946
-3.385202	tighter	-0.07257947
-3.385202	till	-0.07257947
-2.520034	time	-0.07257947
-2.94148	time,	-0.2432021
-3.385202	time,but	-0.07257946
-2.818344	time.	-0.784521
-3.26124	times	-0.07257947
-3.385202	times,	-0.07257947
-3.385202	times,our	-0.07257947
-1.527955	to	-0.326829
-3.385202	together	-0.07257947
-3.26124	told	-0.1629014
-3.26124	too	-0.07257947
-3.26124	took	-0.07257947
-3.385202	touch	-0.07257946
-3.385202	touched	-0.07257946
-3.385202	trapped	-0.07257947
-3.385202	travel	-0.07257947
-3.385202	travel.	-0.07257947
-3.385202	traveled	-0.07257947
-3.26124	traveling	-0.07257947
-3.385202	travelled	-0.07257947
-3.385202	travelled.	-0.07257947
-3.385202	travelling,	-0.07257946
-3.385202	treasure	-0.07257947
-3.385202	treated	-0.07257946
-3.385202	treatmment.	-0.07257947
-3.385202	tried	-0.07257947
-3.385202	trip	-0.07257947
-3.385202	trouble	-0.07257947
-3.26124	trouble,	-0.07257947
-3.385202	troubles	-0.07257947
-3.385202	troubles,	-0.07257947
-3.385202	truly	-0.07257947
-3.385202	trust	-0.07257947
-3.385202	trusted	-0.07257946
-3.385202	try	-0.07257946
-3.26124	ture	-0.1629013
-3.26124	turn	-0.1629013
-3.385202	turned	-0.07257946
-3.385202	twice	-0.07257947
-2.818344	two	-0.07257947
-3.385202	unable	-0.07257947
-2.818344	uncle	-0.1153966
-3.385202	uncles	-0.07257947
-3.385202	uncomfortable	-0.07257946
-3.385202	under	-0.07257947
-3.385202	understanding	-0.07257946
-3.385202	university	-0.07257947
-3.385202	university,	-0.07257946
-3.385202	unpleaseant	-0.07257947
-2.94148	until	-0.07257947
-3.385202	untill	-0.07257947
-3.26124	up	-0.07257947
-3.385202	upon	-0.07257947
-3.385202	urge	-0.07257946
-3.385202	urge.	-0.07257947
-3.26124	urgent	-0.07257947
-3.26124	us	-0.07257947
-2.94148	used	-0.6595823
-3.385202	usually	-0.07257947
-3.26124	utmost	-0.1629013
-2.818344	very	-0.07257947
-3.385202	vocation,	-0.07257947
-3.385202	wallet	-0.07257946
-3.385202	wallet,	-0.07257946
-3.26124	wallet.	-0.1629014
-3.26124	want	-0.1629013
-2.818344	wanted	-0.4250843
-3.385202	wants	-0.07257947
-1.993684	was	-0.1766475
-3.385202	wasn't	-0.07257947
-3.385202	watched	-0.07257947
-2.310231	we	-0.09912662
-3.26124	weaker	-0.07257946
-3.385202	wechat	-0.07257947
-3.385202	week	-0.07257947
-3.26124	week,	-0.07257947
-3.26124	week.	-0.1629014
-3.385202	weeks	-0.07257947
-3.385202	well	-0.07257946
-3.385202	well.	-0.07257947
-2.818344	went	-0.1064888
-3.385202	were	-0.07257947
-3.26124	what	-0.07257946
-2.278166	when	-0.1809376
-3.385202	where	-0.07257947
-3.385202	whether	-0.07257946
-2.520034	which	-0.09346056
-3.26124	while	-0.07257947
-3.385202	while,	-0.07257946
-2.469184	who	-0.203294
-2.94148	whose	-0.07257947
-3.385202	widely.	-0.07257947
-3.385202	wife.	-0.07257947
-2.469184	will	-0.1694513
-3.26124	willing	-0.1629013
-3.385202	winter	-0.07257947
-2.123734	with	-0.121873
-3.385202	with,	-0.07257947
-3.385202	within	-0.07257947
-2.644064	without	-0.07257947
-3.385202	won't	-0.07257947
-3.385202	won,t	-0.07257947
-3.26124	work	-0.07257947
-3.385202	worked	-0.07257947
-3.385202	worried	-0.07257947
-3.385202	worries	-0.07257947
-3.385202	worst	-0.07257947
-3.385202	worth	-0.07257947
-2.72252	would	-0.07257947
-3.385202	write	-0.07257947
-3.385202	writing	-0.07257947
-3.385202	xiaohong's,	-0.07257947
-3.385202	year,	-0.07257947
-3.26124	years	-0.07257947
-3.385202	years,	-0.07257947
-3.385202	yes	-0.07257947
-3.26124	you	-0.07257947
-2.72252	your	-0.1064888
-2.818344	yuan	-0.07257947
-3.26124	yuan.	-0.1629014
-3.385202	zhang's	-0.07257947

\2-grams:
-0.8064862	"friends" made
-0.7782912	,instead of
-0.8114486	,we seldom
-0.8117726	-- Friedrich
-0.4595799	. </s>
-1.111176	1 week,
-1.111176	1 week.
-0.8049212	100 rmb.	-0.1351919
-1.213191	100 to
-1.401862	100 yuan
-0.8091425	1000 yuan
-1.111822	2 days.
-1.111822	2 weeks
-1.111176	20,000 RMB
-1.079279	20,000 is
-0.8114486	300 RMB
-0.8114486	500 yuan.
-0.7891809	5yuan for
-3.035717	<s> A
-3.035717	<s> About
-1.197709	<s> After	-0.03643317
-3.035717	<s> Again
-2.476285	<s> Although
-1.649678	<s> And	-0.1036017
-1.915517	<s> As	-0.2183864
-1.649678	<s> At	-0.1165826
-3.035717	<s> Aunt
-3.035717	<s> Because
-3.035717	<s> Before
-1.762567	<s> But
-2.476285	<s> Due	-0.1351919
-3.035717	<s> During
-3.035717	<s> Each
-3.035717	<s> Even
-3.035717	<s> Five
-1.103396	<s> For	-0.644355
-3.035717	<s> From
-3.015658	<s> Guan
-1.485981	<s> He
-2.476285	<s> Her
-1.649678	<s> However,
-1.072785	<s> I	-0.0140451
-3.035717	<s> If
-2.476285	<s> In
-3.035717	<s> Instead
-1.556481	<s> It	-0.08348902
-3.035717	<s> It's
-3.035717	<s> Last
-3.035717	<s> Later,
-3.035717	<s> Mary,my
-3.035717	<s> Meanwhile,
-1.560162	<s> My	-0.08433797
-3.035717	<s> Not
-3.035717	<s> Now
-1.234322	<s> Once	-0.03961948
-3.035717	<s> Once,
-1.915517	<s> One	-0.08423978
-1.560162	<s> She	-0.08426021
-1.762567	<s> Since	-0.151873
-2.476285	<s> So
-3.035717	<s> Sometime
-3.035717	<s> Take
-3.035717	<s> Taking
-3.035717	<s> Ten
-3.035717	<s> That
-3.035717	<s> The
-1.762567	<s> Then
-3.035717	<s> Therefore,
-3.035717	<s> They
-3.035717	<s> Though
-2.476285	<s> Thus,
-1.915517	<s> Till	-0.08439864
-3.035717	<s> Two
-2.476285	<s> We
-1.234322	<s> When	-0.1105414
-3.035717	<s> While
-2.476285	<s> Without
-3.035717	<s> Xiaoli
-2.606304	<s> after
-2.566112	<s> as
-2.606304	<s> but
-3.035717	<s> eventually,i
-2.394045	<s> for
-2.271133	<s> he
-1.890697	<s> i
-3.035717	<s> last
-2.755593	<s> once
-2.699931	<s> still
-2.152631	<s> the
-2.894347	<s> there
-2.606304	<s> when
-0.8114486	A few
-0.8114486	About 2
-1.538751	After a
-1.843462	After borrowing,
-1.82509	After getting
-1.733997	After one
-1.815973	After several
-1.568328	After that
-1.839989	After that,
-1.843462	After that,he
-1.515555	After the
-1.749201	After this
-1.82509	After three
-0.756511	Again and
-1.079279	Although it
-1.030804	Although my
-1.174783	And I
-1.17068	And my
-1.23434	And she
-1.26368	Anna because
-1.239094	Anna is
-1.285969	Anna seldom
-0.7074604	Anna. </s>
-0.7725388	As a	-0.08527786
-1.286936	At last,
-1.191594	At that	-0.0847767
-1.168643	At the
-0.8117726	Aunt Liu
-0.8064862	Bao got
-0.793443	Because she
-0.7725388	Before a
-0.7951596	Beijing with
-0.8047243	Beijing, so
-0.7074604	Beijing. </s>
-1.363993	But from
-1.296266	But he
-1.324425	But his
-1.367191	But one
-0.8047243	Chan, who
-0.7074604	Cheng. </s>
-0.8117726	Das Kapital,
-0.7471707	Due to
-0.8020948	During this
-0.8056043	Each time
-0.7891809	Elsa for
-1.266216	Engels always
-1.239094	Engels is
-1.266216	Engels who
-0.8117726	English teacher
-0.8117726	Even though
-0.8091425	Five yuan
-1.111822	For example,	-0.06079059
-1.111176	For instance,	-0.07131889
-0.8100315	Friedrich Engels
-0.7774648	From that
-1.108355	Guan used
-1.111822	Guan well.
-1.588204	He borrowed
-1.547456	He is
-1.633175	He promised
-1.64879	He realized
-1.627292	He thought
-1.514691	He was
-1.627292	He would
-1.091017	Her friend
-1.111822	Her silence
-1.367984	However, he
-1.394507	However, in
-1.422755	However, she
-1.325143	However, the
-1.498275	However, then,
-2.570181	I also
-1.3797	I always
-1.550892	I am
-2.66924	I answered
-2.069705	I asked
-2.01879	I borrow
-1.373132	I borrowed	-0.04087096
-2.605806	I borrowing
-2.66924	I brought
-1.386369	I can
-2.685112	I can't
-2.685112	I chose
-2.685112	I considered
-2.685112	I cooperated
-2.66924	I couldn't
-2.506657	I did
-2.451249	I didn't
-2.11033	I don't
-2.570181	I felt
-2.11033	I gave
-2.570181	I go
-2.685112	I graduated
-1.528721	I had
-2.028507	I have	-0.1351919
-2.685112	I hope
-2.685112	I initatively
-1.541338	I just
-1.534984	I lent	-0.06091852
-2.11033	I lost
-2.537258	I must
-2.451249	I never
-2.451249	I once
-2.048618	I paid
-2.685112	I payed
-2.685112	I recall
-2.685112	I recharged
-2.091869	I remember
-2.605806	I returned
-2.605806	I said
-2.685112	I spent
-2.402118	I still
-2.069705	I thought
-2.685112	I travelled
-2.685112	I travelled.
-2.685112	I truly
-2.605806	I used
-1.880132	I was	-0.08427305
-2.080646	I went
-1.183591	I will	-0.0403066
-2.685112	I won't
-2.685112	I worked
-1.111822	I'm confused
-1.108355	I'm more
-0.7709091	If I
-1.111822	In fact,
-1.111176	In result,
-0.7782912	Instead of
-0.7774648	Internet that
-0.9577255	It is	-0.0850841
-1.583609	It makes
-1.58541	It occurs
-1.58541	It seems
-1.472396	It was
-0.8073698	It's really
-0.8091425	Jack due
-1.007753	Japan and
-1.079279	Japan with
-0.7074604	Japan. </s>
-0.8003505	Jim, one
-0.7799489	Kapital, he
-0.8100315	Karl Marx
-0.8117726	Last winter
-0.8114486	Later, think
-1.036763	Li a
-1.096146	Li still
-0.8003505	Li, one
-0.8003505	Linda after
-0.7891809	Liu was
-0.8117726	Liu, divorced
-0.8117726	MaYun started-up,
-1.286936	Marx finished
-1.286936	Marx write
-1.286936	Marx writing
-0.7951596	Marxism,he is
-0.8100315	Mary,my best
-0.8117726	Mayun builds
-0.7799489	Meanwhile, he
-0.7799489	Mike, he
-0.8020948	Mom borrowed
-0.8117726	Mr. Wang,
-0.803846	Mr.Wang still
-0.8020948	Mr.Wang's back
-1.404022	My father
-1.370413	My friend
-1.400542	My friend,
-1.409613	My mom's
-0.8082553	Not long
-0.8012218	Now we
-1.509238	Once I
-1.80303	Once Vivian,
-1.518235	Once a
-1.561202	Once he
-1.603326	Once in
-1.500424	Once my
-1.649978	Once she
-1.80303	Once under
-1.80303	Once upon	-0.1351919
-1.702253	Once when
-0.7725388	Once, a
-1.111176	One colleague
-1.047392	One of	-0.1351919
-1.087631	RMB from
-0.9912334	RMB to
-0.7471707	Shanghai to
-1.409613	She gave
-1.386893	She had
-1.410899	She tried
-1.327343	She was
-1.033773	Since I
-1.108355	Since then,	-0.08467875
-1.033773	So I
-1.050478	So he
-0.7709091	Sometime I
-0.8056043	T-shirt which
-0.8064862	Take me,
-0.8117726	Taking myself
-0.8114486	Ten years
-0.8114486	That may
-0.8114486	The fellowship
-1.267264	Then I
-1.262193	Then my
-1.367191	Then when
-1.397089	Then your
-0.7709091	Therefore, I
-0.8100315	They know
-0.8020948	Though this
-1.091017	Thus, our
-1.10659	Thus, there
-1.111176	Till now
-1.111822	Till now,
-0.7951596	Tom, is
-0.8114486	Two months
-0.7692856	Vivian, my
-1.111822	Wang consider
-1.10659	Wang two
-0.8047243	Wang, who
-1.10659	We felt
-1.10659	We went
-1.458361	When I	-0.06215104
-1.708048	When MaYun
-1.694521	When Marx
-1.708048	When asking
-1.694521	When going
-1.708048	When knowing
-1.581104	When she
-1.637099	When this
-0.8047243	While friends
-1.10659	Without any
-1.111822	Without thinking
-0.4913573	Xiao he
-0.7891809	Xiaoli was
-1.111822	Xiaoming pretended
-1.067851	Xiaoming was
-0.7074604	Zhang. </s>
-2.634725	a bit
-2.616916	a book
-2.634725	a bookstore,
-2.043487	a bus	-0.1351919
-2.616916	a case
-2.616916	a classmate
-2.634725	a comfortable
-2.634725	a consequence,I
-2.634725	a dilemma.
-2.634725	a dinner
-2.616916	a emergency,
-2.616916	a example
-2.634725	a figure
-1.131972	a friend	-0.03863173
-2.634725	a fun,
-2.634725	a girl
-1.488806	a good
-2.616916	a great
-2.0644	a hand.	-0.1351919
-2.634725	a haste.
-2.634725	a house
-2.634725	a huge
-2.634725	a job,
-2.634725	a large
-2.634725	a limited-edition
-2.471543	a long
-1.506914	a lot
-2.634725	a match.
-2.634725	a math
-2.616916	a meal,
-2.634725	a meal.
-2.634725	a month
-2.069318	a month.	-0.1351919
-2.0644	a new
-2.069318	a pact
-2.634725	a period
-2.634725	a person
-2.634725	a phone,
-2.634725	a plea,
-2.616916	a real
-2.634725	a rest
-2.634725	a restaurant
-2.616916	a result,
-2.616916	a roommate
-2.634725	a sales
-2.634725	a serious
-2.616916	a short
-2.634725	a small
-2.634725	a souvenir
-2.634725	a stuff
-2.634725	a sum
-2.634725	a terrible
-2.634725	a ticket.
-2.378912	a time
-2.043487	a time,
-2.634725	a unpleaseant
-2.5074	a very
-2.616916	a wallet.
-2.616916	a week.
-2.634725	a while,
-2.634725	a year,
-0.7471707	able to
-1.272395	about a
-1.327343	about her
-1.410899	about her,
-1.262193	about my
-0.7074604	about. </s>
-0.8082553	above mentioned
-0.8114486	absence,which dishonored
-0.7986134	acted as
-0.7074604	advance. </s>
-0.803846	affected at
-1.283496	afford and
-1.505232	afford it,
-1.498275	afford it.
-1.325143	afford the
-1.505232	afford what
-0.7774648	afriad that
-0.7506817	after a
-1.933539	after borrowing
-1.949588	after graduating
-1.917691	after having
-1.715952	after he
-1.656625	after my
-1.802218	after she
-0.7538716	after that
-1.946561	after that,
-1.652381	after the
-0.8082553	after, their
-0.756511	again, and
-0.7074604	again. </s>
-1.033773	ago, I
-1.097869	ago, who
-0.756511	agreed and
-0.8056043	aid which
-0.7471707	aids to
-1.327343	all her
-1.262193	all my
-1.25968	all the
-1.400542	all very
-0.8082553	all,because they
-0.7074604	all. </s>
-0.756511	allowence and
-0.8091425	almost all
-0.7951596	along with
-1.410899	also believe
-1.410899	also big
-1.380226	also borrow
-1.410899	also embrasessed
-0.793443	although she
-1.831342	always can
-1.840792	always give
-1.850451	always go
-1.831342	always good
-1.813039	always had
-1.880292	always owes
-1.880292	always reminded
-1.876513	always say
-1.876513	always sent
-1.880292	always shirk
-1.880292	always stayed
-1.532477	always the
-1.286936	am eligible
-1.268768	am out
-1.273917	am really
-0.7782912	amount of
-0.7074604	amount. </s>
-1.400542	an economic
-1.409613	an emergency
-1.410899	an excuse
-1.410899	an operation.
-2.577928	and Anna
-2.577928	and Engels
-1.185217	and I
-2.26721	and after
-2.667037	and again,
-2.538509	and also
-2.382011	and always
-2.050763	and asked
-2.309562	and back
-2.050763	and became
-2.649038	and cash
-2.577928	and closer
-2.502373	and could
-2.649038	and decided
-2.667037	and deleted
-2.015466	and didn't
-2.097154	and even
-2.502373	and friends.
-2.247488	and from
-2.438035	and got
-2.667037	and hanging
-1.764899	and he
-2.577928	and helped
-2.062021	and her
-1.833507	and his	-0.1351919
-2.667037	and honesty
-2.649038	and keep
-2.667037	and kindness.
-2.469014	and lent
-2.649038	and less
-2.667037	and lighter.
-2.438035	and made
-2.577928	and make
-2.667037	and most
-1.38308	and my
-2.538509	and needed
-2.40912	and never
-2.309562	and not
-1.496882	and our	-0.08329046
-2.438035	and paid
-2.026916	and pay
-2.538509	and promised
-2.667037	and repayed
-2.577928	and returned
-2.667037	and roommate,
-2.577928	and saw
-1.334366	and she
-1.914189	and that
-1.684062	and the	-0.1351919
-2.502373	and their
-2.577928	and then
-2.538509	and there
-2.309562	and this
-2.649038	and took
-2.538509	and two
-2.538509	and uncle
-2.538509	and wanted
-1.496882	and we
-2.649038	and weaker
-2.26721	and when
-2.649038	and work
-0.8003505	animation, but
-1.111176	another city,
-1.091017	another friend
-1.036763	answered a
-1.111822	answered yes
-1.410899	any case,except
-1.410899	any harm,
-1.410899	any hesitation,
-1.404022	any other
-0.7074604	any. </s>
-0.7074604	anymore. </s>
-0.7471707	anything to
-0.7074604	anything. </s>
-1.287303	appreciate dad
-0.6522982	appreciate my
-0.7692856	appreciates my
-0.7074604	appreciation. </s>
-1.279128	are all
-1.266216	are always
-1.116971	are to
-1.395308	as I
-2.149971	as before.
-2.080891	as close
-2.080891	as good
-1.774401	as he
-1.463541	as her
-1.849193	as his
-2.109653	as if
-1.919952	as it
-2.155929	as loans,
-2.095034	as long
-2.155929	as possible.	-0.1351919
-2.155929	as purchasing
-1.901152	as she
-0.9902949	as soon	-0.3433251
-1.386781	as the
-1.513304	as we
-0.8003505	ashamed when
-0.7074604	ashamed. </s>
-1.374394	ask him
-0.7847151	ask me
-1.401862	ask two
-1.667233	asked him
-0.3740678	asked me	-0.1351919
-1.688909	asked me,
-1.059949	asked my
-0.8117726	asking others
-1.846929	at all,because
-1.243343	at all.	-0.1351919
-1.846929	at college,
-1.704056	at her
-1.846929	at least,
-0.5049025	at that
-1.600234	at the
-0.756511	attitude and
-0.7074604	attitude. </s>
-0.8117726	aunt Liu,
-0.8100315	avoid going
-0.7471707	avoided to
-1.087631	away from
-1.063043	away in
-1.174783	away, I
-1.253678	away, but
-1.19807	away, he
-0.7074604	away. </s>
-1.893847	back as
-1.943863	back at
-1.952789	back have
-2.010581	back immediately
-1.358982	back in
-1.85616	back money
-1.731502	back that
-1.675652	back the
-2.027275	back then.
-0.5626082	back to	-0.06901168
-2.027275	back while
-2.031176	back within
-0.7951596	back, it
-0.8117726	back,I usually
-0.4595799	back. </s>
-0.8114486	badly ill,
-1.047392	balance of
-1.111822	balance payment.
-0.756511	bank and
-1.945328	be able
-1.945328	be affected
-1.945328	be better.
-1.922227	be called
-1.945328	be essential.
-1.888964	be good
-1.945328	be harmful
-1.701249	be his
-1.940942	be kind
-1.945328	be literally
-1.945328	be muddled.
-1.940942	be quite
-1.945328	be reasons
-1.945328	be sold
-0.7074604	be. </s>
-0.7994811	beakfast from
-1.432758	became a
-1.621488	became close
-1.621488	became good
-1.651023	became intimate,
-1.651023	became lighter
-1.418076	became my
-1.651023	became tighter
-1.75439	because I
-0.3109747	because of	-0.03936246
-0.5149364	because she
-0.8117726	become love,
-0.7883334	becomes his
-1.286936	been damaged.
-1.286936	been harmed
-1.286936	been mentioned.
-0.7799489	before he
-0.4595799	before. </s>
-0.7774648	behvior that
-0.7891809	being her
-0.7866435	believe in
-0.8117726	believed him,
-0.7774648	believes that
-0.7954983	best friend
-1.411265	best friend,had
-1.410099	best friend.
-0.7074604	better. </s>
-1.19807	between he
-1.256157	between him
-1.285969	between us
-0.7471707	big to
-0.8117726	bill separately.
-0.7074604	bill. </s>
-0.756511	birthday, and
-0.7782912	bit of
-1.007753	book and
-1.045858	book that
-0.8064862	bookstore, i
-1.921708	borrow from
-1.844497	borrow her
-1.936025	borrow him
-1.887854	borrow it
-2.033094	borrow lot's
-0.4234198	borrow money	-0.6443551
-1.958426	borrow money.
-1.722034	borrow my
-1.403125	borrow some
-1.71761	borrow the
-2.033909	borrowed 1000
-2.030882	borrowed 20,000
-2.033909	borrowed 5yuan
-1.758353	borrowed a
-1.930436	borrowed from
-1.943838	borrowed him
-2.002012	borrowed him.
-0.4975038	borrowed money	-0.6443551
-1.964751	borrowed money.
-0.8528444	borrowed some	-0.2183864
-0.2300861	borrowing money	-0.08355775
-1.40374	borrowing money,
-0.7799489	borrowing, he
-0.7943004	borrows money
-0.8114486	both took
-0.8091425	bothered me.
-0.7782912	bottom of
-0.6544694	bought a
-1.182091	bought the
-1.139181	boyfriend and
-1.286936	boyfriend birthday,
-1.285969	boyfriend realized
-0.7883334	break his
-0.8017826	bring enough	-0.1351919
-1.374394	bring our
-1.398723	bring your
-0.7883334	broke his
-0.7074604	brothers. </s>
-1.067851	brought her
-1.089321	brought some
-0.7883334	builds his
-1.139181	bus and
-1.286936	bus station,
-1.116971	bus to	-0.1351919
-1.007753	business and
-1.111822	business empire,the
-0.756511	business, and
-1.94995	but Bao
-1.673713	but I
-1.94995	but almost
-1.919238	but became
-1.279028	but he
-1.773949	but his
-0.7725586	but i
-0.7646043	but she
-1.883261	but still
-1.036763	buy a
-1.029327	buy the
-1.345282	by money
-1.380226	by money.
-1.410899	by paying
-1.37366	by this
-0.7782912	cafeteria of
-0.6654915	called me	-0.1351919
-1.286456	called ture
-1.262438	came back
-0.6373962	came to
-1.197565	can afford
-1.757961	can be
-1.803753	can both
-1.803753	can ignore
-1.780437	can lend
-1.750721	can never
-1.179849	can not
-1.757961	can pay
-0.8100315	can't afford
-0.7074604	card. </s>
-0.7074604	career. </s>
-1.063043	case in
-1.047392	case of
-0.8073698	case,except without
-0.8114486	cases, such
-1.111822	cash flow
-1.089321	cash when
-0.7891809	celebrate her
-0.8091425	charge her.
-0.7471707	choice to
-0.8047243	choice,it will
-0.7471707	chose to
-1.033773	city, I
-1.089321	city, but
-1.096146	classmate at
-1.108355	classmate whose
-0.8056043	classmate, has
-1.452027	close a
-1.02728	close as
-1.651751	close colleagues
-1.031228	close friend
-1.649753	close relatives
-0.6437203	closer and
-1.135203	closer to
-0.7074604	clothes. </s>
-0.8114486	coffee, you
-1.111176	colleague left
-1.047392	colleague of
-0.8091425	colleagues ask
-0.803846	collect money.
-0.8117726	college time,but
-0.8056043	college, had
-0.8114486	comfortable room
-0.7709091	communicate, I
-0.7951596	communicated with
-0.7471707	company to
-0.8091425	concerned about
-0.8082553	concerning their
-0.7709091	condition, I
-0.7074604	condition. </s>
-0.7782912	confidence of
-0.7074604	conflicts. </s>
-0.8117726	confused about.
-0.8091425	confusion also
-0.8117726	consequence,I avoided
-0.7692856	consider my
-0.7774648	considered that
-0.803846	constantly borrow
-0.8117726	contact reduced
-0.7951596	cooperated with
-0.8114486	cost during
-1.483465	could be
-1.507201	could earn
-1.487363	could lent
-0.8905991	could not
-1.101337	couldn't pay
-1.111822	couldn't recharge
-0.8114486	count nothing
-0.7709091	course I
-1.066242	create his
-1.089321	create some
-1.007753	credit and
-1.111822	credit card.
-0.7074604	credit. </s>
-0.756511	cured and
-0.8003505	dad when
-0.8114486	daily expenses
-0.7692856	damage my
-0.7074604	damaged. </s>
-0.7799489	date he
-0.756511	daughter and
-0.7074604	day. </s>
-1.111822	days after,
-1.111176	days passed
-0.7074604	days, </s>
-0.7074604	days. </s>
-0.7782912	deadline of
-0.756511	decades and
-0.4773568	decided to
-0.8114486	deed,that thing
-0.7074604	deeply. </s>
-0.7692856	deleted my
-0.8117726	depend on.
-0.7891809	desease was
-0.8114486	despite 20,000
-1.575342	did I
-0.2638543	did not	-0.04897873
-1.695849	did on
-1.67689	did this
-0.7074604	did. </s>
-1.857538	didn't be
-1.895415	didn't bring
-1.915176	didn't explain
-1.294626	didn't have
-1.83977	didn't help
-1.314817	didn't hesitate	-0.1351919
-1.895415	didn't repay
-1.885631	didn't return
-1.911435	didn't say
-1.313876	didn't want	-0.1351919
-0.7951596	difficulties with
-0.7074604	dilemma. </s>
-0.8117726	dinner party,
-0.7891809	directly for
-0.7074604	directly. </s>
-0.8091425	disappointed about
-1.007753	dishonored and
-1.111176	dishonored us
-0.7782912	dispute of
-0.8114486	distance away,
-0.803846	divorced at
-1.339963	do a
-1.493956	do an
-1.506835	do anything
-1.456898	do our
-1.506835	do that.
-0.8117726	doesn't seem
-1.287303	don't harm
-0.6756563	don't have
-0.7891809	dormitory for
-0.8056043	dormitory, which
-0.7074604	dormitory. </s>
-0.07539516	due to	-0.0613544
-1.066242	during his
-1.030804	during my
-0.8996101	each other
-1.507201	each other,
-1.507201	each other.
-1.507201	each others.
-0.7074604	early. </s>
-0.7891809	earn her
-0.7471707	easy to
-1.410899	economic aid
-1.410899	economic investment,
-1.410899	economic plight
-1.410899	economic poverty.
-0.7951596	eligible with
-1.096146	embarrassed because
-1.10659	embarrassed if
-0.8117726	embrasessed me,which
-1.007753	emergency and
-1.103081	emergency can
-1.089321	emergency, after
-1.007753	emergency, and
-0.7074604	emergency. </s>
-0.8114486	empire,the fellowship
-0.768476	enjoyed the
-0.9582012	enough money	-0.1146011
-1.558967	enough money,
-0.9704177	enough money.	-0.2183863
-1.585775	enough savings.
-0.7074604	essential. </s>
-1.285969	even buy
-1.268768	even had
-1.286936	even send
-0.8047243	eventually,i have
-0.8020948	ever borrowed
-1.111176	every times
-1.111822	every week
-1.047392	example of
-1.029327	example the
-1.577653	example, after
-1.633175	example, if
-1.418076	example, my
-1.610108	example, once
-1.633175	example, uncle
-1.577653	example, when
-1.627292	example, your
-0.7782912	example,one of
-0.768476	exceeded the
-0.8091425	except several
-0.756511	excuse and
-1.111176	expenses too
-1.108355	expenses until
-0.7782912	experience of
-0.8117726	experienxe,i lended
-0.768476	explain the
-0.7883334	express his
-0.7725388	faces a
-0.803846	fact, at
-0.8117726	fade away.
-0.7866435	failed in
-0.7471707	failure to
-0.7471707	faith to
-1.266216	family always
-1.285969	family bought
-1.239094	family is
-0.8100315	family's financial
-0.4595799	family. </s>
-0.8117726	fancy clothes.
-1.435692	father and
-1.688583	father as
-1.80303	father believes
-1.746052	father didn't
-1.777915	father due
-1.80303	father grew
-1.746052	father has
-1.746052	father once
-1.80303	father watched
-1.702253	father when
-1.104832	father's friends,
-1.111822	father's quick
-0.8114486	father, Wang
-1.286936	feel ashamed.
-1.191594	feel that
-1.286936	feel uncomfortable
-0.5042447	fellowship between
-0.7074604	fellowship. </s>
-1.410899	felt ashamed
-1.409613	felt dishonored
-1.409613	felt embarrassed
-1.393664	felt really
-0.7951596	fetching it
-1.111176	few days
-1.111822	few times,our
-0.7782912	figure of
-1.286936	financial absence,which
-1.286936	financial aids
-1.286936	financial troubles,
-0.8114486	finanical problem.
-0.7692856	find my
-0.8056043	finds out
-0.7883334	finished his
-0.768476	finishing the
-0.8117726	firend suddenly
-1.089321	first one
-1.099599	first time
-0.8117726	flow problems
-0.7891809	food for
-2.276864	for Anna
-0.9584494	for a
-2.318762	for beakfast
-2.318762	for collect
-2.318762	for decades
-2.310665	for emergency,
-2.310665	for example
-2.318762	for example,one
-2.318762	for food
-2.168766	for help
-2.256874	for help.
-1.948386	for her
-2.256874	for her.
-1.595457	for his
-1.726714	for instance,
-1.599739	for me
-2.318762	for me,but
-1.626352	for money	-0.1351919
-2.201896	for money,
-1.088181	for my
-2.095552	for some
-1.50364	for the
-2.318762	for travelling,
-2.237764	for your
-1.029327	forget the
-0.9912334	forget to
-0.7774648	forgetful that
-1.220381	forgot his
-1.281757	forgot it.
-1.116971	forgot to
-1.272395	found a
-1.390265	found me,
-1.386893	found out
-1.288162	found that
-2.40306	friend --
-2.40306	friend Elsa
-2.350027	friend Engels
-2.40306	friend Linda
-2.40306	friend Mike,
-2.392704	friend Wang
-2.392704	friend Xiao
-2.133165	friend after
-1.012205	friend and
-2.40306	friend anymore.
-2.392704	friend appreciate
-2.200151	friend at
-2.40306	friend become
-2.40306	friend becomes
-2.200151	friend borrow
-2.40306	friend borrows
-2.392704	friend decided
-1.769266	friend didn't
-2.40306	friend faces
-2.40306	friend finds
-1.967464	friend for
-2.218647	friend help
-1.936784	friend in
-1.045138	friend of	-0.04908809
-2.350027	friend returned
-2.392704	friend since
-1.839844	friend that
-2.392704	friend think
-1.611675	friend to
-2.40306	friend wants
-1.762604	friend who
-2.350027	friend whose
-2.048802	friend with
-2.40306	friend zhang's
-1.101337	friend's money,
-1.108355	friend's mother
-1.506835	friend, Chan,
-1.506835	friend, Tom,
-1.506835	friend, aunt
-1.456898	friend, our
-1.477094	friend, which
-0.8003505	friend,had some
-0.4595799	friend. </s>
-1.659005	friends a
-2.098885	friends are
-1.917593	friends as
-2.081913	friends ask
-2.065581	friends asked
-1.992028	friends because
-1.992028	friends borrow
-1.941015	friends but
-2.134063	friends confusion
-2.127308	friends few
-1.807419	friends for
-2.081913	friends if
-1.781659	friends in
-1.874228	friends is
-2.127308	friends late,
-1.965773	friends not
-2.134063	friends noticed
-2.019972	friends once
-2.134063	friends trust
-2.127308	friends while
-2.098885	friends whose
-2.065581	friends would
-0.8117726	friends' honesty,
-1.333974	friends, I
-1.477094	friends, has
-1.506835	friends, none
-1.489679	friends, they
-1.452969	friends, when
-0.8114486	friends,he lost
-0.05790992	friends. </s>
-1.546858	friendship and
-1.85395	friendship became
-1.868598	friendship been
-1.880603	friendship between
-1.832865	friendship didn't
-1.832865	friendship has
-1.757479	friendship is
-1.880603	friendship lasted
-0.5453603	friendship was
-0.8114486	friendship, or
-0.7074604	friendship. </s>
-2.225657	from Jack
-2.219726	from another
-2.111246	from friends
-1.533634	from her
-2.219726	from high
-2.063391	from him
-1.919982	from his
-1.032092	from me	-0.08494995
-2.137308	from me,
-2.225657	from me,as
-2.179592	from me.	-0.2183864
-0.6790274	from my	-0.1113121
-2.052208	from one
-1.825255	from that
-1.758624	from the
-2.165035	from their
-2.194653	from then
-2.063391	from we
-2.225657	from wechat
-0.756511	fun and
-0.7709091	fun, I
-1.222677	gave her
-1.239094	gave it
-1.168643	gave the
-0.756511	generosity and
-0.7074604	generosity. </s>
-0.7074604	generous. </s>
-1.285969	get away
-1.116971	get to
-1.286936	get treatmment.
-1.281757	getting closer
-1.266216	getting help
-1.285969	getting weaker
-0.8047243	girl who
-0.8082553	girlfriend must
-1.604527	give help
-1.582896	give him
-1.514691	give me
-1.542621	give money
-1.418076	give my
-1.414482	give the
-1.633175	give uncle
-0.7943004	given money
-0.7471707	glad to
-1.410099	go home.	-0.1351919
-0.7994153	go out
-1.213191	go to
-0.7866435	goes,friends in
-0.676228	going out	-0.1351919
-1.135203	going to
-1.618117	good as
-1.708411	good choice
-1.085439	good friend
-1.658065	good friends
-1.682659	good friends,
-1.682659	good friends.
-1.708411	good salary.
-1.03421	got a
-1.708411	got along
-1.689032	got any
-1.640493	got back
-1.695499	got closer
-1.708411	got into
-1.689032	got several
-0.8117726	gradually fade
-0.7074604	gradually. </s>
-0.7994811	graduated from
-0.7994811	graduating from
-0.8117726	granted loans
-1.067851	grateful for
-1.045858	grateful that
-0.7074604	grateful. </s>
-1.111176	great credit
-1.111822	great people
-0.756511	greedy, and
-0.8114486	grew up
-1.610422	had a
-1.882788	had given
-1.859107	had just
-1.843768	had lent
-1.828953	had never
-1.276645	had no	-0.1351919
-1.800758	had not
-1.879808	had quite
-0.6677485	had to
-0.7799489	hand, he
-0.4595799	hand. </s>
-0.8056043	hanging out
-0.8073698	happened without
-0.7709091	happened, I
-0.7074604	happened. </s>
-0.8056043	hard time
-0.8082553	harm him.
-0.8003505	harm, but
-0.8091425	harmed by
-0.7471707	harmful to
-1.494409	has a
-1.74308	has been
-1.692719	has borrow
-1.728086	has enough
-1.758235	has ever
-1.758235	has finanical
-1.758235	has granted
-1.706522	has never
-1.521025	has that
-0.7074604	haste. </s>
-0.6889844	have a
-0.7071633	have enough	-0.1515022
-1.884571	have friendship,
-1.846686	have got
-1.840634	have never
-1.884571	have occurred.
-1.882165	have passed
-1.543394	have to
-0.8572325	having a
-1.507201	having fun
-1.505716	having left
-1.499271	having no
-2.464347	he acted
-2.255924	he always
-1.678438	he and
-2.452313	he answered
-1.850498	he asked
-2.348363	he became
-2.197578	he borrowed
-1.880917	he bought
-2.464347	he broke
-2.403189	he called
-1.880917	he came
-2.323344	he can
-2.464347	he constantly
-2.323344	he did
-1.152638	he didn't
-1.880917	he forgot
-2.374911	he found
-2.277256	he had
-2.072019	he is
-2.403189	he know
-2.323344	he lent
-2.348363	he mentioned
-2.464347	he met
-2.403189	he often
-2.452313	he ought
-2.464347	he pays
-2.374911	he promised
-2.403189	he said
-2.403189	he saw
-2.464347	he show
-2.235592	he still
-2.464347	he succeed
-2.348363	he thought
-2.452313	he told
-2.374911	he wanted
-1.122528	he was
-2.374911	he went
-2.255924	he will
-2.348363	he would
-1.631636	help a
-1.19024	help and
-1.891773	help each
-1.809046	help from
-1.733788	help her
-0.7365345	help him
-1.261696	help me
-1.659841	help that
-1.815948	help when
-0.07367988	help. </s>
-1.279128	helped each
-1.276515	helped him.
-1.222677	helped me
-0.8117726	helping hand,
-2.302355	her 300
-2.028891	her as
-2.119061	her because
-1.146775	her boyfriend
-2.191606	her close
-2.302355	her condition.
-2.302355	her daily
-2.302355	her daughter
-2.293212	her family.
-2.07164	her friend
-2.136093	her friends
-2.302355	her generosity
-2.302355	her girlfriend
-2.302355	her gradually.
-2.302355	her grateful.
-2.293212	her hand.
-2.302355	her immediately.
-1.871291	her in
-2.302355	her life
-2.302355	her middle-age,
-1.965842	her money
-2.302355	her mun
-2.302355	her purse.
-2.293212	her relatives
-2.302355	her salary
-1.637064	her some
-2.302355	her temporarily
-1.556334	her to
-2.293212	her turn
-2.232995	her two
-0.8047243	her, so
-0.07367988	her. </s>
-0.8114486	here, however,
-0.7471707	hesitate to
-0.7074604	hesitating. </s>
-0.7709091	hesitation, I
-0.7074604	hesitation. </s>
-1.281757	high school
-1.285969	high school,
-1.285969	high school.
-1.611815	him a
-1.940009	him about
-1.208187	him and
-1.970593	him back.
-1.907079	him be
-1.975054	him before
-1.975054	him except
-1.734823	him for
-1.975054	him hitherto.
-1.975054	him money,and
-1.838751	him some
-1.337816	him when
-1.787682	him with
-0.8003505	him, but
-0.05790992	him. </s>
-2.34303	his appreciation.
-2.34303	his bill.
-2.334764	his book
-1.75349	his business
-2.34303	his business,
-2.334764	his credit
-2.34303	his family's
-1.751348	his family.	-0.1351919
-0.6837963	his friend
-2.279924	his friend,
-2.190359	his friends
-2.34303	his life.
-1.719611	his money,
-2.300288	his mother
-2.334764	his mother's
-1.751348	his new
-2.279924	his own
-2.34303	his piggy
-2.34303	his promise
-2.334764	his real
-2.34303	his relations
-2.34303	his sister.
-2.34303	his travel
-2.34303	his wallet,
-2.34303	his wife.
-0.7782912	history of
-0.7074604	hitherto. </s>
-1.007753	home and
-1.067851	home was
-0.8047243	home, so
-0.4595799	home. </s>
-0.8091425	honesty by
-0.8117726	honesty, worries
-0.7774648	hope that
-0.8003505	house but
-0.8117726	house's key
-0.756511	house, and
-1.09272	however, this
-1.104832	however, your
-0.8117726	huge sum,
-1.087631	hundreds from
-1.10659	hundreds yuan
-1.833116	i did
-1.851691	i felt
-1.851691	i found
-1.824118	i got
-1.851691	i just
-1.880652	i pass
-1.833116	i really
-1.842304	i thought
-1.218636	i was
-1.806663	i will
-1.880652	i won,t
-1.367191	if one
-1.25968	if the
-1.397089	if they
-1.409613	if you
-0.7866435	ignore in
-1.089321	ill, but
-1.075983	ill, she
-1.253678	immediately after
-1.286936	immediately agreed
-1.286936	immediately despite
-0.7074604	immediately. </s>
-2.353254	in 1
-2.353254	in 2
-2.362682	in Beijing.
-1.775983	in Japan
-2.362682	in Japan.
-0.998596	in a
-2.362682	in advance.
-2.291308	in an
-2.353254	in another
-2.291308	in any
-2.353254	in case
-2.362682	in deed,that
-2.291308	in economic
-1.622983	in his
-2.229105	in me,
-2.362682	in middle
-1.124604	in my
-2.314193	in need
-2.126368	in our
-2.362682	in point.
-2.111381	in some
-1.521098	in the
-2.362682	in these
-2.14189	in this
-2.210205	in time
-2.291308	in time.
-2.362682	in touch
-2.362682	in trouble
-2.353254	in trouble,
-2.353254	in urgent
-0.8091425	influenced by
-0.8091425	influent by
-0.8117726	initatively find
-1.425355	instance, I
-1.64879	instance, I'm
-1.651023	instance, Jim,
-1.651023	instance, Mr.
-1.418076	instance, my
-1.610108	instance, once	-0.1351919
-1.577653	instance, one	-0.1351919
-0.8020948	intended not
-0.7891809	interested me
-0.8117726	international roaming
-0.8082553	intimate, having
-0.8114486	into trouble,
-0.7782912	investment, of
-0.7891809	invite me
-0.8117726	involved here,
-2.167526	is 1
-2.125796	is 100
-2.173706	is Cheng.
-0.8188637	is a
-2.055061	is always
-2.173706	is easy
-1.468237	is in
-2.173706	is involved
-2.125796	is just
-2.167526	is much
-1.700468	is my
-1.53379	is not
-2.173706	is phrased
-2.173706	is running
-2.167526	is short
-2.173706	is sill
-2.055061	is so
-2.042198	is still
-1.694736	is the
-0.7074604	issue. </s>
-1.950293	it after
-1.970133	it back
-1.940703	it from
-2.012757	it has
-1.817638	it in
-1.895694	it is
-2.09854	it looked.
-2.09362	it makes
-2.09854	it means
-2.09854	it shamely.
-2.09362	it since
-0.625358	it to
-2.072691	it until
-1.839618	it was
-2.001702	it will
-1.895694	it with
-0.8091425	it's an
-1.108355	it, It
-1.089321	it, but
-0.1013065	it. </s>
-0.756511	job, and
-1.564582	just could
-1.583126	just forget
-1.574816	just get
-1.554583	just got
-1.585045	just greedy,
-1.554583	just paid
-1.063043	keep in
-1.091017	keep our
-0.7471707	key to
-1.111176	kind friend.
-1.111176	kind too
-0.7074604	kindness. </s>
-1.033773	knew I
-1.097869	knew who
-1.285969	know before.
-1.222677	know me
-1.168643	know the
-0.8117726	knowing this,
-0.7725388	lack a
-0.803846	lacking money.
-0.8117726	large amount
-0.8117726	last summer,
-0.8117726	last, Mayun
-1.067851	lasted for
-1.111822	lasted long.
-1.030804	late, my
-1.097869	late, so
-0.8073698	later did
-0.7709091	later, I
-0.7951596	lead it
-0.756511	least, and
-0.7774648	led that
-1.030804	left my
-1.029327	left the
-1.585045	lend directly.
-1.494663	lend it
-1.465526	lend me
-1.490379	lend money
-1.521296	lend some
-1.583126	lend them
-0.7725388	lended a
-1.691601	lent 100
-1.06768	lent her
-1.077477	lent it	-0.1351919
-1.076063	lent money	-0.1351919
-1.479414	lent my
-1.007753	less and
-1.111176	less willing
-0.8117726	life again.
-0.7074604	life. </s>
-0.756511	lighter and
-0.7074604	lighter. </s>
-0.7471707	like to
-0.8117726	limited-edition T-shirt
-0.8114486	literally embarrassed
-1.007753	live and
-1.111176	live such
-0.8114486	living expenses
-0.7471707	loans to
-0.8003505	loans, but
-1.457116	long after
-0.8866534	long as
-1.507201	long term
-1.479601	long time
-0.7074604	long. </s>
-0.7074604	looked. </s>
-1.286936	lost faith
-1.220381	lost his
-1.17068	lost my
-1.139181	lot and
-1.193742	lot of
-1.286936	lot times,
-0.7782912	lot's of
-0.756511	love, and
-1.442286	made a
-1.634464	made an
-1.521284	made her
-1.516973	made his
-1.011045	made me
-1.651386	made sure
-0.8114486	main reason
-1.178926	make a
-1.222677	make her
-1.222677	make me
-1.067851	makes me
-1.089321	makes some
-0.8117726	masterpiece Das
-0.7074604	match. </s>
-0.8082553	mate,it could
-0.8117726	math problem
-0.8082553	matter,our friendship
-1.111822	may count
-1.111176	may create
-2.376995	me .
-2.141792	me after
-1.498854	me and
-2.113859	me as
-1.732207	me back
-2.386083	me back,
-2.386083	me back,I
-2.386083	me being
-2.386083	me deeply.
-2.376995	me every
-1.230334	me feel
-0.9390824	me for
-2.33927	me get
-1.887203	me he
-1.985909	me her
-1.95669	me in
-2.386083	me promising
-2.386083	me secrets
-2.386083	me sincerely.
-1.863767	me that
-1.551111	me the
-2.386083	me till
-1.110591	me to
-2.317115	me very
-2.376995	me want
-1.985909	me was
-2.386083	me well
-2.386083	me whether
-2.062867	me with
-1.073539	me, I
-1.758597	me, although
-1.596417	me, for
-1.542537	me, he
-1.623307	me, she
-1.70218	me, so
-1.708884	me, which
-1.70218	me, who
-0.8082553	me,as long
-0.7891809	me,but for
-0.8064862	me,which made
-0.07367988	me. </s>
-0.7891809	meal was
-1.033773	meal, I
-1.050478	meal, he
-0.7074604	meal. </s>
-0.7774648	means that
-0.8012218	meet him
-1.506835	mentioned experience
-1.430113	mentioned it
-1.358442	mentioned that
-1.460863	mentioned this
-1.506835	mentioned this.
-0.7074604	mentioned. </s>
-0.8012218	met we
-0.8114486	middle school,
-0.8082553	middle-age, having
-1.111822	mine traveled
-1.10659	mine wanted
-0.756511	mine, and
-0.4595799	mine. </s>
-0.8114486	minimum requirement
-0.7074604	misunderstanding. </s>
-0.8117726	mobile phone
-1.111822	mom showed
-0.9912334	mom to
-1.10659	mom's friend,
-1.097869	mom's help
-1.050478	moment he
-1.047392	moment of
-1.951428	money I	-0.1351919
-1.019488	money and
-1.055087	money as	-0.06060671
-1.7564	money at
-1.749147	money back	-0.2460254
-2.380723	money back.
-2.342576	money due
-0.8562932	money from	-0.1962241
-2.356912	money immediately
-2.076756	money in	-0.08409932
-2.160864	money is
-2.356912	money more
-1.214879	money on
-2.302206	money paid
-2.342576	money several
-0.7586889	money to	-0.03701756
-2.100323	money was
-2.31525	money without
-0.5663754	money, I
-1.749853	money, It
-1.072425	money, and
-1.728352	money, made
-1.543283	money, my
-1.539872	money, the
-0.8114486	money,and work
-0.02799044	money. </s>
-0.7074604	money; </s>
-0.8091425	month due
-0.7074604	month. </s>
-1.111176	months ago,
-1.111822	months later
-0.1072749	more than
-0.7074604	more. </s>
-0.8117726	most "friends"
-1.415897	mother and
-1.653761	mother as
-1.758235	mother did.
-1.706522	mother has
-1.74308	mother immediately
-1.755379	mother knew
-1.706522	mother once
-1.374809	mother to
-1.758235	mother treated
-1.286936	mother's desease
-1.285969	mother's friend's
-1.266216	mother's friends
-0.7692856	moved my
-1.089321	much but
-1.111822	much richer
-0.7074604	muddled. </s>
-0.756511	mun and
-0.8955821	must be
-1.491296	must give
-1.483465	must pay
-1.507201	must reach
-2.158754	my English	-0.1351919
-2.728926	my Mom
-2.728926	my allowence
-2.400176	my back
-1.437289	my best	-0.1508699
-2.712943	my classmate
-2.102729	my close
-2.728926	my college
-2.728926	my dormitory,
-2.728926	my dormitory.
-2.613282	my economic
-2.154396	my family
-1.162454	my father	-0.02962621
-2.158754	my father's
-2.728926	my father,
-2.728926	my firend
-0.9872459	my friend	-0.01919028
-2.712943	my friend's
-2.124492	my friend,
-1.155208	my friends	-0.01537006
-2.728926	my friends'
-2.580187	my friends,
-2.728926	my friends,he
-2.113474	my friends.	-0.1351919
-2.34121	my from
-2.549438	my good
-2.712943	my great
-2.072002	my help
-2.613282	my help.
-2.728926	my helping
-2.154396	my high
-2.712943	my home.
-2.728926	my house's
-2.728926	my living
-2.728926	my mate,it
-2.158754	my mom
-2.712943	my mom's
-1.236269	my mother
-2.154396	my mother's
-2.613282	my own
-2.728926	my parents
-2.728926	my pleasure
-2.728926	my roomate,who
-1.593872	my roommate
-2.728926	my study
-2.728926	my teacher.
-2.728926	my uncles
-2.728926	my university
-2.728926	my urge.
-2.712943	my utmost
-2.158754	my wallet
-0.7891809	myself for
-0.7951596	name is
-0.7471707	near to
-1.286936	need any.
-1.239094	need is
-1.193742	need of
-0.7709091	need,and I
-1.400542	needed 100
-1.272395	needed a
-1.380226	needed money.
-1.196792	needed to
-0.7471707	needs to
-1.74308	never been
-1.758235	never bothered
-1.755379	never brought
-1.755379	never forget
-1.758235	never happened.
-1.728086	never mentioned
-1.713592	never paid
-1.735518	never return
-1.758235	never urge
-1.410899	new company
-1.410899	new house,
-1.410899	new project
-1.409613	new room
-0.8003505	night after
-1.24302	no money
-0.6728088	no one
-0.8117726	nobody believed
-0.7782912	none of
-0.9247988	not a
-1.534047	not afford
-1.485912	not as
-2.107919	not bring
-2.065976	not close
-1.534047	not do
-1.526286	not enough	-0.1351919
-2.079512	not give
-2.027729	not have	-0.1351919
-2.107919	not know
-2.131904	not live
-2.093483	not own
-2.052849	not pay
-1.749158	not that
-2.107919	not until
-2.137568	not worth
-1.067851	nothing for
-1.079279	nothing with
-0.7774648	noticed that
-1.096146	now because
-1.10659	now uncle
-1.111822	now, Mr.Wang
-1.075983	now, she
-0.7074604	now. </s>
-0.7951596	number is
-0.7074604	occurred. </s>
-0.7471707	occurs to
-2.474425	of animation,
-1.874237	of borrowing
-2.4654	of cash
-2.474425	of course
-2.474425	of fetching
-2.474425	of finishing
-2.474425	of hard
-2.384941	of having
-2.076067	of her
-2.246042	of him
-1.132698	of his
-2.427919	of it.
-2.474425	of lacking
-2.474425	of mine
-2.474425	of mine,
-2.4654	of mine.
-1.032822	of money	-0.1014889
-1.849693	of money,
-2.293078	of money.
-0.7442967	of my	-0.05900664
-2.246042	of our
-2.474425	of philosophy.
-2.474425	of psychology
-2.474425	of repaying,
-1.88674	of she's
-1.95422	of that
-1.237143	of the
-2.4654	of them
-2.474425	of xiaohong's,
-0.8117726	offer reasonable
-1.279128	often felt
-1.281757	often helped
-1.276515	often mentioned
-0.8117726	old story
-1.761718	on purpose,
-1.156675	on purpose.	-0.1351919
-0.4186626	on the
-1.712303	on this
-1.747834	on time.
-1.091017	on, our
-1.075983	on, she
-0.7074604	on. </s>
-1.05206	once I
-0.5294985	once borrowed
-1.683015	once got
-1.520341	once my
-1.692078	once thought
-1.955477	one can
-1.982596	one night
-0.2505523	one of	-0.5294539
-1.280593	one to
-1.856249	one was
-1.980551	one week,
-0.8117726	only those
-0.7883334	operation, his
-0.7074604	operation. </s>
-1.029327	or the
-1.108355	or three
-1.223625	other and
-1.410899	other choice,it
-1.383546	other friends
-1.318645	other in
-0.7074604	other, </s>
-0.7074604	other. </s>
-0.7891809	others for
-0.7074604	others. </s>
-0.4773568	ought to
-1.979552	our fellowship.
-0.8034827	our friendship
-1.979552	our friendship.
-1.955506	our own
-1.979552	our parties,
-1.979552	our purse
-0.6515174	our relationship
-1.979552	our relationship.
-1.963502	our school
-1.976524	our utmost
-1.494409	out a
-1.590317	out for
-1.534971	out he
-1.57451	out in
-1.525624	out of
-1.374809	out to
-1.758235	out together
-1.629605	out with
-1.720778	out without
-0.7074604	outside. </s>
-0.7692856	owes my
-1.410899	own bill
-1.410899	own career.
-1.410899	own credit.
-1.410899	own experienxe,i
-1.103081	pact on
-1.079279	pact with
-1.690314	paid all
-1.065639	paid for
-1.568368	paid her
-1.638447	paid him
-1.601995	paid it
-1.065639	paid me
-0.8091425	parents needed
-1.063043	part in
-1.047392	part of
-0.8114486	part-time every
-0.8056043	parties, which
-0.8114486	party, Xiaoming
-0.8117726	pass through
-0.5042447	passed away,
-0.4272405	pay back
-1.645694	pay for	-0.08495395
-1.645694	pay me
-1.560683	pay my
-1.704244	pay our
-1.557478	pay the
-0.7883334	payed his
-0.8020948	paying back
-0.7074604	payment. </s>
-0.7891809	pays me
-0.7774648	people that
-0.8117726	perfunctory attitude
-0.7782912	period of
-0.8012218	period, our
-0.7471707	person to
-0.7074604	philosophy. </s>
-0.8082553	phone must
-0.8100315	phone, then
-0.8117726	phrased widely.
-0.8117726	piggy bank
-0.7709091	place I
-0.768476	plea, the
-0.7471707	pleasure to
-0.7074604	pleasure. </s>
-0.756511	plight and
-0.7471707	point, to
-0.7074604	point. </s>
-0.7074604	possible. </s>
-0.7074604	poverty. </s>
-0.8117726	predicted cost
-0.8114486	preliminary requirement
-0.7951596	premise is
-0.7471707	pretended to
-0.8056043	problem which
-0.4595799	problem. </s>
-0.8047243	problems have
-0.756511	project and
-0.7951596	project, it
-0.756511	promise and
-1.238393	promised and
-1.411265	promised repaying
-0.774193	promised that
-0.7799489	promising he
-0.756511	protect and
-0.8012218	provided him
-0.756511	psychology and
-0.7891809	purchasing for
-0.756511	purpose, and
-0.7074604	purpose. </s>
-0.8117726	purse outside.
-0.7074604	purse. </s>
-0.8091425	quick help.
-1.036763	quite a
-1.047392	quite of
-0.768476	reach the
-0.7471707	ready to
-0.5001212	real friend
-1.067851	realized her
-1.111176	realized it,
-1.585045	really appreciates
-1.585045	really concerned
-1.585045	really disappointed
-1.554583	really made
-1.530549	really not
-1.569669	really wanted
-1.050478	reason he
-0.9912334	reason to
-0.8100315	reasonable financial
-0.7891809	reasons for
-0.7951596	recall it
-0.7866435	recharge in
-0.8114486	recharged hundreds
-0.8117726	reduced slowly
-0.7074604	refused. </s>
-0.7074604	regularly. </s>
-0.7951596	relations with
-1.410899	relationship doesn't
-1.409613	relationship soon
-1.380226	relationship still
-1.410899	relationship wasn't
-0.7074604	relationship. </s>
-1.007753	relatives and
-1.067851	relatives was
-1.348345	remember it
-1.25968	remember the
-1.400542	remember there
-1.196792	remember to
-0.7782912	reminded of
-0.768476	repaied the
-1.348345	repay it
-1.327343	repay me
-1.25968	repay the
-1.196792	repay to
-0.7074604	repay. </s>
-0.7951596	repayed it
-0.8003505	repaying after
-0.756511	repaying, and
-1.096146	requirement at
-0.9912334	requirement to
-0.7891809	responsible for
-0.8003505	rest after
-0.7951596	restaurant with
-0.803846	restaurant, at
-1.282765	result, Marx
-0.6593948	result, he
-0.8100315	results father
-1.35417	return it
-1.383358	return money.
-0.7661009	return the	-0.2183864
-1.183929	returned my
-0.6517571	returned the	-0.1351919
-0.8114486	richer than
-0.7074604	rmb. </s>
-0.8114486	roaming service
-1.045858	room that
-1.103081	room without
-0.8056043	roomate,who has
-1.37366	roommate borrowed
-1.386893	roommate didn't
-1.409613	roommate during
-1.290847	roommate of
-0.8117726	roommate, Zhang.
-0.8056043	running out
-1.286456	said nothing
-0.6577468	said that
-0.7891809	salary was
-0.7074604	salary. </s>
-0.8117726	sales project,
-0.7074604	savings. </s>
-1.222677	saw her
-1.222677	saw me
-1.271335	saw me,
-1.111822	say anything.
-1.045858	say that
-0.8117726	saying goes,friends
-1.286936	school classmate,
-1.276515	school having
-1.116971	school to
-1.033773	school, I
-1.101337	school, i
-0.4595799	school. </s>
-0.7774648	secrets that
-0.7774648	see that
-0.7471707	seem to
-0.7774648	seems that
-1.111822	seldom communicated
-1.108355	seldom remember
-0.768476	self-study, the
-0.8003505	send some
-1.09272	sent back
-1.066242	sent his
-0.7866435	separately in
-0.7074604	separately. </s>
-0.8117726	serious sick
-0.8114486	seriously ill,
-1.063043	service in
-1.067851	service was
-1.409613	several days
-1.383546	several friends
-1.409613	several times
-1.409613	several ture
-0.7782912	shade of
-0.7074604	shamely. </s>
-0.8020948	share this
-2.175696	she always
-2.250801	she asked
-1.68679	she borrowed	-0.1351919
-2.293861	she called
-2.250801	she could
-2.33142	she couldn't
-1.175956	she did
-2.19329	she didn't
-2.19329	she had
-1.709761	she has
-2.293861	she helped
-2.340466	she intended
-1.152451	she is
-2.33142	she knew
-2.250801	she must
-2.271798	she needed
-2.340466	she needs
-1.709761	she never
-2.293861	she often
-2.211627	she paid
-2.271798	she promised
-2.230772	she really
-2.340466	she repaied
-2.293861	she saw
-2.158788	she still
-2.340466	she trusted
-1.610079	she was
-2.175696	she will
-1.111822	she's perfunctory
-1.111822	she's society.
-0.7471707	shirk to
-1.047392	short of
-1.10659	short time.
-0.7891809	show me
-0.7891809	showed her
-0.756511	sick and
-0.7782912	sickness of
-0.8114486	signing up
-0.8064862	silence made
-0.8114486	sill grateful
-1.108355	since then,
-1.111176	since then.
-0.7074604	sincerely. </s>
-0.7074604	sister. </s>
-0.7074604	situation. </s>
-0.803846	slowly because
-0.8117726	small amount.
-1.49461	so I
-1.758597	so forgetful
-1.755858	so grateful
-1.091098	so he
-1.486437	so my
-1.623307	so she
-1.482408	so the
-1.729642	so they
-0.7074604	society. </s>
-0.7074604	software. </s>
-0.8056043	sold out
-2.006404	some cases,
-2.006404	some conflicts.
-2.006404	some difficulties
-2.006404	some distance
-2.003	some emergency
-0.4705187	some money	-0.1483667
-1.953662	some money,
-1.929325	some money.
-1.740408	some of
-2.006404	some stock
-2.006404	some troubles
-0.8114486	something urgent
-0.8117726	sometimes share
-1.085948	soon as	-0.06224833
-1.10659	soon went
-0.7074604	sour. </s>
-0.7891809	souvenir for
-0.8117726	spending exceeded
-0.8091425	spent all
-0.756511	stable and
-0.8117726	started-up, nobody
-0.8117726	station, where
-0.7951596	stayed with
-1.20065	still appreciate
-1.803391	still influenced
-1.800342	still keep
-1.779174	still needed
-1.787226	still remember
-1.803391	still sometimes
-1.803391	still stable
-1.803391	still taking
-1.800342	still thankful
-0.7782912	stock of
-0.7951596	story with
-0.7074604	story. </s>
-0.756511	students, and
-0.7866435	study in
-0.8073698	stuff on
-0.7866435	succeed in
-1.036763	such a
-1.085948	such as
-0.8091425	suddenly found
-0.7782912	sum of
-0.7951596	sum, it
-0.7709091	summer, I
-0.7891809	support her
-0.7782912	sure of
-1.272395	take a
-1.404022	take bus
-1.345282	take money
-1.409613	take part
-0.7891809	taking for
-0.7471707	talk to
-1.007753	teacher and
-1.099599	teacher once
-0.7074604	teacher. </s>
-0.7074604	tears. </s>
-0.803846	temporarily because
-0.8091425	term economic
-0.8117726	terrible trip
-0.8047243	textbooks, so
-1.410899	than glad
-1.296266	than he
-1.409613	than mine.
-1.409613	than willing
-0.4773568	thankful to
-2.423922	that 100
-1.025764	that I
-2.383205	that close
-2.492005	that day.
-2.264864	that friend
-0.8813419	that he
-2.085568	that his
-2.364193	that i
-2.492005	that interested
-2.492005	that issue.
-2.171962	that it
-2.483042	that kind
-2.160175	that money
-2.492005	that moved
-2.445808	that no
-2.483042	that on,
-2.250312	that one
-2.492005	that only
-2.492005	that point,
-0.9631776	that she	-0.04043509
-1.659483	that the
-2.445808	that three
-1.861495	that time
-1.332483	that time,
-1.885532	that time.	-0.1351919
-2.492005	that travel.
-1.315527	that we
-2.328499	that will
-2.403086	that would
-1.17068	that, my
-1.23434	that, she
-1.256157	that, we
-0.8064862	that,he paid
-0.7074604	that. </s>
-2.622983	the Internet
-2.622983	the above
-2.053383	the balance
-2.622983	the behvior
-2.54214	the best
-2.291003	the borrowed
-2.622983	the bottom
-2.54214	the bus
-2.622983	the cafeteria
-2.60678	the colleague
-2.622983	the condition,
-2.622983	the confidence
-2.622983	the contact
-2.622983	the date
-2.622983	the deadline
-2.622983	the dispute
-2.622983	the dormitory
-2.622983	the emergency.
-2.622983	the fancy
-2.54214	the financial
-2.053383	the first
-1.476808	the friendship
-2.622983	the history
-2.622983	the international
-2.622983	the main
-2.622983	the masterpiece
-2.622983	the meal
-2.60678	the meal,
-2.622983	the minimum
-2.622983	the mobile
-2.053383	the moment
-0.7586074	the money	-0.1209576
-2.622983	the money;
-2.622983	the number
-2.622983	the operation,
-2.60678	the part
-2.622983	the place
-2.622983	the predicted
-2.622983	the preliminary
-2.60678	the problem.
-2.60678	the reason
-2.622983	the restaurant,
-2.622983	the saying
-2.54214	the school
-2.622983	the self-study,
-2.622983	the shade
-2.622983	the sickness
-2.622983	the textbooks,
-2.60678	the thing
-2.622983	the tickets,
-2.385298	the time
-2.54214	the time,
-2.60678	the traveling
-2.622983	the understanding
-2.622983	the university,
-2.622983	the worst
-1.507201	their failure
-1.491296	their friends,
-0.8975914	their friendship
-1.507201	their generosity.
-1.077628	them money
-1.111822	them refused.
-0.7074604	them. </s>
-1.279128	then found
-1.19807	then he
-1.285969	then on,
-1.262193	then, my
-1.367191	then, one
-1.370413	then, we
-1.386893	then, which
-0.8020948	then,I borrowed
-0.4595799	then. </s>
-1.35417	there is
-1.398723	there must
-0.7847151	there was
-0.8117726	these days,
-1.498275	they are
-1.489679	they give
-1.493956	they lend
-1.489679	they mentioned
-1.498275	they need
-1.099599	thing had
-1.111822	thing results
-1.108355	think Anna
-1.045858	think that
-0.8117726	thinking twice
-1.876513	this city,
-1.831342	this did
-1.880292	this happened,
-1.880292	this matter,our
-1.880292	this misunderstanding.
-1.709834	this money
-1.880292	this old
-1.831342	this on
-1.880292	this period,
-1.831342	this really
-1.876513	this service
-1.880292	this story.
-0.7799489	this, he
-0.7074604	this. </s>
-0.8047243	those who
-0.7709091	though I
-1.583126	thought Xiaoming
-1.569669	thought about
-1.486137	thought she
-1.294664	thought to
-1.465526	thought was
-1.525898	thought we
-0.8114486	thousand yuan.
-1.285969	three hundreds
-1.285969	three months
-1.286936	three years,
-0.7725388	through a
-0.7074604	ticket. </s>
-0.7709091	tickets, I
-0.803846	tighter because
-0.8114486	till now
-1.755379	time .
-1.485888	time I
-1.679341	time back
-1.47753	time my
-1.699566	time so
-1.521025	time that
-1.374809	time to
-1.590317	time was
-1.666363	time when
-0.5179995	time, I
-1.597776	time, his
-1.683015	time, i
-1.049967	time, my
-1.652704	time, when
-0.7692856	time,but my
-0.07367988	time. </s>
-1.111822	times communicate,
-1.111822	times untill
-0.8003505	times, but
-0.8082553	times,our friendship
-2.836967	to Beijing
-2.836967	to Beijing,
-2.836967	to Shanghai
-1.871513	to a
-2.387416	to as
-2.703916	to ask
-2.836967	to avoid
-1.433625	to be
-2.836967	to be.
-1.207853	to borrow	-0.01726796
-2.469647	to borrowed
-2.836967	to break
-2.246678	to bring
-1.445428	to buy	-0.4402351
-2.836967	to celebrate
-2.836967	to charge
-2.818248	to create
-2.836967	to damage
-2.836967	to depend
-2.246678	to do
-2.703916	to each
-2.836967	to enjoyed
-2.818248	to even
-2.836967	to express
-2.744578	to get
-1.696851	to give
-2.703916	to go	-0.1351919
-2.17218	to have
-1.53758	to help
-2.703916	to help.
-1.620044	to her	-0.08522119
-2.23334	to her.	-0.1351919
-2.447584	to him
-2.666738	to him.
-1.99633	to his
-2.818248	to home
-2.836967	to home,
-2.836967	to invite
-1.700687	to lend
-2.632493	to lent
-1.492379	to me
-2.195621	to me,
-2.703916	to me.
-2.836967	to meet
-1.067504	to my	-0.05321689
-2.836967	to offer
-2.11858	to one	-0.2183864
-2.128783	to our
-1.542905	to pay	-0.1524538
-2.836967	to protect
-2.744578	to repay
-2.836967	to repay.
-2.703916	to return
-2.818248	to school.
-2.836967	to see
-2.426588	to some
-2.836967	to support
-1.559153	to take
-2.836967	to talk
-2.836967	to tears.
-1.213312	to the
-2.836967	to them.
-2.836967	to try
-2.818248	to turn
-2.447584	to we
-0.8117726	together regularly.
-0.4951916	told me
-1.096146	too because
-1.111822	too early.
-1.036763	took a
-1.067851	took her
-0.7951596	touch with
-0.7891809	touched me
-0.7866435	trapped in
-0.7471707	travel to
-0.7074604	travel. </s>
-0.7866435	traveled in
-1.111822	traveling ,instead
-1.063043	traveling in
-0.7471707	travelled to
-0.7074604	travelled. </s>
-0.756511	travelling, and
-0.8012218	treasure our
-0.7692856	treated my
-0.7074604	treatmment. </s>
-0.7471707	tried to
-0.803846	trip because
-0.793443	trouble she
-1.033773	trouble, I
-1.091017	trouble, we
-0.7471707	troubles to
-0.7799489	troubles, he
-0.8117726	truly need,and
-0.8091425	trust me.
-0.7891809	trusted me
-0.7692856	try my
-0.5029634	ture friends.	-0.1351919
-0.502607	turn on
-0.7891809	turned me
-0.8117726	twice then,I
-1.410899	two brothers.
-1.409613	two or
-1.410899	two thousand
-1.409613	two years
-0.7471707	unable to
-0.8049212	uncle Li
-1.411265	uncle Li,
-1.405024	uncle getting
-0.8020948	uncles borrowed
-0.756511	uncomfortable and
-0.768476	under the
-0.7774648	understanding that
-0.8117726	university turned
-0.7692856	university, my
-0.8117726	unpleaseant attitude.
-1.19807	until he
-1.286936	until now.
-1.23434	until she
-0.7074604	untill </s>
-1.067851	up for
-1.111822	up with,
-0.7725388	upon a	-0.1351919
-0.7692856	urge my
-0.7074604	urge. </s>
-1.111822	urgent happened
-1.108355	urgent need
-1.096146	us at
-1.111822	us gradually
-0.1037458	used to
-0.8117726	usually lead
-0.4773568	utmost to
-1.410899	very generous.
-1.409613	very late,
-1.397089	very long
-1.409613	very much
-0.7725388	vocation, a
-1.007753	wallet and
-1.063043	wallet in
-0.756511	wallet, and
-0.4595799	wallet. </s>
-0.4773568	want to
-1.399112	wanted borrow
-0.224097	wanted to
-0.7471707	wants to
-2.404659	was 500
-1.574391	was a
-2.404659	was afriad
-2.330131	was also
-2.404659	was badly
-2.404659	was cured
-2.353969	was getting
-1.805321	was going	-0.1351919
-1.659566	was his
-1.059976	was in
-2.404659	was lack
-2.394783	was less
-2.353969	was more
-2.404659	was near
-0.9729961	was not
-2.394783	was ought
-2.404659	was ready
-2.404659	was responsible
-2.394783	was sent
-2.404659	was seriously
-2.227337	was so
-2.144277	was some
-2.209406	was still
-2.394783	was thankful
-1.599529	was that
-2.404659	was trapped
-2.394783	was traveling
-2.404659	was unable
-2.330131	was very
-2.394783	was what
-2.404659	was worried
-0.8117726	wasn't influent
-0.8117726	watched Mr.Wang's
-2.074277	we ,we
-2.045234	we are
-1.463043	we became
-1.459294	we can
-2.017369	we could
-2.068732	we don't
-2.017369	we friends.
-2.031078	we go
-1.455576	we got
-2.068732	we live
-2.045234	we make
-2.045234	we often
-2.074277	we students,
-2.045234	we used
-2.074277	we were
-2.017369	we would
-1.089321	weaker after
-1.007753	weaker and
-0.8117726	wechat software.
-0.7471707	week to
-1.033773	week, I
-1.111176	week, however,
-0.4595799	week. </s>
-0.8117726	weeks later,
-0.756511	well and
-0.7074604	well. </s>
-1.505716	went away
-1.412058	went for
-1.507201	went sour.
-0.8288184	went to	-0.1351919
-0.8020948	were not
-1.050478	what he
-1.075983	what she
-0.7036551	when I
-2.054449	when Karl
-1.745704	when he
-1.437751	when i
-1.869397	when it
-2.054449	when it's
-1.674191	when my
-1.919927	when one
-2.054449	when signing
-1.669148	when the
-2.008815	when they
-1.817032	when was
-1.420444	when we
-0.8012218	where we
-0.7709091	whether I
-1.467577	which I
-1.705982	which I'm
-1.705982	which lasted
-1.708411	which led
-1.670188	which made
-1.708411	which touched
-1.063608	which was
-1.050478	while he
-1.111822	while something
-0.7709091	while, I
-1.803178	who came
-1.172214	who is
-1.562551	who my
-1.805537	who provided
-1.792992	who said
-0.6186004	who was
-1.756564	who will
-1.285969	whose family
-1.286936	whose name
-1.286936	whose spending
-0.7074604	widely. </s>
-0.7074604	wife. </s>
-1.849652	will always
-1.890518	will ask
-0.7398711	will be
-1.849652	will help
-1.890518	will lend
-1.899174	will make
-1.857523	will never
-1.826859	will not
-1.310745	will repay
-1.890518	will return	-0.1351919
-0.4773568	willing to
-0.8117726	winter vocation,
-2.116918	with Anna.
-2.111115	with Guan
-1.36534	with a
-1.50954	with each
-2.057517	with friends,
-1.426526	with her
-2.071796	with her.
-1.505581	with him.	-0.1351919
-1.815997	with his
-1.824127	with me
-1.661703	with my
-1.471484	with one	-0.1351919
-2.08656	with other
-2.116918	with pleasure.
-1.351301	with the
-0.8117726	with, failed
-0.7725388	within a
-1.39166	without a
-1.569669	without any
-1.564582	without enough
-1.585045	without hesitating.
-1.585045	without hesitation.
-1.564582	without their
-0.803846	won't borrow
-0.803846	won,t borrow
-1.111822	work separately
-1.079279	work with
-0.8117726	worked part-time
-0.7471707	worried to
-0.8117726	worries concerning
-0.8117726	worst situation.
-0.768476	worth the
-1.498275	would do
-1.506835	would like
-1.481248	would pay
-1.505232	would told
-1.506835	would treasure
-0.8117726	write Marxism,he
-0.768476	writing the
-0.8003505	xiaohong's, but
-0.8114486	year, Xiao
-1.111176	years ago,
-1.097869	years have
-0.7799489	years, he
-0.8073698	yes without
-1.111176	you forgot
-1.097869	you will
-1.507201	your coffee,
-0.8896093	your friend
-1.507201	your premise
-1.505716	your wallet.
-1.410899	yuan directly
-1.363993	yuan from
-1.409613	yuan may
-1.410899	yuan more.
-0.4595799	yuan. </s>
-0.8114486	zhang's home

\3-grams:
-1.188422	<s> After that
-1.269183	<s> After that,
-0.7979815	<s> And my
-0.8178518	<s> And she
-0.3033737	<s> As a
-0.5457443	<s> At that
-0.3994521	<s> Due to
-0.419659	my English teacher
-0.3310263	<s> For example,
-0.4664094	<s> For instance,
-1.221345	<s> I lent
-0.8393486	When I was
-0.5250241	money I borrowed
-0.7508571	<s> It is
-0.9349241	<s> It was
-0.9180458	<s> My father
-0.9089968	<s> My friend
-1.148983	<s> Once a
-1.234523	<s> Once upon
-0.6017653	<s> One of
-0.9134977	<s> She had
-0.8966369	<s> She was
-0.4558997	<s> Since then,
-0.6193092	<s> Till now,
-0.6819825	<s> When I
-1.193376	<s> When she
-0.7440802	As a result,
-0.5620493	upon a time,
-0.3859858	at all. </s>
-0.6591742	money as soon
-0.8551624	soon as possible.
-0.2307273	money back to
-0.3908167	my best friend
-0.3963313	to borrow money
-0.4210162	I borrowed money
-0.3006206	she borrowed money
-0.4901874	a bus to
-0.1736263	to buy a
-0.4610336	bring enough money.
-0.4292511	have enough money
-0.458234	not enough money
-0.8135766	For example, when
-0.2825541	his family. </s>
-1.073233	my father when
-0.6915264	pay for the
-0.7758068	a friend of
-0.8656595	my friend and
-1.294738	my friends in
-0.04164711	my friends. </s>
-0.04164711	ture friends. </s>
-1.52951	money from his
-1.272544	money from me.
-0.3708613	money from my
-0.5287225	to go home.
-0.4932872	was going to
-0.2825541	a hand. </s>
-0.3794404	I have a
-0.385882	not have enough
-0.7341833	to her because
-0.05271429	to her. </s>
-0.3994521	didn't hesitate to
-0.04164711	with him. </s>
-0.3775701	and his friend
-0.2825541	go home. </s>
-0.5871832	money in a
-1.015148	For instance, once
-1.008175	For instance, one
-0.7115236	It is my
-0.3555029	lent it to
-0.6877227	I lent her
-0.6614841	asked me for
-0.7200311	asked me to
-0.5365189	called me and
-0.6909325	from me and
-0.04305181	from me. </s>
-0.09432572	borrow money from
-0.09432572	borrowed money from
-0.5377862	borrowing money from
-0.4367426	enough money to
-0.4716812	for money and
-0.4032071	lent money to
-0.6681312	of money from
-0.6164301	of money to
-0.6125774	some money from
-0.5715981	some money to
-1.381011	the money I
-0.8251014	the money back
-1.09578	the money in
-0.01671216	enough money. </s>
-0.3859858	a month. </s>
-1.049637	from my father
-0.6820264	from my friends
-1.090281	from my mother
-0.9535232	of my friend
-0.7780433	of my friends
-0.7515123	to my friends
-0.5095385	had no money
-0.9391825	did not have
-0.3985047	One of my
-0.8552573	because of the
-0.9591157	friend of mine
-0.1204745	one of my
-0.4782416	instance, once I
-0.1681998	instance, one of
-0.1337891	to one of
-0.1681998	with one of
-0.516698	and our friendship
-0.5456334	going out with
-0.5059016	to pay for
-0.3859858	as possible. </s>
-0.3859858	on purpose. </s>
-0.4055881	will return the
-0.3859858	100 rmb. </s>
-1.023464	that she had
-0.2219308	borrowed some money
-0.2338744	as soon as
-0.6663633	At that time,
-0.534716	and the friendship
-0.3004765	return the money
-0.4031807	returned the money
-0.6533729	Since then, my
-0.05271429	that time. </s>
-0.7585106	back to me
-0.5703322	bus to go
-0.7331157	due to the
-1.330388	money to me,
-1.320441	money to one
-0.5053978	went to the
-0.4076338	Once upon a
-0.2911257	didn't want to
-0.6053416	I was in
-0.9984416	I will return

\end\
