
\data\
ngram 1=431
ngram 2=1017
ngram 3=56

\1-grams:
-3.02111	"return	-0.07031529
-3.02111	$??	-0.07031529
-3.02111	,	-0.0703153
-3.02111	,etc.	-0.07031529
-3.02111	,you	-0.07031529
-3.02111	.	-0.07031529
-1.247614	</s>
-99	<s>	-0.3775825
-3.02111	??"	-0.0703153
-3.02111	A	-0.0703153
-3.02111	Actually,	-0.07031529
-3.02111	Actually,true	-0.07031529
-3.02111	All	-0.07031529
-3.02111	As	-0.07031529
-3.02111	Borrowing	-0.07031529
-3.02111	But	-0.0703153
-3.02111	But,	-0.0703153
-3.02111	Comparing	-0.07031529
-3.02111	For	-0.07031529
-3.02111	Friendship	-0.0703153
-3.02111	However	-0.0703153
-3.02111	However,	-0.07031529
-3.02111	If	-0.0703153
-3.02111	In	-0.07031529
-3.02111	Once	-0.07031529
-3.02111	Real	-0.07031529
-3.02111	So,	-0.0703153
-3.02111	The	-0.07031529
-3.02111	Their	-0.07031529
-3.02111	Therefore	-0.07031529
-3.02111	These	-0.0703153
-3.02111	To	-0.07031529
-3.02111	True	-0.07031529
-3.02111	Under	-0.0703153
-3.02111	Virtually,	-0.0703153
-3.02111	Whenever	-0.07031529
-3.02111	Whereas,	-0.0703153
-3.02111	You	-0.0703153
-1.789699	a	-0.1502419
-2.353603	about	-0.107951
-2.842045	above	-0.07031529
-3.02111	above,	-0.0703153
-2.842045	actually,	-0.07031529
-3.02111	affairs.	-0.07031529
-2.462603	after	-0.07031529
-3.02111	after.	-0.07031529
-2.353603	all	-0.107951
-3.02111	along	-0.07031529
-2.462603	also	-0.07031529
-3.02111	always	-0.07031529
-2.462603	an	-0.1212577
-1.789699	and	-0.07031529
-3.02111	anxious.	-0.07031529
-3.02111	appreciated	-0.07031529
-2.194057	are	-0.07031529
-1.946425	as	-0.1894104
-2.842045	ask	-0.07031529
-3.02111	attitude	-0.07031529
-3.02111	available,	-0.07031529
-2.462603	back	-0.1001584
-3.02111	back,	-0.07031529
-3.02111	barrier	-0.0703153
-2.842045	based	-0.0703153
-3.02111	basis	-0.0703153
-2.077634	be	-0.07636577
-3.02111	beaten	-0.07031529
-1.910229	because	-0.2312591
-2.842045	become	-0.07031529
-3.02111	becomes	-0.07031529
-2.842045	been	-0.07031531
-3.02111	before	-0.0703153
-3.02111	behaviour	-0.0703153
-3.02111	belief,	-0.0703153
-3.02111	below.	-0.07031529
-3.02111	benifits.	-0.07031529
-3.02111	betrays	-0.0703153
-3.02111	better	-0.0703153
-3.02111	better.	-0.07031529
-2.029358	between	-0.07031529
-2.842045	borrow	-0.1212577
-2.353603	borrowing	-0.2875605
-3.02111	borrowing,	-0.07031529
-2.842045	break	-0.0703153
-3.02111	broken,because	-0.0703153
-3.02111	build	-0.0703153
-2.462603	but	-0.07031529
-2.194057	by	-0.07031529
-2.266545	can	-0.07031529
-3.02111	can't	-0.0703153
-2.462603	care	-0.0703153
-3.02111	case	-0.0703153
-3.02111	case,	-0.0703153
-3.02111	cases,	-0.07031529
-2.842045	cause	-0.07031529
-3.02111	cautious	-0.0703153
-3.02111	chances	-0.07031529
-2.842045	change	-0.07031529
-3.02111	changed	-0.07031529
-3.02111	characteristics,	-0.07031529
-3.02111	cherish	-0.07031529
-3.02111	circumstance	-0.0703153
-3.02111	closer.	-0.07031529
-2.842045	come	-0.0703153
-3.02111	coming	-0.07031529
-3.02111	communication,	-0.07031529
-3.02111	companion,never	-0.07031529
-3.02111	companionship.	-0.07031529
-2.842045	compared	-0.0703153
-3.02111	contact	-0.07031529
-3.02111	containing	-0.0703153
-3.02111	contrary,	-0.07031529
-3.02111	conversation	-0.07031529
-3.02111	course	-0.07031529
-3.02111	created	-0.0703153
-3.02111	damage	-0.07031529
-2.842045	damaged	-0.07031529
-3.02111	damaged,	-0.07031529
-3.02111	deal	-0.07031529
-3.02111	debt	-0.0703153
-3.02111	deeply	-0.07031529
-3.02111	development	-0.0703153
-3.02111	disagreement	-0.0703153
-3.02111	displeasure.	-0.07031529
-2.266545	do	-0.1322046
-2.842045	does	-0.1491604
-3.02111	doesn't	-0.07031529
-2.353603	don't	-0.07031529
-3.02111	doubt	-0.0703153
-2.842045	down	-0.0703153
-3.02111	due	-0.07031529
-2.194057	each	-0.3291215
-3.02111	easily.	-0.07031529
-3.02111	emotion	-0.0703153
-2.842045	equality	-0.07031529
-3.02111	etc.	-0.07031529
-3.02111	even	-0.07031529
-3.02111	example,	-0.07031529
-3.02111	exist	-0.0703153
-3.02111	explain	-0.0703153
-3.02111	extreme	-0.07031529
-2.462603	fact,	-0.09735907
-3.02111	fact,once	-0.07031529
-3.02111	fact,those	-0.0703153
-3.02111	fact,true	-0.07031529
-3.02111	factors	-0.0703153
-3.02111	fact，a	-0.0703153
-2.842045	feel	-0.0703153
-3.02111	feeling.	-0.07031529
-2.462603	fellowship	-0.07031529
-3.02111	finance	-0.0703153
-3.02111	fine.	-0.07031529
-2.131956	for	-0.09142052
-3.02111	forged	-0.0703153
-2.842045	forget	-0.1491603
-3.02111	forgets	-0.0703153
-3.02111	foundation	-0.0703153
-3.02111	frankly,	-0.0703153
-3.02111	freindship.	-0.07031529
-2.194057	friend	-0.07031529
-3.02111	friend,more	-0.0703153
-3.02111	friend.	-0.07031529
-3.02111	friendeship	-0.07031529
-1.845796	friends	-0.1452363
-3.02111	friends'	-0.07031529
-2.842045	friends,	-0.07031529
-3.02111	friends,the	-0.07031529
-3.02111	friends,trouble	-0.07031529
-2.462603	friends.	-0.7423685
-1.816842	friendship	-0.3460065
-3.02111	friendship,	-0.07031529
-3.02111	friendship,they	-0.07031529
-2.353603	friendship.	-0.8673072
-3.02111	friendships	-0.07031529
-2.842045	from	-0.09503996
-3.02111	fundation	-0.0703153
-3.02111	generated	-0.07031529
-3.02111	good	-0.0703153
-3.02111	greater.	-0.07031529
-3.02111	happy	-0.07031529
-3.02111	harm	-0.07031529
-3.02111	harmed	-0.07031529
-3.02111	harmed,	-0.07031529
-2.353603	have	-0.07031529
-3.02111	haven't	-0.07031529
-2.842045	he/she	-0.0703153
-3.02111	heart	-0.0703153
-2.842045	help	-0.07031529
-3.02111	helping	-0.07031529
-3.02111	him/her	-0.07031529
-3.02111	his/her	-0.07031529
-3.02111	hobbies	-0.0703153
-3.02111	howerver,the	-0.07031529
-3.02111	however,as	-0.0703153
-2.842045	hurt	-0.0703153
-3.02111	hurt.	-0.07031529
-3.02111	hurting	-0.0703153
-3.02111	i	-0.0703153
-2.353603	if	-0.107951
-3.02111	impact	-0.07031529
-2.842045	important	-0.07031529
-3.02111	important.	-0.07031529
-2.077634	in	-0.187315
-3.02111	inconvinience	-0.0703153
-3.02111	influced.	-0.07031529
-3.02111	influenced	-0.07031529
-3.02111	injure	-0.0703153
-3.02111	injured	-0.07031529
-3.02111	injury	-0.0703153
-3.02111	inside,do	-0.07031529
-3.02111	instead.	-0.07031529
-3.02111	into	-0.0703153
-3.02111	involved	-0.07031529
-3.02111	involved,	-0.0703153
-3.02111	involved.	-0.07031529
-1.789699	is	-0.201208
-3.02111	issue	-0.0703153
-3.02111	issue.	-0.07031529
-3.02111	issues	-0.07031529
-2.029358	it	-0.2997643
-3.02111	it,because	-0.0703153
-3.02111	it--trust	-0.0703153
-3.02111	it.	-0.07031529
-3.02111	kind	-0.0703153
-3.02111	kinds	-0.0703153
-3.02111	know	-0.07031529
-3.02111	lead	-0.07031529
-3.02111	lend	-0.07031529
-3.02111	lenders	-0.0703153
-3.02111	lent	-0.0703153
-3.02111	less	-0.07031529
-3.02111	let	-0.07031529
-3.02111	list.	-0.07031529
-2.353603	long	-0.107951
-2.842045	lots	-0.1491603
-2.353603	make	-0.07031529
-2.462603	many	-0.1212577
-3.02111	material	-0.07031529
-3.02111	matter	-0.0703153
-2.842045	may	-0.07031531
-3.02111	mean	-0.07031529
-2.842045	means	-0.07031529
-3.02111	might	-0.0703153
-2.842045	misunderstanding	-0.07031529
-3.02111	misunderstanding,	-0.0703153
-3.02111	mixed	-0.07031529
-1.816842	money	-0.2385667
-2.353603	money,	-0.0703153
-3.02111	money,but	-0.0703153
-3.02111	money,which	-0.07031529
-3.02111	money-connection	-0.07031529
-2.266545	money.	-0.9642172
-2.462603	more	-0.0703153
-2.842045	much	-0.07031529
-3.02111	mutual	-0.07031529
-3.02111	my	-0.07031529
-2.842045	need	-0.1491603
-3.02111	need,	-0.0703153
-3.02111	never	-0.07031529
-3.02111	no	-0.07031529
-3.02111	nobody.	-0.07031529
-1.946425	not	-0.1100672
-3.02111	occurs	-0.07031529
-1.537422	of	-0.1259567
-3.02111	off,friends	-0.07031529
-3.02111	offer	-0.0703153
-3.02111	ok.	-0.07031529
-2.131956	on	-0.2222522
-2.462603	once	-0.07031529
-2.842045	only	-0.0703153
-3.02111	opinion,	-0.0703153
-2.462603	or	-0.07031529
-2.842045	other	-0.07031529
-3.02111	other,	-0.07031529
-3.02111	other.	-0.07031529
-2.353603	our	-0.107951
-3.02111	out	-0.07031529
-3.02111	out.	-0.07031529
-3.02111	overcome	-0.0703153
-3.02111	owing	-0.07031529
-2.842045	pact	-0.07031529
-2.842045	paid	-0.07031531
-3.02111	part	-0.0703153
-2.462603	pay	-0.1491604
-3.02111	payback	-0.07031529
-3.02111	payback,	-0.07031529
-3.02111	paying	-0.07031529
-2.842045	people	-0.07031529
-3.02111	people.	-0.07031529
-3.02111	perfectly	-0.0703153
-3.02111	permanent	-0.07031529
-3.02111	persons	-0.0703153
-3.02111	place.	-0.07031529
-3.02111	politely	-0.0703153
-3.02111	possible	-0.0703153
-3.02111	possible.	-0.07031529
-3.02111	predicaments.	-0.07031529
-3.02111	probably	-0.07031529
-2.462603	problem	-0.07031529
-2.353603	problems	-0.09142052
-3.02111	problems,	-0.07031529
-3.02111	problems.	-0.07031529
-3.02111	profit	-0.0703153
-3.02111	proves	-0.0703153
-3.02111	pure	-0.07031529
-3.02111	purpose.	-0.07031529
-3.02111	quite	-0.07031529
-2.029358	real	-0.2480092
-3.02111	reality,	-0.0703153
-3.02111	really	-0.07031529
-3.02111	realtionship	-0.07031529
-3.02111	reason	-0.0703153
-3.02111	reduce	-0.0703153
-2.842045	refuse	-0.1491603
-3.02111	related	-0.07031529
-2.266545	relationship	-0.09503998
-3.02111	relationship.	-0.07031529
-3.02111	relatives	-0.07031529
-3.02111	reliable	-0.0703153
-2.842045	reminder	-0.1491603
-2.842045	repay	-0.07031529
-3.02111	respect	-0.0703153
-3.02111	results	-0.07031529
-3.02111	return	-0.07031529
-3.02111	returned	-0.07031529
-2.842045	returning	-0.07031529
-3.02111	rift	-0.0703153
-3.02111	right	-0.07031529
-3.02111	risk	-0.07031529
-3.02111	rocked	-0.07031529
-3.02111	sad.	-0.07031529
-2.842045	safe	-0.0703153
-3.02111	same	-0.07031529
-3.02111	selflessness	-0.07031529
-3.02111	set	-0.0703153
-3.02111	settled	-0.07031529
-3.02111	several	-0.0703153
-3.02111	ship.	-0.07031529
-2.842045	should	-0.0703153
-2.842045	show	-0.1491603
-3.02111	signifcant	-0.07031529
-3.02111	similar	-0.07031529
-3.02111	simply	-0.07031529
-3.02111	since	-0.0703153
-3.02111	skills	-0.07031529
-2.462603	so	-0.07031529
-2.842045	social	-0.1491604
-3.02111	solved.	-0.07031529
-2.842045	some	-0.0703153
-3.02111	soon	-0.07031529
-3.02111	soon.	-0.07031529
-3.02111	spoiled.	-0.07031529
-3.02111	stand	-0.0703153
-3.02111	stay	-0.07031529
-3.02111	stout	-0.07031529
-2.842045	such	-0.1491604
-3.02111	suffer	-0.07031529
-3.02111	suspecting.	-0.07031529
-3.02111	suspicious	-0.0703153
-3.02111	sustain	-0.0703153
-3.02111	take	-0.07031529
-3.02111	takes	-0.07031529
-3.02111	tell	-0.0703153
-3.02111	than	-0.07031529
-1.985915	that	-0.2066166
-3.02111	that,	-0.07031529
-3.02111	that.	-0.07031529
-1.339819	the	-0.1815623
-2.194057	their	-0.07031529
-2.842045	them	-0.0703153
-3.02111	them,	-0.07031529
-2.266545	there	-0.1322046
-2.353603	these	-0.107951
-3.02111	these.	-0.07031529
-2.353603	they	-0.0703153
-3.02111	things	-0.07031529
-2.353603	think	-0.107951
-2.266545	this	-0.0703153
-3.02111	this,	-0.0703153
-3.02111	this.	-0.07031529
-3.02111	those	-0.0703153
-3.02111	though	-0.0703153
-3.02111	tight	-0.07031529
-3.02111	time	-0.07031529
-3.02111	time,at	-0.0703153
-3.02111	time,is	-0.07031529
-2.842045	time.	-0.1491603
-1.636156	to	-0.1376576
-3.02111	to-do	-0.07031529
-3.02111	too	-0.0703153
-3.02111	tool	-0.0703153
-3.02111	tremble	-0.07031529
-2.131956	true	-0.2247817
-3.02111	truely	-0.07031529
-3.02111	truly	-0.07031529
-2.462603	trust	-0.07031529
-2.842045	trust.	-0.1491603
-3.02111	truth	-0.07031529
-3.02111	try	-0.07031529
-2.842045	ture	-0.07031529
-3.02111	unable	-0.07031529
-3.02111	uncomfortable	-0.0703153
-3.02111	undermine	-0.07031529
-3.02111	understand	-0.0703153
-3.02111	understanding	-0.0703153
-3.02111	understanding,	-0.07031529
-3.02111	unlikely	-0.07031529
-2.842045	us	-0.07031531
-3.02111	us.,	-0.0703153
-3.02111	use	-0.0703153
-3.02111	value	-0.0703153
-2.842045	want	-0.07031529
-3.02111	was	-0.07031529
-3.02111	ways.	-0.07031529
-2.266545	we	-0.08872558
-3.02111	we've	-0.07031529
-2.842045	well	-0.07031529
-1.985915	when	-0.2066165
-2.077634	which	-0.0887256
-2.353603	who	-0.07031529
-1.740026	will	-0.3343129
-3.02111	willing	-0.0703153
-1.910229	with	-0.08250171
-2.353603	won't	-0.07031529
-3.02111	worried	-0.0703153
-3.02111	worthy.	-0.07031529
-2.194057	would	-0.3392989
-1.876819	you	-0.0703153
-3.02111	you,	-0.07031529
-3.02111	you,deep	-0.07031529
-2.842045	you.	-0.1491603
-2.462603	your	-0.0703153

\2-grams:
-0.8230704	"return $??
-0.7717609	$?? to
-0.8075543	, true
-0.7042758	,etc. </s>
-0.8218774	,you may
-0.7042758	. </s>
-2.61631	<s> A
-1.326829	<s> Actually,	-0.1735141
-2.61631	<s> Actually,true
-2.083249	<s> All
-1.217314	<s> As	-0.2602695
-2.61631	<s> Borrowing
-1.326829	<s> But	-0.1634296
-2.61631	<s> But,
-2.61631	<s> Comparing
-1.473624	<s> For	-0.2364192
-2.61631	<s> Friendship
-2.61631	<s> However
-0.9949467	<s> However,	-0.07379993
-2.083249	<s> If
-0.739329	<s> In	-0.3381974
-2.61631	<s> Once
-2.61631	<s> Real
-2.61631	<s> So,
-1.473624	<s> The
-2.61631	<s> Their
-2.61631	<s> Therefore
-2.083249	<s> These	-0.473829
-2.61631	<s> To
-2.61631	<s> True
-2.61631	<s> Under
-2.61631	<s> Virtually,
-2.61631	<s> Whenever
-2.61631	<s> Whereas,
-2.61631	<s> You
-2.58119	<s> actually,
-2.411503	<s> all
-2.61631	<s> along
-2.46032	<s> but
-2.61631	<s> howerver,the
-2.61631	<s> however,as
-2.61631	<s> i
-2.291276	<s> on
-0.8075543	??" on
-0.8029155	A real
-1.196339	Actually, a
-1.051983	Actually, the
-1.251012	Actually, true
-0.789289	Actually,true friendship
-1.121765	All kinds
-1.105088	All these
-1.052845	As a	-0.3613579
-1.091427	As for
-0.789289	Borrowing money
-1.119395	But actually,
-1.086967	But in	-0.2364192
-0.8052287	But, in
-0.7960488	Comparing with
-0.8230704	For example,
-0.7870589	Friendship is
-0.7249833	However the
-1.461739	However, as
-1.589671	However, frankly,
-1.494494	However, in
-1.589671	However, selflessness
-1.529923	However, this
-1.472385	However, when
-1.121765	If debt
-1.121765	If we've
-1.555257	In fact,	-0.1680758
-1.589671	In fact,once
-1.589671	In fact,those
-1.589671	In fact，a
-1.589671	In reality,
-1.529923	In this	-0.473829
-0.8122433	Once there
-0.7915306	Real friends
-0.8146068	So, don't
-1.277712	The fellowship
-1.292003	The people
-1.251012	The true
-0.8122433	Their relationship
-0.8122433	Therefore this
-0.8146068	These problems
-0.8230704	To tell
-0.7915306	True friends
-0.7249833	Under the
-0.7249833	Virtually, the
-0.8122433	Whenever we
-0.7937838	Whereas, you
-0.7870589	You and
-1.433868	a friend
-2.046801	a friend,more
-1.719153	a friendship
-1.941618	a long
-1.481852	a matter	-0.4582679
-2.030475	a misunderstanding
-2.046801	a nobody.
-2.030475	a pact
-2.046801	a pure
-0.8443109	a real	-0.2364192
-1.915976	a relationship
-2.030475	a reminder
-2.046801	a rift
-2.046801	a stout
-1.373058	about each
-1.350088	about it
-0.8353944	about it.	-0.4738291
-1.105088	above all
-1.044717	above will
-0.8029155	above, real
-1.078182	actually, when
-1.069571	actually, with
-0.7042758	affairs. </s>
-1.196339	after a
-1.270881	after borrowing
-1.295534	after that.
-0.7042758	after. </s>
-1.221871	all of
-0.7423068	all the
-1.373058	all their
-0.7960488	along with
-1.277712	also an
-1.051983	also the
-1.270881	also think
-0.8230704	always take
-1.293157	an important
-0.7110582	an injury
-1.993421	and better.
-1.993421	and build
-1.911017	and care
-1.993421	and characteristics,
-1.976086	and he/she
-1.88239	and make
-1.855534	and money.
-1.468294	and of
-1.88239	and our
-1.993421	and respect
-1.316638	and the
-1.976086	and trust.
-1.993421	and try
-1.605225	and will
-1.993421	and worthy.
-1.911017	and your
-0.7042758	anxious. </s>
-0.8098925	appreciated by
-1.654344	are borrowing,
-1.654344	are extreme
-1.654344	are good
-1.508973	are not
-1.654344	are relatives
-1.646318	are some
-1.654344	are unable
-1.283837	as a
-1.947192	as below.
-0.7486824	as long	-0.2364192
-1.947192	as possible
-1.947192	as possible.
-1.935271	as returning
-1.375283	as soon	-0.4738291
-1.148187	as the
-1.848418	as we
-1.052845	ask and
-1.119395	ask them
-0.8169834	attitude once
-0.8122433	available, there
-1.410287	back as
-1.437273	back in
-0.9131652	back on
-1.393185	back you
-0.8230704	back, chances
-0.7870589	barrier and
-1.002547	based of
-1.091427	based on
-0.7590641	basis of
-2.153213	be anxious.
-2.153213	be beaten
-2.153213	be broken,because
-2.153213	be changed
-1.594648	be damaged	-0.1743612
-2.153213	be damaged,
-2.153213	be happy
-2.153213	be harmed
-2.153213	be harmed,
-2.12872	be hurt
-2.153213	be hurt.
-2.153213	be impact
-2.153213	be influced.
-2.153213	be injured
-2.12872	be lots
-2.040043	be more
-2.153213	be perfectly
-2.153213	be reliable
-2.153213	be returned
-2.12872	be safe
-2.153213	be spoiled.
-2.153213	be suspicious
-2.153213	be worried
-0.8169834	beaten so
-1.677216	because a
-1.769908	because it
-0.5482724	because of
-1.755392	because that
-1.32494	because they
-1.309329	because true	-0.4738291
-1.908575	because ture
-1.918735	because understanding
-1.277712	become an
-1.295534	become better
-1.207907	become friends
-0.8230704	becomes problems.
-1.119395	been damaged
-1.121765	been rocked
-0.7937838	before you
-0.7590641	behaviour of
-0.8052287	belief, which
-0.7042758	below. </s>
-0.7042758	benifits. </s>
-0.7937838	betrays you
-0.7870589	better and
-0.7042758	better. </s>
-1.656607	between each
-1.541519	between friends
-1.748789	between friends,
-1.758976	between friends,trouble
-1.709069	between friends.
-1.529062	between friendship
-1.758976	between people.
-1.758976	between them,
-1.758976	between us.,
-0.687566	borrow money	-0.4738291
-1.222784	borrow you
-0.3794757	borrowing money	-0.1720675
-1.565463	borrowing money,
-1.55744	borrowing money.
-1.314281	borrowing the
-0.8122433	borrowing, we
-1.069571	break because
-1.002547	break of
-0.8029155	broken,because it
-0.7249833	build the
-1.277712	but also
-1.238254	but it
-1.270881	but think
-1.517789	by each
-1.589671	by paying
-1.19514	by the
-1.589671	by these.
-1.529923	by this
-1.589671	by this.
-1.506967	can come
-1.462181	can do
-1.506967	can only
-1.512775	can simply
-1.512775	can use
-0.8052287	can't be
-1.196339	care is
-1.292003	care much
-1.127833	care of
-0.7870589	case is
-0.9444982	case, the
-1.100487	case, we
-0.8218774	cases, people
-1.082552	cause real
-1.121765	cause several
-0.8006145	cautious when
-0.8098925	chances are
-1.069571	change because
-1.095933	change their
-0.8169834	changed once
-0.7983257	characteristics, not
-0.8218774	cherish you.
-0.8052287	circumstance which
-0.7042758	closer. </s>
-1.121765	come after.
-1.121765	come out.	-0.4738291
-0.8218774	coming down
-0.8230704	communication, etc.
-0.8230704	companion,never suspecting.
-0.7042758	companionship. </s>
-1.02504	compared to
-1.069571	compared with
-1.082552	contact between
-1.100487	contact can
-0.7249833	containing the
-0.8098925	contrary, their
-0.8230704	conversation skills
-1.121765	course containing
-1.105088	course they
-0.8029155	created between
-0.8098925	damage their
-1.320317	damaged because
-1.368452	damaged by
-1.413486	damaged cause
-1.418163	damaged since
-0.7960488	damaged, because
-0.7960488	deal with
-0.7870589	debt is
-0.8230704	deeply hurting
-0.7590641	development of
-0.8075543	disagreement on
-0.7042758	displeasure. </s>
-1.417484	do as
-0.9319023	do harm	-0.473829
-0.9044207	do not
-0.5247523	does not
-0.8230704	doesn't mean
-1.351807	don't be
-1.418163	don't doubt
-1.418163	don't payback,
-1.413486	don't want
-0.8146068	doubt about
-1.121765	down inside,do
-1.02504	down to
-0.7717609	due to
-0.3870212	each other
-1.011703	each other,
-1.595855	each other.
-0.7042758	easily. </s>
-0.8029155	emotion between
-1.052845	equality and
-1.086967	equality in
-0.7042758	etc. </s>
-0.8230704	even exist
-1.270881	example, don't
-1.207907	example, friends
-1.270881	example, if
-0.8146068	exist all
-0.7249833	explain the
-0.8230704	extreme cautious
-1.230789	fact, </s>
-1.575786	fact, a
-1.831538	fact, compared
-1.786654	fact, once
-1.219531	fact, real
-1.048681	fact, the	-0.2609896
-1.71026	fact, true
-1.831538	fact, ture
-1.660663	fact, when
-0.789289	fact,once money
-0.8146068	fact,those who
-0.789289	fact,true friendship
-0.7590641	factors of
-0.8029155	fact，a real
-1.121765	feel sad.
-1.121765	feel uncomfortable
-0.7042758	feeling. </s>
-1.068228	fellowship </s>
-1.413486	fellowship does
-1.276989	fellowship will
-1.368452	fellowship would
-0.7870589	finance is
-0.7042758	fine. </s>
-1.603047	for friendship.
-1.538705	for it
-1.47229	for money
-1.233573	for the
-1.576156	for their
-1.07663	for you,
-0.8029155	forged between
-0.5127512	forget to
-0.8146068	forgets about
-0.7590641	foundation of
-0.7249833	frankly, the
-0.7042758	freindship. </s>
-1.758976	friend above,
-1.758976	friend always
-1.516952	friend and
-1.529062	friend money
-1.384216	friend of
-1.758976	friend ship.
-1.690868	friend who
-1.4937	friend will
-1.656607	friend would
-0.7590641	friend,more of
-0.7042758	friend. </s>
-0.7826328	friendeship will
-1.690175	friends and
-1.873828	friends are
-2.007772	friends become
-1.922136	friends have
-1.338998	friends is
-2.023434	friends know
-1.922136	friends make
-2.023434	friends might
-2.023434	friends results
-2.023434	friends suffer
-2.023434	friends understand
-0.8025633	friends will	-0.2488278
-1.754636	friends with
-1.922136	friends won't
-0.8230704	friends' feeling.
-1.082552	friends, it
-1.100487	friends, there
-0.8230704	friends,the issues
-0.8122433	friends,trouble can
-0.08131298	friends. </s>
-2.193236	friendship .
-1.876294	friendship and
-1.625542	friendship can't	-0.4738291
-2.178634	friendship does
-2.193236	friendship greater.
-0.8368425	friendship is	-0.1694145
-2.193236	friendship less
-2.178634	friendship means
-2.193236	friendship owing
-0.6449601	friendship will	-0.3255637
-1.938456	friendship with
-1.597708	friendship won't	-0.2364192
-0.9949656	friendship would
-0.7042758	friendship, </s>
-0.7826328	friendship,they will
-0.05951355	friendship. </s>
-0.7826328	friendships will
-1.420756	from a
-1.439224	from friends	-0.473829
-1.545574	from our
-1.590428	from you,deep
-1.001462	from your
-0.7590641	fundation of
-0.8169834	generated after
-0.8006145	good that
-0.7042758	greater. </s>
-0.7717609	happy to
-0.7717609	harm to
-0.7960488	harmed because
-0.7960488	harmed, because
-1.290957	have a
-1.418163	have disagreement
-1.298113	have money
-1.413486	have some
-0.8218774	haven't paid
-1.121765	he/she forgets
-1.121765	he/she haven't
-0.8006145	heart when
-1.11769	help the
-1.351807	help which
-1.320317	help with
-1.312789	help you
-0.8098925	helping each
-0.8230704	him/her politely
-0.8230704	his/her friends'
-0.7870589	hobbies and
-0.789289	howerver,the friendship
-0.8146068	however,as long
-1.069571	hurt because
-0.9444982	hurt the
-0.7042758	hurt. </s>
-0.7249833	hurting the
-0.8146068	i think
-1.136475	if the
-1.389075	if they
-0.8077142	if you
-0.8098925	impact by
-1.082552	important between
-1.121765	important part
-0.7042758	important. </s>
-0.6056446	in fact,	-0.1337713
-1.764797	in many
-1.807801	in my
-1.799078	in other
-1.807801	in relationship.
-1.664368	in that
-1.350125	in the
-1.799078	in time.
-0.7870589	inconvinience and
-0.7042758	influced. </s>
-0.8098925	influenced by
-0.7249833	injure the
-0.7960488	injured because
-1.091427	injury for
-1.002547	injury of
-0.7983257	inside,do not
-0.7042758	instead. </s>
-0.7249833	into the
-0.7960488	involved with
-0.7249833	involved, the
-0.7042758	involved. </s>
-1.802778	is a
-2.191014	is above
-2.113231	is also
-2.21214	is available,
-2.191014	is based
-1.877027	is because
-2.21214	is fine.
-2.21214	is involved
-2.21214	is involved,
-2.21214	is mixed
-2.113231	is more
-2.191014	is much
-2.21214	is no
-0.6085912	is not
-2.21214	is ok.
-1.582104	is on	-0.4738291
-2.21214	is quite
-2.21214	is related
-1.298394	is the
-0.7590641	issue of
-0.7042758	issue. </s>
-0.8218774	issues above
-1.767346	it becomes
-0.4064304	it is
-1.54977	it to
-1.661768	it when
-1.132409	it will
-0.8075543	it,because true
-0.8146068	it--trust won't
-0.7042758	it. </s>
-0.7590641	kind of
-0.7590641	kinds of
-0.8098925	know each
-0.7717609	lead to
-0.789289	lend money
-0.8052287	lenders in
-0.8146068	lent our
-0.8230704	less closer.
-0.8098925	let their
-0.7042758	list. </s>
-0.8120136	long as	-0.3613579
-1.418929	long time
-1.256524	long to
-0.5068727	lots of
-1.290957	make a
-1.305389	make friends
-1.298113	make friendship
-1.11769	make the
-1.296304	many cases,
-0.7052249	many problems
-0.8230704	material tool
-0.7590641	matter of	-0.3165293
-1.119395	may feel
-1.121765	may undermine
-0.8230704	mean offer
-1.121765	means helping
-1.078182	means that
-0.8146068	might have
-1.082552	misunderstanding between
-1.044717	misunderstanding will
-0.7249833	misunderstanding, the
-0.8230704	mixed into
-2.151868	money affairs.
-1.497459	money as
-1.866518	money because
-1.92463	money between
-0.8206277	money from	-0.1078949
-1.945867	money in
-0.7967582	money is	-0.1694145
-2.151868	money issue.
-1.564366	money or
-2.151868	money out
-2.071143	money problem
-2.016627	money relationship
-2.134913	money should
-2.151868	money takes
-1.702396	money to
-1.413486	money, lots
-1.39468	money, many
-1.39468	money, or
-1.351807	money, which
-0.7249833	money,but the
-0.8230704	money,which proves
-0.8230704	money-connection was
-0.04694049	money. </s>
-1.292003	more important
-1.295534	more signifcant
-1.295534	more tight
-1.105088	much about
-1.10974	much more
-0.8218774	mutual trust.
-0.8230704	my opinion,
-0.5127512	need to
-0.8052287	need, which
-0.8218774	never been
-0.8218774	no need
-0.7042758	nobody. </s>
-1.741547	not a
-2.085587	not an
-2.176992	not based
-1.011027	not be	-0.0579551
-2.176992	not break
-2.176992	not change
-2.202346	not cherish
-2.202346	not damage
-2.202346	not even
-2.176992	not forget
-2.046991	not have
-2.202346	not important.
-2.202346	not influenced
-2.011547	not money.
-1.94831	not on
-2.176992	not only
-2.176992	not paid
-2.202346	not permanent
-1.893121	not real
-2.176992	not refuse
-2.176992	not returning
-2.046991	not think
-2.202346	not tremble
-2.176992	not want
-2.085587	not your
-0.8218774	occurs such
-2.342413	of "return
-1.796523	of a
-2.342413	of barrier
-2.342413	of belief,
-1.739415	of borrowing
-2.342413	of communication,
-1.806329	of course
-2.342413	of displeasure.
-2.308983	of equality
-2.193024	of fact,	-0.2525405
-2.342413	of fact,true	-0.473829
-2.308983	of friends,
-1.816998	of friendship
-2.342413	of him/her
-2.342413	of his/her
-2.342413	of it,because
-2.342413	of it--trust
-1.579802	of money
-2.342413	of money,but
-2.342413	of mutual
-1.757314	of problem	-0.473829
-2.342413	of problems,
-2.308983	of social
-2.342413	of stand
-2.342413	of that,
-0.9105961	of the
-2.308983	of them
-2.145847	of these
-2.103297	of this
-2.342413	of this,
-1.861094	of you
-2.308983	of you.
-0.8098925	off,friends would
-0.7249833	offer the
-0.7042758	ok. </s>
-1.670796	on money,
-1.670796	on our
-1.715435	on purpose.
-0.4755473	on the	-0.1641841
-1.715435	on time,at
-1.604202	on when
-1.413486	once borrow
-1.298113	once friendship
-1.343718	once it
-1.11769	once the
-1.105088	only make
-1.119395	only repay
-0.8029155	opinion, it
-1.413486	or ask
-1.38576	or if
-1.327978	or not
-1.335777	or when
-1.418163	other involved.
-1.290957	other is
-1.39468	other so
-1.418163	other ways.
-1.052845	other, and
-1.002547	other, of
-0.7042758	other. </s>
-1.314315	our friends
-0.803457	our money
-1.418929	our to-do
-0.7717609	out to
-0.7042758	out. </s>
-0.8146068	overcome these
-0.7717609	owing to
-1.095933	pact by
-1.069571	pact with
-1.121765	paid off,friends
-1.119395	paid us
-0.7590641	part of
-0.8303642	pay back
-0.8103372	pay you	-0.473829
-0.8230704	payback ,etc.
-0.8230704	payback, too
-0.8169834	paying back
-1.095933	people are
-1.105088	people who
-0.7042758	people. </s>
-1.121765	perfectly settled
-1.121765	perfectly solved.
-0.7983257	permanent as
-0.7870589	persons and
-0.7042758	place. </s>
-0.7870589	politely and
-0.8146068	possible if
-0.7042758	possible. </s>
-0.7042758	predicaments. </s>
-0.7983257	probably not
-1.295534	problem occurs
-1.18507	problem will
-1.219793	problem with
-1.655098	problems ,you
-1.589393	problems can
-1.603047	problems if
-1.647436	problems may
-1.647436	problems well
-1.009686	problems will
-0.8218774	problems, such
-0.7042758	problems. </s>
-0.8029155	profit between
-0.8006145	proves that
-0.789289	pure friendship
-0.7042758	purpose. </s>
-0.8230704	quite unlikely
-1.764406	real friend
-1.849944	real friend.
-1.215318	real friends
-1.808656	real friends.
-0.4909441	real friendship	-0.0978767
-1.7934	real friendship.
-1.849944	real friendships
-0.7870589	reality, a
-0.8218774	really need
-0.7826328	realtionship will
-0.8075543	reason for
-0.7590641	reduce of
-0.5127512	refuse to
-0.7717609	related to
-1.590428	relationship forged
-1.420756	relationship is
-0.9200792	relationship of
-1.499865	relationship which
-1.403042	relationship will
-0.7042758	relationship. </s>
-0.8169834	relatives so
-0.7870589	reliable and
-0.5068727	reminder of
-1.082552	repay it
-0.9444982	repay the
-0.7249833	respect the
-0.8218774	results from
-1.105088	return money,
-0.9444982	return the
-0.8230704	returned soon.
-1.10974	returning or
-0.9444982	returning the
-0.7590641	rift of
-0.8230704	right persons
-0.8218774	risk show
-0.8098925	rocked by
-0.7042758	sad. </s>
-1.091427	safe for
-1.121765	safe though
-0.8230704	same time,is
-0.8230704	selflessness doesn't
-0.7870589	set a
-0.7983257	settled as
-0.8146068	several problems
-0.7042758	ship. </s>
-1.086967	should be
-1.073855	should not
-0.4906366	show the
-0.8230704	signifcant than
-0.8230704	similar hobbies
-0.8218774	simply reminder
-0.8006145	since that
-0.7717609	skills to
-1.270881	so borrowing
-1.295534	so easily.
-1.292003	so well
-0.5355703	social contact
-0.7042758	solved. </s>
-1.121765	some factors
-1.100487	some relationship
-0.7983257	soon as
-0.7042758	soon. </s>
-0.7042758	spoiled. </s>
-0.7249833	stand the
-0.8218774	stay safe
-0.789289	stout friendship
-0.5247523	such as
-0.8169834	suffer but
-0.7042758	suspecting. </s>
-0.8146068	suspicious about
-0.7870589	sustain a
-0.8169834	take care
-0.8230704	takes place.
-0.7249833	tell the
-0.8230704	than money,which
-0.6047457	that borrowing	-0.2437523
-1.808552	that generated
-1.800191	that he/she
-1.601484	that is
-1.36287	that the
-1.215456	that they
-1.695834	that which
-0.7960488	that, because
-0.7042758	that. </s>
-2.494264	the basis	-0.2364192
-2.494264	the behaviour
-2.494264	the benifits.
-2.452924	the break
-2.494264	the circumstance
-2.494264	the contrary,
-2.494264	the conversation
-2.452924	the equality
-1.910357	the fellowship
-2.494264	the foundation
-2.168246	the friend
-1.28067	the friendship
-2.494264	the friendship,they
-1.344099	the friendship.	-0.2364192
-2.494264	the fundation
-1.959766	the help
-2.494264	the issue
-2.494264	the lenders
-2.494264	the material
-2.452924	the misunderstanding
-2.494264	the misunderstanding,
-1.157133	the money
-2.494264	the money-connection
-1.866869	the money.	-0.473829
-2.452924	the pact
-2.314595	the problem
-2.494264	the profit
-1.182056	the real	-0.1600416
-2.494264	the reason
-2.494264	the reduce
-1.866869	the relationship
-2.494264	the right
-2.494264	the risk
-2.494264	the same
-2.452924	the social
-2.452924	the time.
-1.827343	the true	-0.2576827
-2.494264	the truely
-2.494264	the truly
-2.314595	the trust
-2.494264	the truth
-2.494264	the value
-2.494264	the willing
-1.589671	their attitude
-1.589671	their freindship.
-1.431281	their friends
-1.589671	their heart
-1.589671	their inconvinience
-1.589671	their realtionship
-1.121765	them instead.
-1.02504	them to
-0.789289	them, money
-1.460752	there are
-0.8919638	there is
-0.8870795	there will
-1.418929	these predicaments.
-0.8274056	these problems
-1.418929	these things
-0.7042758	these. </s>
-1.517789	they are
-1.529923	they do
-1.542405	they don't
-1.542405	they have
-1.555257	they trust
-1.393734	they will
-0.8098925	things would
-1.365265	think for
-0.7747706	think of
-1.342694	think that
-1.394112	this because
-1.512775	this case
-1.512775	this case,
-1.431694	this in
-1.512775	this kind
-0.8075543	this, for
-0.7042758	this. </s>
-0.8146068	those who
-0.7249833	though the
-0.8169834	tight after
-0.8230704	time companion,never
-0.7249833	time,at the
-0.8230704	time,is appreciated
-0.4804454	time. </s>
-2.219513	to ??"
-1.486997	to a
-1.94196	to be
-1.661324	to borrow
-2.219513	to companionship.
-2.219513	to deal
-2.219513	to development
-2.00011	to friend
-1.661324	to help
-1.765501	to is
-2.219513	to lend
-1.784017	to money
-2.219513	to overcome
-1.633138	to pay
-2.219513	to payback
-2.194744	to repay
-1.668432	to return
-2.219513	to set
-2.219513	to sustain
-0.917006	to the	-0.2528755
-2.194744	to us
-0.8230704	to-do list.
-0.8146068	too long
-0.7870589	tool is
-0.8230704	tremble due
-1.72902	true fellowship
-1.689925	true friend
-1.765064	true friendeship
-1.136103	true friends
-0.5496083	true friendship	-0.1081387
-1.715594	true friendship.
-0.8169834	truely trust
-0.789289	truly friendship
-1.238254	trust between
-1.257535	trust each
-1.232013	trust that
-0.4804454	trust. </s>
-0.8230704	truth ,
-0.7717609	try to
-1.061127	ture friends
-1.056966	ture friendship
-0.7717609	unable to
-0.8006145	uncomfortable when
-0.8230704	undermine friendship,
-0.8006145	understand that
-0.7870589	understanding and
-0.8122433	understanding, we
-0.7983257	unlikely as
-1.121765	us back,
-1.10974	us but
-0.8052287	us., which
-0.7249833	use the
-0.7590641	value of
-1.02504	want to
-1.065328	want you
-0.8230704	was created
-0.7042758	ways. </s>
-1.108543	we are
-1.636427	we can
-1.636427	we do
-1.651767	we make
-1.667668	we pay
-1.70207	we should
-1.651767	we won't
-0.8230704	we've lent
-1.10974	well after
-1.078182	well that
-1.808552	when coming
-1.800191	when compared
-1.62322	when friends
-1.612216	when money
-1.737268	when there
-1.139667	when to
-0.5952381	when you
-1.710824	which finance
-1.065999	which is
-1.710824	which lead
-1.70207	which means
-1.70207	which show
-1.474714	which will
-1.621611	which would
-1.418163	who betrays
-1.413486	who change
-1.37702	who do
-1.312789	who you
-2.120596	will also
-0.739558	will be	-0.1339589
-1.621221	will become
-2.177476	will cause
-1.621221	will come	-0.4738291
-2.192443	will deeply
-2.071291	will do
-2.192443	will explain
-2.192443	will injure
-0.5791839	will not	-0.2833183
-2.120596	will pay
-2.192443	will probably
-2.192443	will stay
-0.7590641	willing of
-1.792631	with all
-1.877968	with emotion
-1.877968	with friends,the
-1.815111	with many
-1.792631	with money,
-1.771259	with money.
-1.064172	with the
-1.792631	with these
-1.877968	with those
-1.877968	with understanding,
-1.630068	with you
-1.351807	won't be
-1.413486	won't been
-1.39468	won't care
-1.418163	won't let
-0.8006145	worried when
-0.7042758	worthy. </s>
-0.3605522	would be
-1.713462	would hurt
-1.718488	would never
-1.108739	would not
-1.722062	you as
-1.976086	you ask
-1.911017	you back
-1.993421	you before
-1.855534	you can
-1.88239	you don't
-1.976086	you feel
-1.806343	you for
-1.976086	you forget
-1.830242	you friend
-1.651509	you money
-1.993421	you need,
-1.993421	you really
-1.976086	you refuse
-1.537602	you to
-1.703321	you with
-1.052845	you, and
-1.100487	you, there
-0.8218774	you,deep down
-0.4804454	you. </s>
-1.305389	your friends
-1.39468	your friends.
-1.343718	your real
-1.418163	your similar

\3-grams:
-0.4102028	<s> Actually, the
-0.3015272	<s> As a
-0.4320405	<s> But in
-0.2949966	<s> For example,
-0.7368425	<s> However, in
-0.3377981	<s> In fact,
-0.9668671	<s> In this
-0.1453288	<s> These problems
-0.2371753	As a matter
-0.2433517	long as we
-0.2832946	the basis of
-0.8321536	not be damaged
-0.5677064	will be perfectly
-0.1754724	that borrowing money
-0.1446475	friendship can't be
-0.1614625	will come out.
-0.4404705	be damaged because
-0.6654564	In fact, the
-0.7476059	In fact, true
-0.5573477	in fact, once
-0.3089923	of fact, the
-0.1434577	of fact,true friendship
-0.1677991	from friends is
-0.4172958	real friendship will
-0.6195993	true friendship won't
-0.03353026	the friendship. </s>
-0.6049313	money from friends
-0.1421019	do harm to
-0.2489869	But in fact,
-0.3100455	friendship is not
-0.3100455	money is not
-0.1363866	about it. </s>
-0.2930748	as long as
-0.1472122	a matter of
-0.1457591	borrow money from
-0.3677208	borrowing money from
-0.01520691	the money. </s>
-0.2757547	will not be
-0.5935092	matter of fact,
-0.5721162	matter of fact,true
-0.1098623	is on the
-0.1363866	come out. </s>
-0.1636358	of problem will
-0.3667569	a real friend
-0.2744152	the real friendship
-0.1441372	as soon as
-0.3373654	fact, the true
-0.4989436	on the basis
-0.3185115	to the money
-0.1710545	In this case,
-0.1619818	because true friends
-0.2194164	the true friendship
-0.2330459	friends will not
-0.1857616	friendship will not
-0.3510499	friendship won't be
-0.1750593	pay you back

\end\
