
\data\
ngram 1=312
ngram 2=661
ngram 3=45

\1-grams:
-2.797687	,which	-0.0727806
-2.797687	.	-0.07278061
-1.385334	</s>
-99	<s>	-0.2281794
-2.797687	All	-0.0727806
-2.797687	Although,	-0.0727806
-2.797687	As	-0.07278061
-2.797687	Because	-0.0727806
-2.797687	Borrowing	-0.0727806
-2.797687	Caring	-0.07278061
-2.797687	Chinese	-0.0727806
-2.797687	For	-0.07278061
-2.797687	From	-0.07278061
-2.797687	Furthermore,	-0.0727806
-2.797687	Futhermore,it	-0.0727806
-2.797687	Helping	-0.07278061
-2.312519	I	-0.0727806
-2.797687	If	-0.0727806
-2.797687	In	-0.0727806
-2.797687	It	-0.0727806
-2.797687	It's	-0.0727806
-2.797687	Lending	-0.0727806
-2.797687	Only	-0.0727806
-2.797687	The	-0.07278059
-2.797687	There	-0.07278061
-2.797687	To	-0.07278061
-1.637823	a	-0.08266537
-2.195021	about	-0.07278062
-2.312519	above,	-0.1395574
-2.797687	above,borrowing	-0.0727806
-2.797687	absolutely	-0.0727806
-2.797687	account	-0.07278061
-2.797687	achieve	-0.07278061
-2.797687	actually	-0.0727806
-2.797687	again	-0.07278061
-2.797687	again,	-0.07278059
-2.797687	all,	-0.0727806
-2.195021	also	-0.1001523
-2.797687	always	-0.0727806
-2.66762	an	-0.1772378
-1.667341	and	-0.1253553
-2.797687	appreciating	-0.0727806
-2.66762	are	-0.07278061
-2.102638	as	-0.07278061
-2.797687	at	-0.0727806
-1.855531	be	-0.09519496
-2.195021	because	-0.09663501
-2.66762	become	-0.0727806
-2.797687	been	-0.0727806
-2.66762	behavior	-0.07278061
-2.797687	believe	-0.07278059
-2.797687	better.	-0.07278061
-1.905397	between	-0.1503668
-2.797687	bit	-0.07278061
-2.797687	bitterness	-0.07278061
-2.66762	borrow	-0.1395574
-1.770258	borrowing	-0.3967583
-2.797687	borrows	-0.0727806
-2.797687	both	-0.0727806
-2.797687	broken	-0.0727806
-2.797687	budget,	-0.07278059
-2.797687	built	-0.07278059
-1.855531	but	-0.4050085
-1.905397	by	-0.2015194
-1.810805	can	-0.1001523
-2.797687	can't	-0.0727806
-2.797687	care	-0.0727806
-2.797687	career	-0.0727806
-2.195021	cause	-0.07278062
-2.797687	cement	-0.0727806
-2.797687	challenge	-0.07278061
-2.797687	chance	-0.07278059
-2.66762	closer.	-0.1772378
-2.797687	come	-0.07278061
-2.797687	comes	-0.07278059
-2.797687	communal	-0.0727806
-2.797687	companionship	-0.0727806
-2.797687	companionship.	-0.07278061
-2.797687	conclusion,	-0.0727806
-2.797687	conflict	-0.07278061
-2.66762	connection	-0.0727806
-2.797687	consistent	-0.0727806
-2.797687	contains	-0.0727806
-2.797687	contract,	-0.07278059
-2.797687	contraditory	-0.0727806
-2.797687	controdctions	-0.0727806
-2.797687	conveyed	-0.0727806
-2.797687	countable,	-0.0727806
-2.797687	creat	-0.0727806
-2.797687	create	-0.0727806
-2.797687	damage	-0.0727806
-2.797687	debt.	-0.07278061
-2.195021	deepen	-0.111603
-2.797687	delaying	-0.07278061
-2.797687	destroyed	-0.0727806
-2.312519	develop	-0.1395574
-2.66762	difficulties	-0.0727806
-2.797687	difficulty.	-0.07278061
-2.797687	disable	-0.07278059
-2.797687	disagree	-0.07278059
-2.797687	disappeared	-0.07278059
-2.797687	dispute.	-0.07278061
-2.797687	disscussed	-0.07278061
-2.797687	distance	-0.07278061
-2.66762	do	-0.0727806
-2.797687	doesn't	-0.0727806
-2.797687	doing	-0.0727806
-2.797687	doubt	-0.0727806
-2.102638	each	-0.2238199
-2.797687	easily	-0.0727806
-2.797687	emotional	-0.07278061
-2.797687	endorse	-0.0727806
-2.797687	enhance	-0.0727806
-2.797687	enhanced	-0.0727806
-2.797687	enmity.	-0.07278061
-2.797687	equality	-0.07278061
-2.312519	even	-0.07278061
-2.797687	eventually	-0.07278061
-2.797687	existing	-0.0727806
-2.797687	experience	-0.07278061
-2.797687	extent.	-0.07278061
-2.66762	face	-0.0727806
-2.797687	face,but	-0.0727806
-2.797687	face.	-0.07278061
-2.797687	fact	-0.0727806
-2.797687	favor	-0.07278061
-2.797687	feel	-0.0727806
-2.797687	feeling	-0.07278059
-2.312519	fellowship	-0.0727806
-2.797687	firm	-0.07278059
-2.797687	first	-0.07278061
-2.66762	for	-0.0727806
-2.797687	fragile	-0.0727806
-2.195021	friend	-0.07278061
-2.797687	friend.	-0.07278061
-2.797687	friendliness.	-0.07278061
-1.810805	friends	-0.1195716
-2.66762	friends,	-0.07278061
-2.797687	friends,which	-0.0727806
-2.797687	friends.	-0.07278061
-1.699012	friendship	-0.1892071
-2.312519	friendship,	-0.1395574
-1.905397	friendship.	-0.6497887
-2.797687	frienship	-0.07278059
-2.66762	from	-0.07278061
-2.797687	gap	-0.0727806
-2.797687	generate	-0.0727806
-2.797687	getting	-0.0727806
-2.797687	goal	-0.0727806
-2.797687	gonna	-0.07278061
-2.797687	great	-0.0727806
-2.797687	growth.	-0.07278061
-2.797687	habit.	-0.07278061
-2.797687	hand,and	-0.0727806
-2.797687	hand.	-0.07278061
-2.66762	harm	-0.0727806
-2.797687	harmed	-0.0727806
-2.66762	have	-0.07278061
-2.66762	help	-0.07278059
-2.66762	helping	-0.0727806
-2.797687	him	-0.07278061
-2.312519	his	-0.07278059
-2.66762	hurt	-0.0727806
-2.797687	hurts	-0.0727806
-2.797687	i	-0.07278061
-2.66762	if	-0.07278061
-2.797687	impair	-0.07278061
-2.797687	improve	-0.0727806
-2.797687	improving	-0.07278061
-2.102638	in	-0.07278062
-2.797687	increase	-0.0727806
-2.797687	indeed”.	-0.07278061
-2.797687	inequality	-0.0727806
-2.797687	influenced	-0.07278061
-2.797687	injured	-0.0727806
-2.797687	injury	-0.07278059
-1.810805	is	-0.1367083
-2.797687	isn't	-0.07278061
-2.102638	it	-0.1312152
-2.797687	it's	-0.0727806
-2.312519	it.	-0.2238199
-2.797687	keep	-0.07278061
-2.797687	kind	-0.07278061
-2.797687	know	-0.07278061
-2.797687	lead	-0.07278059
-2.66762	lending	-0.1772378
-2.797687	let	-0.0727806
-2.312519	lose	-0.07278059
-2.66762	make	-0.1218762
-2.312519	may	-0.07278061
-2.797687	means	-0.07278061
-2.797687	method	-0.07278059
-1.733176	money	-0.1495203
-2.66762	money,	-0.1218762
-2.66762	money.	-0.1772378
-2.797687	moral	-0.0727806
-2.66762	more	-0.07278061
-2.797687	most	-0.0727806
-2.66762	much	-0.0727806
-2.797687	much,	-0.0727806
-2.797687	mutual	-0.0727806
-2.797687	mutually	-0.0727806
-2.797687	need	-0.07278061
-2.797687	never	-0.0727806
-2.797687	new	-0.0727806
-1.961741	not	-0.265968
-1.810805	of	-0.111603
-2.797687	old	-0.0727806
-2.102638	on	-0.156984
-2.797687	one	-0.0727806
-2.797687	one's	-0.0727806
-2.66762	only	-0.07278061
-2.66762	other	-0.07278061
-2.797687	other,	-0.07278061
-2.797687	others	-0.07278061
-2.195021	our	-0.07278061
-2.66762	over	-0.0727806
-2.797687	payoff	-0.0727806
-2.797687	perceive	-0.07278061
-2.797687	person	-0.07278061
-2.797687	persons,	-0.0727806
-2.797687	precious	-0.0727806
-2.797687	problem	-0.0727806
-2.797687	problems	-0.0727806
-2.797687	produces	-0.0727806
-2.797687	promotion	-0.07278059
-2.797687	quality,	-0.07278061
-2.797687	rather	-0.07278061
-2.026501	real	-0.2087138
-2.797687	reasonable	-0.07278061
-2.797687	reasons,	-0.0727806
-2.797687	relation.	-0.07278061
-2.797687	relationship	-0.0727806
-2.797687	relationship.	-0.07278061
-2.797687	repay	-0.0727806
-2.66762	repaying	-0.07278061
-2.797687	represents	-0.0727806
-2.797687	resulting	-0.0727806
-2.797687	return	-0.07278059
-2.797687	returning	-0.0727806
-2.797687	rigid	-0.0727806
-2.797687	rocks.	-0.07278061
-2.797687	saying“	-0.0727806
-2.797687	second	-0.07278061
-2.797687	separated	-0.0727806
-2.797687	short,	-0.0727806
-2.797687	show	-0.0727806
-2.797687	sides	-0.0727806
-2.797687	signifcant	-0.07278061
-2.797687	sincereness	-0.07278061
-2.797687	so	-0.0727806
-2.797687	some	-0.0727806
-2.797687	sometimes	-0.0727806
-2.797687	sophisticated	-0.0727806
-2.797687	split	-0.0727806
-2.797687	stated	-0.07278061
-2.797687	stoped	-0.0727806
-2.66762	strengthen	-0.0727806
-2.797687	sum	-0.07278061
-2.797687	summarise,	-0.0727806
-2.797687	summary,	-0.0727806
-2.797687	suspicious	-0.07278061
-2.797687	test	-0.0727806
-2.66762	than	-0.0727806
-2.026501	that	-0.1001523
-1.418478	the	-0.1486021
-2.66762	their	-0.0727806
-2.797687	them.	-0.07278061
-2.797687	they	-0.07278061
-2.66762	thing	-0.07278061
-2.797687	thing.	-0.07278061
-2.66762	think	-0.0727806
-2.797687	this	-0.0727806
-2.797687	thoughtful,	-0.0727806
-2.797687	tide	-0.07278061
-2.797687	time	-0.07278059
-1.559684	to	-0.1260534
-2.797687	tough	-0.07278061
-2.797687	troubles	-0.0727806
-1.905397	true	-0.09391889
-2.66762	trust	-0.07278059
-2.797687	trust,	-0.07278061
-2.797687	try	-0.07278061
-2.797687	ture	-0.0727806
-2.66762	two	-0.07278061
-2.797687	un	-0.0727806
-2.797687	uncomfortable	-0.0727806
-2.797687	under	-0.0727806
-2.797687	understand	-0.0727806
-2.797687	understanding,	-0.07278061
-2.797687	up,	-0.0727806
-2.797687	up,a	-0.0727806
-2.797687	us	-0.07278061
-2.797687	used	-0.07278059
-2.797687	utmost	-0.07278059
-2.797687	valuable	-0.0727806
-2.195021	we	-0.1808585
-2.797687	well	-0.07278059
-2.66762	what	-0.0727806
-2.797687	whatever,an	-0.0727806
-2.312519	when	-0.07278061
-2.797687	whether	-0.0727806
-2.797687	which	-0.0727806
-2.66762	who	-0.07278061
-1.770258	will	-0.1319107
-2.797687	within	-0.0727806
-2.102638	won't	-0.156984
-2.797687	word,	-0.07278061
-2.66762	would	-0.07278061
-2.195021	you	-0.07278062
-2.026501	your	-0.1048868
-2.797687	yourself.	-0.07278061

\2-grams:
-0.8078745	,which gonna
-0.7232658	. </s>
-1.791194	<s> All
-2.351751	<s> Although,
-2.351751	<s> As
-2.351751	<s> Because
-1.791194	<s> Borrowing	-0.305015
-2.351751	<s> Caring
-2.351751	<s> For
-2.351751	<s> From
-2.351751	<s> Furthermore,
-2.351751	<s> Futhermore,it
-2.351751	<s> Helping
-2.351751	<s> If
-0.9233258	<s> In	-0.2074955
-1.131622	<s> It	-0.3287565
-2.351751	<s> It's
-2.351751	<s> Lending
-2.351751	<s> Only
-1.546679	<s> The
-1.791194	<s> There
-1.131622	<s> To	-0.3289265
-2.137829	<s> because
-1.701148	<s> it
-2.001549	<s> not
-2.351751	<s> whatever,an
-1.076632	All as
-1.076632	All in
-0.7600368	Although, a
-0.8002114	As I
-0.7898141	Because real
-0.7697374	Borrowing money	-0.305015
-0.7632463	Caring and
-0.8078745	Chinese saying“
-0.8065636	For what
-0.8065636	From what
-0.7291821	Furthermore, the
-0.8078745	Futhermore,it hurts
-0.776327	Helping friends
-1.27754	I conveyed
-1.273686	I have
-1.273686	I think
-0.7967179	If you
-1.236236	In a
-1.398798	In conclusion,
-1.398798	In short,
-1.398798	In summary,
-1.044691	It is	-0.4753202
-1.076632	It won't
-0.7864028	It's not
-0.7697374	Lending money
-0.7967179	Only we
-1.27754	The first
-1.27754	The precious
-1.27754	The second
-1.105161	There can't
-1.044691	There is
-1.105161	To sum	-0.2320165
-1.105161	To summarise,
-2.025123	a bit
-2.025123	a challenge
-2.025123	a chance
-2.025123	a contraditory
-2.025123	a distance
-2.025123	a favor
-1.392021	a friend
-2.025123	a friend.
-2.025123	a gap
-2.025123	a great
-2.025123	a habit.
-2.025123	a method
-2.004459	a more
-2.025123	a old
-2.025123	a reasonable
-2.025123	a test
-1.735196	a true
-2.025123	a word,
-1.398798	about returning
-1.398798	about them.
-1.398798	about whether
-1.332267	about your
-0.6276368	above, borrowing	-0.305015
-1.279123	above, i
-0.7697374	above,borrowing money
-0.8078745	absolutely cement
-0.776327	account of
-0.8002114	achieve his
-0.8078745	actually increase
-0.7632463	again and
-0.7932523	again, it
-0.7730197	all, borrowing
-1.533088	also a
-1.793474	also because	-0.1775929
-1.276232	also cause
-1.910582	also contains
-1.910582	also damage
-1.793474	also deepen
-1.827175	also develop
-1.910582	also doing
-1.57024	also friendship
-1.910582	also improve
-1.304719	also make
-1.910582	also this
-0.7291821	always the
-0.4734663	an injury	-0.305015
-1.940053	and again,
-1.24112	and borrowing	-0.305015
-1.940053	and creat
-1.924562	and do
-1.315807	and even
-1.940053	and growth.
-1.334517	and helping
-1.295897	and it
-1.821932	and our
-1.940053	and return
-1.940053	and yourself.
-0.7291821	appreciating the
-1.038576	are borrowing
-1.105161	are getting
-1.456218	as above,
-1.492059	as firm
-1.492059	as rocks.
-1.440616	as we
-1.492059	as well
-0.7600368	at a
-1.237214	be a
-1.966468	be an
-1.390382	be broken	-0.305015
-1.984814	be destroyed
-1.984814	be disappeared
-1.984814	be enhanced
-1.984814	be fragile
-1.984814	be harmed
-1.984814	be influenced
-1.984814	be injured
-1.984814	be mutual
-1.984814	be separated
-1.984814	be stoped
-1.984814	be suspicious
-1.984814	be thoughtful,
-1.483158	because borrowing
-1.677623	because lending
-1.017059	because of	-0.305015
-1.612684	because our
-1.677623	because repaying
-1.302527	because the
-1.534022	because true	-0.1776429
-1.01494	become a
-1.102565	become closer.
-0.8078745	been disscussed
-0.9980212	behavior to
-1.105161	behavior which
-0.7932523	believe in
-0.7232658	better. </s>
-0.7906079	between friends	-0.1773081
-1.069085	between friends,
-1.690076	between friends.
-1.551576	between true
-1.681783	between two
-0.8065636	bit help
-0.776327	bitterness of
-0.6256201	borrow money
-1.146187	borrow to
-1.869766	borrowing again
-1.862644	borrowing for
-0.2800391	borrowing money	-0.3615778
-1.203038	borrowing will
-0.7697374	borrows money
-0.8078745	both sides
-0.7830182	broken by
-0.7932523	budget, as
-0.7932523	built on
-0.2465019	but also	-0.06430254
-1.827609	but become
-1.683902	but borrowing
-1.781505	but deepen
-1.555718	by borrowing
-1.694531	by it.
-1.541114	by money
-0.6078277	by money,	-0.2304213
-1.120237	by money.	-0.305015
-1.910582	can actually
-1.229557	can be
-1.793474	can cause
-1.276232	can deepen
-1.910582	can easily
-1.827175	can even
-1.895241	can only
-1.910582	can show
-1.910582	can sometimes
-1.895241	can strengthen
-1.910582	can tide
-1.895241	can trust
-0.7796597	can't be
-0.7967179	care about
-0.8078745	career goal
-1.492059	cause conflict
-1.492059	cause dispute.
-1.492059	cause problems
-1.410998	cause that
-1.199802	cause the
-0.7664797	cement friendship
-0.8065636	challenge for
-0.7505481	chance to
-0.4407271	closer. </s>
-0.8065636	come difficulties
-0.7505481	comes to
-0.8078745	communal experience
-1.063572	companionship not
-1.044691	companionship of
-0.7232658	companionship. </s>
-1.105161	conclusion, delaying
-1.057187	conclusion, true
-0.8002114	conflict when
-1.057187	connection between
-1.044691	connection of
-0.8078745	consistent friendliness.
-0.7291821	contains the
-0.7932523	contract, it
-0.7796597	contraditory but
-0.7967179	controdctions about
-0.8078745	conveyed above,borrowing
-0.7796597	countable, but
-0.8078745	creat new
-0.8078745	create bitterness
-0.7291821	damage the
-0.7232658	debt. </s>
-0.8426867	deepen friendship.	-0.305015
-1.44618	deepen our
-1.219212	deepen the
-1.418678	deepen your
-0.8065636	delaying repaying
-0.7830182	destroyed by
-1.259933	develop it.
-0.6002204	develop the
-1.02073	difficulties and
-1.038576	difficulties will
-0.7232658	difficulty. </s>
-0.7505481	disable to
-0.7932523	disagree each
-0.7932523	disappeared on
-0.7232658	dispute. </s>
-0.8002114	disscussed above,
-0.7632463	distance and
-1.102565	do harm
-1.105161	do much,
-0.7796597	doesn't be
-0.8078745	doing tough
-0.7967179	doubt about
-0.6932694	each other
-0.6939821	each other,	-0.1766841
-0.8078745	easily understand
-0.8065636	emotional connection
-0.7898141	endorse real
-0.7291821	enhance the
-0.7830182	enhanced by
-0.7232658	enmity. </s>
-0.776327	equality of
-1.398798	even achieve
-1.398798	even better.
-1.286949	even can
-1.398798	even enhance
-0.8065636	eventually hurt
-0.7664797	existing friendship
-0.7632463	experience and
-0.7232658	extent. </s>
-1.076632	face on
-1.105161	face problem
-0.7967179	face,but also
-0.7232658	face. </s>
-0.7898141	fact that
-0.776327	favor can
-0.8078745	feel uncomfortable
-0.7505481	feeling to
-1.27754	fellowship doesn't
-1.25532	fellowship even
-1.181873	fellowship will
-0.7932523	firm as
-0.8065636	first thing
-1.105161	for reasons,
-1.057187	for true
-0.7830182	fragile by
-1.357209	friend can
-1.425554	friend in
-1.492059	friend indeed”.
-1.48576	friend who
-1.344742	friend will
-0.7232658	friend. </s>
-0.7232658	friendliness. </s>
-1.575794	friends a
-1.253706	friends and
-1.987754	friends at
-1.987754	friends believe
-1.681625	friends can
-1.987754	friends doubt
-1.970273	friends if
-1.291059	friends is
-1.893686	friends may
-1.760234	friends not	-0.3503814
-1.987754	friends so
-1.522807	friends to
-1.075952	friends will	-0.3289174
-1.157246	friends, and
-1.27754	friends, resulting
-1.126441	friends, to
-0.7730197	friends,which will
-0.7232658	friends. </s>
-1.627873	friendship and
-1.752371	friendship between
-1.728983	friendship but
-0.8297113	friendship is
-1.70679	friendship of
-1.971672	friendship rather
-1.893024	friendship when
-0.8268495	friendship will	-0.4080987
-1.831201	friendship won't
-1.957272	friendship would
-1.173727	friendship, and
-0.6316987	friendship, but	-0.1597369
-0.1049965	friendship. </s>
-0.7932523	frienship won't
-1.236236	from a
-1.286949	from friends	-0.2786433
-1.398798	from troubles
-1.332267	from your
-0.7830182	gap between
-0.8078745	generate enmity.
-0.8078745	getting used
-0.7730197	goal will
-0.8065636	gonna hurt
-0.8078745	great promotion
-0.7232658	growth. </s>
-0.7232658	habit. </s>
-0.7898141	hand,and that
-0.7232658	hand. </s>
-0.9609323	harm the
-0.9980212	harm to
-0.7830182	harmed by
-1.105161	have been
-1.105161	have stated
-1.02073	help and
-1.070053	help your
-1.207982	helping between
-1.235762	helping each
-1.27754	helping him
-0.8065636	him from
-1.27754	his career
-1.27754	his sincereness
-1.27754	his utmost
-0.9609323	hurt the
-1.070053	hurt your
-0.8078745	hurts one's
-0.8065636	i think
-1.038576	if borrowing
-1.102565	if their
-0.8002114	impair it.
-0.7291821	improve the
-0.8065636	improving their
-1.492059	in all,
-1.492059	in difficulty.
-1.425554	in each
-1.492059	in need
-1.492059	in time
-0.7830182	increase friendship.
-0.7232658	indeed”. </s>
-0.7830182	inequality between
-0.8065636	influenced if
-0.7830182	injured by
-0.7505481	injury to
-1.034725	is a
-1.966317	is always
-1.812297	is as
-1.966317	is built
-1.966317	is countable,
-1.966317	is disable
-1.812297	is in
-1.950296	is much
-1.078412	is not	-0.4025802
-1.311992	is that
-1.966317	is under
-0.8065636	isn't an
-1.475341	it can
-1.63414	it comes
-1.475341	it is
-0.7325005	it will
-1.626515	it would
-0.7600368	it's a
-0.3692548	it. </s>
-0.776327	keep friends
-0.776327	kind of
-0.776327	know is
-0.7505481	lead to	-0.305015
-0.4591927	lending money	-0.305015
-0.7967179	let you
-1.273686	lose face
-1.27754	lose face,but
-1.27754	lose face.
-1.400368	make both
-0.7069419	make the
-1.400368	make us
-1.245431	may also
-1.245431	may cause
-1.27754	may disagree
-0.8065636	means helping
-0.7505481	method to
-1.603997	money and
-1.277013	money can
-1.113323	money from	-0.4297138
-1.277013	money is
-1.882911	money may
-1.967678	money mutually
-1.817046	money on
-1.211686	money to	-0.1777979
-1.268289	money will
-1.967678	money within
-1.261054	money, and
-1.395804	money, borrow
-0.7493861	money, but	-0.2173915
-0.4407271	money. </s>
-0.8078745	moral quality,
-1.105161	more rigid
-1.105161	more signifcant
-0.8078745	most valuable
-1.102565	much closer.
-1.102565	much more
-0.7796597	much, but
-0.8078745	mutual understanding,
-0.7830182	mutually between
-0.776327	need is
-0.7796597	never be
-0.7830182	new friendship.
-1.596233	not a
-1.197855	not be
-1.862598	not generate
-1.853157	not harm
-0.4536492	not only	-0.1922846
-1.862598	not split
-1.778281	of appreciating
-1.767208	of behavior
-1.778281	of communal
-1.135939	of each
-1.767208	of face
-1.510103	of friendship
-1.015361	of the
-1.767208	of two
-0.8078745	old Chinese
-1.495273	on account
-0.5715263	on the
-1.465325	on when
-0.8078745	one hand,and
-0.8078745	one's feeling
-1.436339	only a
-1.64702	only because	-0.1401811
-1.733033	only create
-1.733033	only isn't
-1.672397	only lose
-1.733033	only produces
-1.733033	only represents
-1.72212	only strengthen
-1.623044	only won't
-1.134315	other </s>
-1.286949	other can
-1.398798	other hand.
-1.344376	other on
-1.050894	other, but	-0.305015
-1.083311	other, we
-0.776327	others can
-1.398798	our budget,
-1.398798	our existing
-1.356833	our friend
-1.265948	our money
-1.105161	over come
-1.102565	over difficulties
-0.7291821	payoff the
-0.8002114	perceive his
-0.8065636	person who
-0.7796597	persons, but
-0.7664797	precious friendship
-0.8078745	problem .
-0.7967179	problems because
-0.8078745	produces controdctions
-0.7505481	promotion to
-0.7632463	quality, and
-0.8065636	rather than
-1.601133	real fellowship
-1.500278	real friends
-0.4843679	real friendship	-0.1229396
-1.526785	real friendship.
-0.8065636	reasonable behavior
-0.7796597	reasons, but
-0.7232658	relation. </s>
-1.057187	relationship between
-1.102565	relationship much
-0.7232658	relationship. </s>
-0.7697374	repay money
-1.090096	repaying may
-1.032545	repaying money
-0.7291821	represents the
-0.8078745	resulting improving
-0.7932523	return in
-0.7291821	returning the
-0.8078745	rigid relation.
-0.7232658	rocks. </s>
-0.7600368	saying“ a
-0.8065636	second thing
-0.7830182	separated by
-0.7830182	short, true
-0.7967179	show you
-0.8078745	sides feel
-0.8065636	signifcant than
-0.776327	sincereness of
-0.7898141	so that
-0.8078745	some extent.
-0.7796597	sometimes be
-0.7664797	sophisticated friendship
-0.7291821	split the
-0.8002114	stated above,
-0.7830182	stoped by
-1.057187	strengthen friendship.
-0.9609323	strengthen the
-1.105161	sum up,
-1.105161	sum up,a
-0.7898141	summarise, real
-1.27754	summary, it's
-1.07729	summary, the
-1.27754	summary, ture
-0.776327	suspicious of
-0.7967179	test about
-1.105161	than impair
-1.102565	than money.
-1.394436	that a
-0.9665123	that friends
-1.421115	that friendship
-1.529995	that real
-1.281192	that the
-1.63251	that they
-1.681042	the companionship
-2.246439	the companionship.
-2.21718	the connection
-2.246439	the consistent
-2.246439	the contract,
-2.246439	the debt.
-2.246439	the emotional
-2.246439	the equality
-2.246439	the fact
-2.0971	the fellowship
-1.469616	the friendship
-1.63508	the friendship,	-0.305015
-0.98637	the friendship.	-0.5722303
-2.246439	the inequality
-1.672886	the money,
-2.246439	the most
-2.246439	the one
-2.21718	the other
-2.246439	the person
-1.57851	the real
-1.681042	the relationship
-1.873905	the true
-2.21718	the trust
-2.246439	the trust,
-1.026597	their friendship
-1.057187	their friendship.
-0.7232658	them. </s>
-0.776327	they can
-1.044691	thing is
-0.9980212	thing to
-0.7232658	thing. </s>
-1.038576	think borrowing
-1.070053	think that
-0.8078745	this kind
-0.7796597	thoughtful, be
-0.8065636	tide over
-0.7932523	time won't
-1.603134	to a
-1.454479	to borrow
-1.690129	to borrowing
-1.903466	to deepen
-1.94472	to develop
-2.050285	to endorse
-1.714902	to friends
-1.94472	to friendship,
-2.050285	to know
-2.050285	to let
-2.050285	to others
-2.030451	to over
-2.050285	to payoff
-2.050285	to repay
-2.050285	to some
-0.8571461	to the
-0.776327	tough friends
-0.7730197	troubles will
-1.676412	true fellowship
-1.651989	true friend
-1.528755	true friends
-1.724103	true friends,
-1.042998	true friendship	-0.305015
-1.676412	true friendship,
-1.566078	true friendship.
-1.734539	true frienship
-1.057187	trust between
-1.076632	trust each
-0.8065636	trust, lending
-0.8002114	try his
-0.7664797	ture friendship
-1.105161	two friends,which
-1.105161	two persons,
-0.8078745	un sophisticated
-0.8078745	uncomfortable ,which
-0.7967179	under our
-0.7967179	understand we
-0.7632463	understanding, and
-1.181873	up, borrowing
-1.173508	up, money
-1.07729	up, the
-0.7898141	up,a real
-0.8002114	us lose
-0.7505481	used to
-0.7505481	utmost to
-0.8078745	valuable thing.
-1.398038	we are
-0.5055231	we can
-0.7932523	well as
-1.090096	what I
-1.102565	what have
-0.8078745	whatever,an un
-1.235762	when it
-1.126441	when to
-1.245431	when you
-0.7898141	whether your
-0.8078745	which means
-1.105161	who borrows
-1.044691	who is
-1.989187	will absolutely
-1.355237	will also
-1.712881	will be
-1.972132	will become
-1.897221	will develop
-1.989187	will keep
-1.39149	will lead	-0.305015
-1.897221	will lose
-1.38712	will make
-1.989187	will never
-1.10167	will not	-0.2620499
-1.989187	will try
-0.7830182	within true
-0.5997276	won't be
-1.452163	won't cause
-1.49004	won't do
-0.8002114	word, I
-1.105161	would eventually
-1.063572	would not
-1.39371	you are
-1.398798	you care
-1.39371	you help
-1.398798	you perceive
-1.512457	your friend
-0.9071407	your friends
-1.382759	your friendship
-1.569165	your moral
-1.569165	your relationship.
-0.7232658	yourself. </s>

\3-grams:
-0.2300658	<s> Borrowing money
-0.7744166	<s> In conclusion,
-0.5829474	<s> In summary,
-0.2416602	<s> It is
-0.2457183	<s> To sum
-0.8195956	but also because
-0.4467551	also because borrowing
-0.5271854	only because true
-0.1165938	above, borrowing money
-0.1165938	and borrowing money
-0.2319402	be broken by
-0.154791	friendship, but also
-0.1322659	money, but also
-0.1048966	other, but also
-0.4327258	between friends is
-0.6085951	from friends not
-0.5518718	from friends will
-0.4451524	real friendship will
-0.2377864	true friendship will
-0.2074301	the friendship, but
-0.04885596	deepen friendship. </s>
-0.02572177	the friendship. </s>
-0.1888129	money from friends
-0.2272694	an injury to
-0.1591263	It is not
-0.2272694	will lead to
-0.2654149	Borrowing money from
-0.9097436	borrowing money can
-0.3023741	borrowing money from
-0.2716489	lending money to
-0.286941	by money, but
-0.1648506	by money. </s>
-0.1482931	friends not only
-0.128723	is not only
-0.3993981	will not be
-0.5505041	will not only
-0.2577554	because of the
-0.4292109	not only because
-0.4051035	each other, but
-0.3373451	To sum up,
-0.2865748	lead to a
-0.457485	money to friends
-0.4493171	because true friends
-0.2454982	friends will not
-0.1937065	friendship will not

\end\
